{"model1d": {"inputs": ["alpha_deg"], "alpha_range": [-6.0, 16.0], "x_mean": [5.428571428571429], "x_std": [6.2517344532113155], "y_mean": [0.5225726984126983, 0.01852380952380953], "y_std": [0.6003583962146418, 0.014706814686317604], "layers": [{"W": [[-0.0818544328212738], [0.33498361706733704], [-0.5697582960128784], [-0.4611404538154602], [-0.36343204975128174], [0.2469296157360077], [0.006054053083062172], [0.5420697927474976], [-0.06563255935907364], [0.1244376003742218], [-0.4371327757835388], [-0.3254360854625702], [-0.7390010356903076], [-0.5875338912010193], [-0.32536250352859497], [0.06804157793521881], [0.38256728649139404], [0.492843896150589], [-0.6584237813949585], [-0.46754592657089233], [0.2911139726638794], [0.5166906714439392], [-0.22416333854198456], [0.5859448313713074], [-0.14363260567188263], [0.12949474155902863], [0.621291995048523], [-0.6191014647483826], [-0.6173654794692993], [-0.27382558584213257], [-0.2926175892353058], [0.6778634786605835], [-0.5624842047691345], [-0.4009065330028534], [-0.6751143336296082], [-0.6923096776008606], [-0.6762186884880066], [0.7073577642440796], [0.40421104431152344], [0.4239281713962555], [0.07530876249074936], [-0.35340261459350586], [0.10330348461866379], [-0.7576138377189636], [-0.44514012336730957], [-0.4130803048610687], [0.5316723585128784], [0.5860913395881653], [-0.46152111887931824], [-0.05925850570201874], [0.5805724859237671], [0.7715118527412415], [0.37847980856895447], [0.1307886838912964], [0.4662277400493622], [-0.4972952604293823], [0.13541248440742493], [-0.4864063560962677], [-0.5161905884742737], [-0.502484917640686], [0.5905283689498901], [0.5401231646537781], [-0.44804051518440247], [0.21812863647937775]], "b": [0.5637880563735962, -0.2307080179452896, 0.05561283603310585, 0.4747295677661896, 0.6257219910621643, 0.6471635699272156, -0.6282107830047607, -0.5447158217430115, 0.5838786363601685, 0.7290424704551697, 0.7701548933982849, 0.7106178998947144, 0.10143590718507767, -0.6943009495735168, 0.1362297683954239, -0.5538831353187561, -0.7754708528518677, 0.694986879825592, 0.905696451663971, -0.6845954060554504, -0.01580836810171604, -0.3349255919456482, -0.11196544766426086, -0.6515048146247864, 0.3430734872817993, -0.40035638213157654, 0.4660615622997284, 0.7819386720657349, 0.8323751091957092, 0.44465556740760803, -0.7405574917793274, -0.8487049341201782, 0.6115071773529053, 0.40307217836380005, -0.6944993734359741, -0.674919605255127, 1.0114703178405762, 0.6970521807670593, -0.584480345249176, -0.45314088463783264, -0.7050771713256836, 0.16878032684326172, -0.649140477180481, -0.8539488911628723, 0.012431559152901173, 0.2524639070034027, -0.5434212684631348, 0.5777576565742493, -0.4831762909889221, 0.6801930665969849, 0.6499755382537842, -1.052752137184143, -0.4368792772293091, -0.17613032460212708, 0.1862814873456955, 0.3978756070137024, 0.4908533990383148, 0.20398113131523132, -0.4443472623825073, 0.659095823764801, -0.925213098526001, -0.711614727973938, -0.2147938460111618, -0.5316187143325806], "act": "tanh"}, {"W": [[-0.02221757173538208, -0.11393376439809799, -0.007054029498249292, 0.050794731825590134, 0.010481884703040123, -0.008738519623875618, 0.06364277005195618, -0.03657139092683792, 0.04734921082854271, -0.015890466049313545, 0.08539870381355286, 0.09835002571344376, 0.12060832232236862, 0.08067972213029861, 0.1226278617978096, -0.014310679398477077, -0.155731663107872, -0.06219502165913582, 0.11987613141536713, 0.005018260329961777, -0.07234340161085129, -0.10545602440834045, -0.06778940558433533, -0.12330520153045654, 0.0306689590215683, 0.00459636002779007, 0.04610549286007881, -0.07130929827690125, 0.11421594023704529, -0.01910913735628128, -0.016349460929632187, -0.07967442274093628, 0.01666957326233387, 0.013098742812871933, -0.08706138283014297, -0.08396036922931671, 0.06698766350746155, -0.010976443067193031, -0.09514617919921875, -0.0010214385110884905, -0.09118524193763733, 0.019490547478199005, 0.029160425066947937, -0.032369956374168396, 0.11734916269779205, 0.06375576555728912, -0.130466490983963, 0.05641398951411247, -0.00021579682652372867, -0.03365696594119072, 0.07389175146818161, -0.12741795182228088, -0.031028755009174347, -0.03920441120862961, 0.05946239456534386, 0.05602056533098221, 0.0350949726998806, 0.0582115538418293, -0.010920858941972256, 0.029297633096575737, -0.14905433356761932, -0.010106817819178104, 0.10495360195636749, -8.95935227163136e-05], [-0.007110425736755133, 0.03802061453461647, -0.10994721204042435, -0.06820926815271378, -0.040908508002758026, 0.06777840107679367, -0.06460797786712646, 0.025028403848409653, 0.01896919496357441, 0.08210891485214233, -0.03786729276180267, -0.024002758786082268, -0.10191795974969864, -0.014358735643327236, -0.05483591556549072, 0.013947714120149612, 0.017143920063972473, 0.062396399676799774, -0.011779358610510826, -0.06803683191537857, 0.044485561549663544, 0.02117794379591942, -0.03022754192352295, 0.031240355223417282, -0.02510189637541771, -0.02715231664478779, 0.14157849550247192, -0.07510140538215637, -0.01859336532652378, 0.028557324782013893, -0.02471308968961239, 0.01411217451095581, -0.0815141499042511, -0.0019345730543136597, -0.12468022108078003, -0.10253739356994629, -0.024959176778793335, 0.06897129118442535, 0.018573341891169548, 0.07854130864143372, -0.028094414621591568, 0.014063525013625622, 0.008835618384182453, -0.1290624439716339, -0.024420028552412987, -0.08319380134344101, 0.0017617706907913089, 0.09080604463815689, -0.03714462369680405, 0.076380155980587, 0.04378904774785042, 0.004041410516947508, 0.05570327118039131, -0.006659229751676321, 0.1135498508810997, -0.09106499701738358, 0.034855134785175323, -0.057597506791353226, -0.10344730317592621, -0.0148248840123415, 0.04765413701534271, 0.0018650279380381107, -0.10208772867918015, -0.015157959423959255], [-0.06801285594701767, 0.08634427189826965, -0.0903317928314209, -0.11365489661693573, -0.09340514987707138, 0.09386250376701355, 0.0064188288524746895, 0.12511910498142242, 0.02254338189959526, 0.006746337283402681, -0.0476360097527504, 0.02574407309293747, 0.05902361497282982, 0.0002462504489813, -0.0845215767621994, -0.05776941776275635, -0.07124965637922287, 0.05164133384823799, -0.10366325825452805, -0.12119689583778381, 0.1254182904958725, -0.036398060619831085, -0.039848726242780685, 0.07207955420017242, -0.017053794115781784, -0.05991962179541588, -0.056405551731586456, 0.0492129810154438, -0.02343703620135784, 0.05387042090296745, -0.06665891408920288, 0.07474610954523087, -0.06512799113988876, -0.042055003345012665, -0.0976121798157692, 0.0037440485320985317, -0.006330391857773066, 0.03113549016416073, 0.014186122454702854, -0.027107566595077515, 0.041956279426813126, -0.11784311383962631, 0.04211139306426048, -0.07364653795957565, -0.0909426361322403, -0.017439275979995728, -0.017043359577655792, 0.05681970342993736, -0.00897918175905943, -0.045410867780447006, 0.04840686544775963, 0.09214838594198227, 0.08039987087249756, 0.02165493182837963, -0.05531632900238037, -0.05553990602493286, 0.06137113273143768, -0.07771126925945282, 0.009747356176376343, 0.03164568170905113, -0.02363545633852482, 0.037071723490953445, 0.008676099590957165, 0.03763521835207939], [-0.002805610653012991, -0.010801173746585846, -0.04109853506088257, 0.009836634621024132, 0.0391201376914978, -0.017874956130981445, 0.03446510434150696, 0.014106018468737602, 0.01466304063796997, -0.052582915872335434, -0.052415087819099426, -0.04774519428610802, 0.07785633206367493, 0.11656375974416733, -0.013807352632284164, 0.019554484635591507, 0.05002252385020256, -0.046879205852746964, 0.041653409600257874, 0.0903254970908165, -0.03913414850831032, -0.0299670472741127, 0.035620030015707016, 0.04844265431165695, -0.011492096818983555, 0.028244810178875923, -0.028259916231036186, 0.027014877647161484, -0.056467797607183456, 0.021956929937005043, 0.045630402863025665, 0.07418841123580933, -0.019477345049381256, 0.033032264560461044, 0.10098966211080551, 0.10459659993648529, -0.038837261497974396, -0.05588629096746445, -0.04253548011183739, 0.005757711362093687, -0.02120254747569561, -0.0323636457324028, -0.03837604075670242, 0.14530029892921448, 0.06238791346549988, 0.07267901301383972, 0.056755464524030685, -0.11715869605541229, 0.041487425565719604, -0.018807586282491684, -0.11316675692796707, 0.07573205232620239, -0.05186513811349869, -0.015001722611486912, -0.10090988874435425, -0.03104815073311329, -0.008763451129198074, 0.07064332813024521, 0.11056196689605713, 0.04519909992814064, 0.06614162027835846, -0.009521814994513988, 0.07231487333774567, 0.041210681200027466], [-0.07818123698234558, 0.071426622569561, 0.039084043353796005, 0.04378858208656311, -0.06306685507297516, -0.06301048398017883, 0.10515096038579941, -0.022512221708893776, -0.1003880575299263, -0.1299249529838562, -0.09180224686861038, -0.04634550213813782, 0.06005308777093887, 0.01222845260053873, -0.038905031979084015, 0.11300797015428543, 0.09843031316995621, -0.031166566535830498, -0.026153327897191048, 0.10186586529016495, 0.014269841834902763, -0.059775058180093765, 0.045885246247053146, 0.048485882580280304, -0.06296756118535995, 0.0902908518910408, -0.03450983390212059, -0.0006893433746881783, 0.05274893715977669, -0.0412868857383728, 0.042753905057907104, -0.03976026549935341, -0.015729304403066635, -0.023039544001221657, 0.005789643153548241, 0.05566926673054695, -0.01211269199848175, -0.03259454295039177, 0.02973156049847603, 0.03991575166583061, 0.1302865445613861, -0.0618840716779232, 0.08607508987188339, -0.07111160457134247, -0.033262431621551514, 0.020161477848887444, -0.04941044747829437, 0.016149861738085747, 0.07369773089885712, -0.10308977961540222, -0.05433179438114166, -0.05184710770845413, 0.03008539415895939, 0.011981453746557236, 0.03450250253081322, -0.06351935118436813, -0.09942802041769028, -0.07520392537117004, -0.011427586898207664, 0.02842286415398121, -0.011482945643365383, 0.06387785822153091, -0.022341342642903328, 0.07361836731433868], [0.016356419771909714, 0.0950435921549797, -0.1916651427745819, -0.08463305979967117, -0.008076717145740986, 0.17186403274536133, -0.07368647307157516, 0.16013434529304504, 0.029706979170441628, 0.1293230801820755, -0.07473298162221909, -0.0353894867002964, -0.31092727184295654, -0.2881067395210266, -0.1385258138179779, -0.04079863056540489, 0.031637273728847504, 0.2418362945318222, -0.04124697670340538, -0.2463075965642929, 0.13516752421855927, 0.1417417675256729, -0.12096396833658218, 0.1497412919998169, -0.018041478469967842, 0.01045988965779543, 0.33694988489151, -0.12593623995780945, -0.10401886701583862, -0.05213967338204384, -0.18406900763511658, 0.08738643676042557, -0.13954637944698334, -0.14099247753620148, -0.3568403124809265, -0.29242509603500366, -0.033211711794137955, 0.3657101094722748, 0.0994768887758255, 0.13937221467494965, -0.03409096971154213, -0.16596786677837372, -0.024985214695334435, -0.3156571686267853, -0.19432953000068665, -0.18880417943000793, 0.15663178265094757, 0.3001069128513336, -0.2712746858596802, 0.017422186210751534, 0.31593501567840576, 0.08211906999349594, 0.07028399407863617, 0.04604295268654823, 0.2751004993915558, -0.11623620986938477, 0.12486737966537476, -0.2142866551876068, -0.26332226395606995, -0.06400936096906662, 0.015717871487140656, 0.09477774798870087, -0.26120173931121826, 0.05190156400203705], [0.06348388642072678, -0.11503785103559494, 0.053787197917699814, 0.1376206874847412, 0.11682762950658798, 0.05181489139795303, -0.020891297608613968, -0.1245657429099083, 0.10211755335330963, 0.02172931283712387, 0.20029029250144958, 0.07738395035266876, -0.02813858911395073, -0.10667061805725098, 0.15311382710933685, -0.09858611971139908, -0.1560875028371811, 0.007831428200006485, 0.30162158608436584, 0.04029455780982971, -0.10397349298000336, -0.15403303503990173, -0.0232992060482502, -0.146941676735878, 0.07417887449264526, -0.13543027639389038, 0.0015004845336079597, 0.17099663615226746, 0.1536305695772171, 0.13958710432052612, -0.07239481061697006, -0.2219582349061966, 0.16514328122138977, 0.1855790913105011, -0.12556180357933044, -0.050318412482738495, 0.19195233285427094, 0.1581517904996872, -0.23084701597690582, -0.20950882136821747, 0.0027377947699278593, 0.009916173294186592, -0.08463487774133682, -0.07391849905252457, 0.007272875402122736, 0.06415640562772751, -0.08400598913431168, 0.04837014153599739, -0.1250980645418167, 0.029956573620438576, 0.015528171323239803, -0.15635773539543152, -0.18013127148151398, -0.012696981430053711, -0.028026524931192398, 0.08388611674308777, 0.08461342006921768, 0.10358958691358566, 0.04851837828755379, 0.2164880931377411, -0.2244686633348465, -0.24217267334461212, -0.006018354557454586, -0.05895717069506645], [0.11917076259851456, -0.22543348371982574, 0.08061904460191727, 0.2990618050098419, 0.26190370321273804, 0.026002313941717148, -0.1916084885597229, -0.22872260212898254, 0.13552320003509521, 0.06187087297439575, 0.29820311069488525, 0.2516421377658844, 0.1135454773902893, -0.05500892549753189, 0.13361549377441406, -0.19460895657539368, -0.32852017879486084, 0.20887920260429382, 0.4276752769947052, -0.07522066682577133, -0.12444822490215302, -0.08216360211372375, 0.09463035315275192, -0.2388896942138672, 0.11137363314628601, -0.16543398797512054, 0.02812095358967781, 0.3989534080028534, 0.3484600782394409, 0.2182057648897171, -0.06486859917640686, -0.38964003324508667, 0.2740270495414734, 0.2373630255460739, -0.12282687425613403, -0.18700005114078522, 0.45299312472343445, 0.07668622583150864, -0.2859036326408386, -0.21876226365566254, -0.09569128602743149, 0.1407109647989273, -0.09993328899145126, -0.11464793980121613, 0.007420704234391451, 0.2336990088224411, -0.2757240831851959, 0.005696078296750784, -0.1001972034573555, 0.07758652418851852, 0.1827004849910736, -0.4110192060470581, -0.30515173077583313, -0.09191381931304932, 0.06178933382034302, 0.22888271510601044, 0.08287165313959122, 0.11671876162290573, -0.04831324890255928, 0.3206884562969208, -0.36755266785621643, -0.4053371548652649, -0.08090618997812271, -0.19609947502613068], [-0.06514135003089905, -0.022381672635674477, 0.07412919402122498, 0.042396821081638336, -0.03395592048764229, 0.044757261872291565, -0.010893597267568111, 0.05855707451701164, -0.041797760874032974, -0.06544804573059082, 0.05517071858048439, -0.026736803352832794, 0.12770511209964752, -0.018214942887425423, -0.04947927966713905, -0.011220188811421394, -0.0021784156560897827, 0.044286202639341354, -0.025430092588067055, 0.08378610759973526, -0.06583268195390701, -0.05854858085513115, 0.10054374486207962, -0.11285194754600525, 0.02798105776309967, 0.04817933961749077, -0.06611207872629166, 0.11374010890722275, -0.007425651885569096, 0.09515108913183212, -0.04757442697882652, -0.04142504930496216, 0.010502941906452179, 0.06763215363025665, 0.09783486276865005, 0.13913220167160034, 0.00528821162879467, -0.05970829725265503, 0.038181792944669724, -0.06296133995056152, 0.09987549483776093, -0.03099759854376316, -0.010833852924406528, 0.052565548568964005, 0.09082497656345367, 0.10871738195419312, -0.04834095761179924, -0.14032487571239471, 0.0979999378323555, -0.010400177910923958, -0.01029749121516943, -0.08945083618164062, 0.028977712616324425, 0.04150990769267082, -0.035647474229335785, -0.06478821486234665, 0.026472415775060654, -0.044405847787857056, 0.07604073733091354, 0.04526088386774063, -0.056043531745672226, 0.007716829422861338, -0.04931746423244476, -0.003602584358304739], [-0.17946209013462067, -0.006174677982926369, 0.013557507656514645, 0.08525719493627548, -0.11719734221696854, -0.029914867132902145, 0.11336333304643631, -0.0680263340473175, -0.2228914052248001, -0.20000487565994263, 0.024970127269625664, -0.121998630464077, 0.01675461418926716, 0.027364932000637054, 0.05240389332175255, 0.2007385790348053, 0.17757686972618103, -0.09990894049406052, 0.022939907386898994, -0.002960562240332365, -0.0533270426094532, 0.012147592380642891, 0.0959940180182457, -0.10666085034608841, -0.05881718918681145, 0.06533791124820709, 0.00297242752276361, 0.11445562541484833, 0.003746304428204894, -0.06150165572762489, 0.008213508874177933, 0.03257085382938385, 0.016291219741106033, -0.06770993024110794, 0.00813213363289833, -0.10336232930421829, -0.08955980092287064, 0.03856014832854271, 0.10975242406129837, -0.013106459751725197, 0.173569917678833, 0.0676659494638443, 0.17954140901565552, -0.09070322662591934, -0.01222908589988947, -0.02083011344075203, -0.09105579555034637, 0.005588581785559654, 0.09899712353944778, -0.043893538415431976, 0.015073009766638279, -0.04547455906867981, -0.007168628741055727, 0.07146075367927551, -0.038010939955711365, -0.05008896812796593, -0.07867567986249924, 0.05763573944568634, -0.10219571739435196, 0.07094426453113556, 0.09439777582883835, -0.03750861808657646, -0.019741062074899673, 0.18128027021884918], [-0.09913861751556396, 0.007638177834451199, 0.021234683692455292, -0.13472412526607513, -0.04838782176375389, 0.026936139911413193, 0.08773540705442429, -0.02414228580892086, -0.001417206833139062, -0.07675360888242722, -0.038064468652009964, -0.1693049967288971, -0.11151260137557983, 0.07840625196695328, -0.02441401407122612, 0.047749027609825134, 0.06699550151824951, -0.058416467159986496, -0.1238921508193016, -0.07548513263463974, 0.02597808837890625, 0.04812547564506531, -0.01645847037434578, 0.09204607456922531, -0.0040974607691168785, 0.08879570662975311, -0.04319767281413078, -0.10285952687263489, -0.1554928719997406, -0.12018679082393646, 0.00619895663112402, 0.05056123808026314, -0.01802084781229496, -0.09204534441232681, 0.09848976135253906, -0.06656935065984726, -0.12630797922611237, 0.08505672216415405, 0.1715923696756363, 0.001474017626605928, 0.061968009918928146, -0.01995858922600746, 0.0448945090174675, -0.024124350398778915, 0.013482287526130676, -0.10674386471509933, 0.07705315202474594, 0.03631792217493057, -0.03208652511239052, 0.026509039103984833, -0.016599353402853012, 0.1303049623966217, 0.1541726440191269, 0.010368859395384789, 0.06873726099729538, -0.06975952535867691, -0.019406132400035858, -0.04086726903915405, 0.0022601427044719458, -0.11546345055103302, 0.14563369750976562, 0.0976969376206398, 0.05777367204427719, 0.06426714360713959], [0.0008206015336327255, -0.005553656257688999, -0.08379172533750534, 0.007031095679849386, -0.006421075202524662, -0.005660069175064564, -0.004779573529958725, 0.04071716219186783, -0.005544362124055624, 0.024955684319138527, -0.00260434509254992, 0.0026752720586955547, 0.004870002623647451, -0.024766920134425163, 0.008302383124828339, 0.0063942777924239635, 0.01018650270998478, 0.021410690620541573, -0.013642963021993637, 0.017040923237800598, -0.00810675136744976, -0.014320575632154942, 0.004728850908577442, -0.03637634962797165, -0.003907401580363512, -0.0002470744075253606, 0.0659635066986084, -0.09117551892995834, 0.017167111858725548, 0.019883479923009872, -0.0006447864579968154, 0.018053678795695305, 0.04182294383645058, -0.0373307503759861, -0.015653572976589203, -0.04628250375390053, -0.016913633793592453, 0.027799244970083237, 0.021205270662903786, 0.005484479013830423, -0.011154570616781712, -0.013219796121120453, 0.0043499404564499855, -0.0021894031669944525, 0.032904163002967834, 0.04116266220808029, -0.017585964873433113, 0.009369082748889923, -0.029976166784763336, -0.01321211364120245, -0.027752749621868134, 0.08714897185564041, 0.04028213769197464, 0.008539124391973019, 0.056249115616083145, -0.06722909957170486, 0.008608372882008553, 0.04359970614314079, -0.0511741004884243, 0.031309548765420914, 0.015641018748283386, 0.036789461970329285, -0.04337931424379349, 0.02525823749601841], [-0.044920388609170914, 0.038158051669597626, -0.01093579176813364, -0.01920737698674202, 0.031237252056598663, 0.08122565597295761, 0.05403624475002289, 0.11760886758565903, 0.03015250898897648, 0.019055139273405075, -0.08667872846126556, -0.04271606728434563, -0.05941815674304962, -0.06943994015455246, 0.0018819113029167056, 0.02201443538069725, 0.04318304732441902, 0.04571467638015747, 0.02386530116200447, 0.003377361223101616, -0.03221604600548744, -0.02291855588555336, -0.004658841993659735, 0.06845338642597198, 0.011025404557585716, -0.053634658455848694, -0.0567161962389946, 0.003151156473904848, 0.003416557563468814, -0.09511971473693848, 0.0032775646541267633, -0.015985654667019844, 0.017035601660609245, -0.016439639031887054, 0.06078127399086952, -0.11874370276927948, -0.13270722329616547, 0.08555257320404053, 0.12039532512426376, 0.09971235692501068, 0.0481095016002655, -0.11634820699691772, 0.06414822489023209, -0.10798092931509018, -0.01976928673684597, -0.10345109552145004, 0.015174741856753826, 0.04396333172917366, -0.060524072498083115, -0.011035839095711708, -0.05148021876811981, -0.027272125706076622, 0.07371836155653, 0.0007759338477626443, -0.016759507358074188, -0.08378084748983383, -0.01651282235980034, -0.12198095768690109, 0.022198863327503204, -0.0030150224920362234, 0.04784451425075531, -0.003123654518276453, -0.007818077690899372, 0.03474262356758118], [-0.09615445137023926, -0.04259227588772774, 0.18214933574199677, -0.049805328249931335, -0.05652548372745514, -0.08969932794570923, 0.12604354321956635, -0.11882618814706802, 0.006222181022167206, -0.022239193320274353, 0.049918826669454575, 0.02557309903204441, 0.18968793749809265, 0.17512282729148865, 0.012754182331264019, 0.040858473628759384, 0.028836367651820183, -0.010693657211959362, -0.06881609559059143, 0.15859179198741913, -0.10567180812358856, -0.17154981195926666, 0.09394869953393936, -0.10628202557563782, 0.038799308240413666, -0.049720387905836105, -0.18864122033119202, 0.03185011446475983, 0.002510515972971916, 0.0967027097940445, 0.10429846495389938, 0.04680308327078819, 0.07001307606697083, 0.027198364958167076, 0.18978045880794525, 0.11559844762086868, 0.04298185929656029, -0.14904320240020752, -0.04539922624826431, -0.07902850210666656, 0.06132606416940689, -0.010220256634056568, 0.004549987148493528, 0.026679955422878265, 0.05975300446152687, 0.1303948312997818, -0.12784305214881897, -0.18204881250858307, 0.0779096931219101, -0.09039238095283508, -0.09028984606266022, -0.010197007097303867, -0.008831384591758251, -0.08882501721382141, -0.10003997385501862, 0.12396926432847977, -0.0014265351928770542, 0.06397636979818344, 0.04038089141249657, 0.0778283029794693, 0.0315135195851326, -0.105335533618927, 0.03439575433731079, 0.009249813854694366], [-0.005601874552667141, -0.08761121332645416, -0.01792839728295803, 0.05441516637802124, -0.005148597992956638, 0.006747388280928135, 0.018494535237550735, -0.011614926159381866, -0.003780463943257928, -0.03255702927708626, 0.0021581111941486597, 0.0022297026589512825, -0.03418872132897377, 0.01391995046287775, -0.03104097582399845, 0.007073685061186552, -0.02629503607749939, 0.02597017027437687, -0.00037301721749827266, -0.0048040649853646755, 0.007950976490974426, -0.014192108064889908, 0.03745390474796295, 0.009631826542317867, -0.01432783529162407, 0.006137619260698557, -0.04888034611940384, -0.012691508047282696, 0.05583224818110466, 0.031960468739271164, -0.01547421794384718, -0.026720283553004265, 0.07680067420005798, 0.04259985685348511, 0.08705709129571915, 0.0062742349691689014, -0.012734267860651016, 0.03358246013522148, 0.008404869586229324, 0.041918735951185226, -0.0025835793931037188, -0.021408753469586372, 0.0006661539082415402, -0.03936878964304924, 0.058859433978796005, 0.07238206267356873, -0.004414879716932774, -0.035230040550231934, 0.05368531122803688, -0.012185069732367992, 0.03637465089559555, -0.09317190200090408, -0.07096482813358307, -0.006113414652645588, 0.03252456709742546, 0.028874646872282028, -0.005160653498023748, -0.031507331877946854, 0.05835207924246788, 0.011333304457366467, 0.005307853687554598, 0.020072929561138153, 0.06018972024321556, -0.01033787988126278], [-0.006685338448733091, -0.0035030946601182222, -0.050113093107938766, -0.00026287551736459136, -0.03514530882239342, 0.02686828374862671, -0.003910137806087732, 0.027821194380521774, -0.00955294445157051, -0.0328209362924099, -0.01887088641524315, -0.017317870631814003, -0.0412820540368557, -0.008155196905136108, 0.010175579227507114, 0.02203688584268093, 0.00046627118717879057, 0.021957267075777054, -0.0785180851817131, -0.03868388757109642, 0.02170535735785961, 0.036901578307151794, -0.014095255173742771, -0.009846237488090992, -0.0113062197342515, 0.014752021059393883, -0.04711957648396492, -0.10745575278997421, -0.03287829831242561, -0.02670968696475029, -0.039261844009160995, 0.028006428852677345, -0.04551630839705467, -0.059486422687768936, -0.03397839516401291, 0.0011899626115337014, -0.07220815122127533, -0.008835871703922749, 0.0034570321440696716, -0.001672139624133706, 0.023639116436243057, -0.0535040944814682, -0.005612734705209732, 0.0386330708861351, -0.012672637589275837, 0.016343628987669945, 0.022245125845074654, -0.020657578483223915, -0.00937376357614994, -0.010049986653029919, 0.039873991161584854, -0.0015355589566752315, 0.017078373581171036, 0.002089256653562188, -0.012387769296765327, -0.05453597754240036, 0.017349090427160263, -0.0859445333480835, 0.007190366741269827, -0.060189832001924515, 0.04463536664843559, -0.0037005566991865635, 0.017686404287815094, -0.005577694159001112], [-0.14710479974746704, 0.014587068930268288, 0.044460367411375046, -0.06014738604426384, -0.08924628794193268, -0.023388918489217758, 0.10060467571020126, 0.008707981556653976, -0.153243288397789, -0.12429962307214737, -0.10119950026273727, -0.04230590537190437, 0.026146085932850838, -0.04139775037765503, -0.003837138181552291, 0.10161428153514862, 0.062323059886693954, -0.07593825459480286, 0.008722999133169651, 0.11277168244123459, -0.038828980177640915, -0.04155938699841499, 0.007970506325364113, -0.019867252558469772, -0.06220681965351105, 0.09237630665302277, 0.001499966369010508, -0.006830200087279081, 0.0030374513007700443, -0.07193675637245178, 0.13609862327575684, -0.1057467982172966, -0.021570032462477684, -0.0625302642583847, -0.021282820031046867, 0.036600738763809204, 0.02929234877228737, -0.04648071154952049, 0.040992796421051025, 0.052312254905700684, 0.14811545610427856, 0.03279956430196762, 0.10933348536491394, -0.07896209508180618, 0.03433597832918167, -0.02759702503681183, 0.02215934917330742, -0.020673109218478203, 0.056699421256780624, -0.056973639875650406, 0.0626380518078804, -0.1325671523809433, 0.00989846233278513, 0.019661245867609978, -0.03751491755247116, 0.04831255227327347, -0.07895255088806152, -0.05329609662294388, -0.03733191266655922, -0.045077525079250336, 0.07896371185779572, -0.012185386382043362, -0.06173700466752052, 0.04417092353105545], [-0.0017947005107998848, 0.012820068746805191, -0.028153035789728165, 0.06086390092968941, 0.08208993077278137, -0.02081916853785515, 0.01244636345654726, -0.027208825573325157, 0.005083500873297453, 0.0047309864312410355, -0.028779050335288048, 0.020553234964609146, 0.09359568357467651, -0.017267554998397827, 0.10625848919153214, 0.041221387684345245, -0.041610997170209885, -0.06327052414417267, 0.07581286132335663, -0.02792118676006794, 0.0007534752367064357, -0.01165292039513588, 0.07172815501689911, -0.12011242657899857, -0.024660035967826843, 0.01239323616027832, 0.0014205577317625284, -0.05928363278508186, -0.020674262195825577, -0.04153631627559662, -0.022570451721549034, -0.07847118377685547, 0.11167002469301224, 0.014385343529284, 0.09210541844367981, 0.13253003358840942, 0.061667583882808685, -0.1260238140821457, 0.012307137250900269, 0.0011990215862169862, 0.05659019574522972, -0.05886421725153923, 0.024489713832736015, 0.11966031789779663, -0.05817880481481552, 0.0433497354388237, 0.048617541790008545, -0.10531604290008545, 0.06406804919242859, -0.004397014155983925, -0.01297485176473856, 0.0650532990694046, 0.03911350294947624, 0.021089430898427963, -0.048097655177116394, 0.1154090091586113, -0.08917935937643051, -0.019404690712690353, 0.01601242460310459, 0.0054044779390096664, 0.045111849904060364, 0.01236044242978096, 0.09953168779611588, 0.02433963306248188], [-0.15657663345336914, -0.010392500087618828, 0.016700157895684242, 0.030830860137939453, -0.005853182170540094, -0.1325051337480545, 0.10326521843671799, 0.06963398307561874, -0.11286813765764236, -0.1704845130443573, -0.018700402230024338, -0.04163877293467522, -0.022648900747299194, 0.008779328316450119, -0.0658099502325058, 0.044868119060993195, 0.10394533723592758, -0.08198036998510361, 0.0820893868803978, 0.005659755785018206, -0.024707427248358727, -0.005838244222104549, 0.05657977610826492, 0.06396901607513428, -0.023339470848441124, 0.12013816833496094, -0.033779531717300415, -0.04956433176994324, -0.07810765504837036, -0.0458931103348732, 0.1703183948993683, -0.04216129332780838, 0.004242007154971361, -0.07142188400030136, 0.0255134217441082, 0.04130811244249344, -0.1029706746339798, -0.04872101917862892, 0.08597876876592636, 0.026668960228562355, 0.11277492344379425, 0.017342686653137207, 0.09468922019004822, -0.08916464447975159, -0.08944732695817947, 0.059864867478609085, -0.017544792965054512, -0.0426541268825531, 0.013613461516797543, -0.16106969118118286, -0.04241567850112915, -0.11880315095186234, 0.07763319462537766, 0.025876229628920555, -0.05075224116444588, -0.029063018038868904, -0.04952164366841316, -0.03311712667346001, 0.02726387418806553, 0.015919003635644913, -0.0032420270144939423, 0.04667219892144203, 0.011630471795797348, 0.1286417692899704], [0.07994397729635239, -0.025954971089959145, 0.07865863293409348, -0.06302259117364883, 0.06840420514345169, 0.1638311743736267, -0.1445966511964798, 0.08714699745178223, 0.15863530337810516, 0.1747448891401291, 0.06553962826728821, 0.16189593076705933, -0.039229679852724075, -0.03315035626292229, 0.032064419239759445, -0.08715561032295227, -0.04039211943745613, 0.1045776978135109, -0.061699628829956055, -0.0076048835180699825, 0.03236083686351776, 0.04505234956741333, -0.001672656973823905, -0.010870285332202911, 0.03292987495660782, -0.03811005875468254, -0.07397539168596268, 0.023482682183384895, -0.07092861831188202, 0.05124354735016823, -0.07157958298921585, 0.04843464121222496, -0.005099793430417776, 0.03548061102628708, -0.0017095129005610943, 0.052340175956487656, 0.09350890666246414, -0.08365567773580551, -0.0437588170170784, -0.040988244116306305, -0.0448758639395237, 0.06704339385032654, -0.11063838005065918, -0.0030794364865869284, -0.04387437924742699, 0.05534190684556961, 0.00035149353789165616, 0.08415704220533371, 0.01297401450574398, 0.1850099265575409, 0.07627265900373459, 0.0039358180947601795, -0.01132844015955925, -0.029162012040615082, 0.03695455566048622, -0.0067181093618273735, 0.0881524309515953, -0.052198804914951324, -0.07248131185770035, 0.04311171546578407, -0.03758235648274422, -0.025516534224152565, 0.05341261997818947, -0.10963838547468185], [0.06666313856840134, -0.027549127116799355, -0.0024562692269682884, -0.05815140902996063, 0.03607359901070595, 0.12216685712337494, 0.04871169850230217, 0.036837685853242874, 0.04725082218647003, -0.06760331988334656, -0.07936154305934906, 0.013550665229558945, -0.021751215681433678, -0.11560714989900589, -0.0774926021695137, -0.05363365635275841, -0.07115468382835388, 0.03999485820531845, 0.032358359545469284, 0.014592571184039116, -0.019493844360113144, -0.0757073163986206, -0.1033017709851265, 0.036768220365047455, 0.03677823022007942, -0.030401624739170074, -0.03193225711584091, -0.0951450988650322, -0.05038262903690338, -0.11863686889410019, -0.12460393458604813, 0.14704938232898712, -0.08818350732326508, -0.05254083871841431, -0.05846192687749863, -0.1301911175251007, -0.06341596692800522, 0.06457635015249252, -0.005808442831039429, 0.03193959221243858, -0.019586624577641487, -0.1409347653388977, 0.07150823622941971, 0.05886666849255562, 0.047318365424871445, -0.06785698980093002, 0.09356389194726944, -0.07465842366218567, -0.05441656708717346, 0.014770950190722942, -0.009669414721429348, 0.08752147108316422, -0.011460036039352417, 0.0166127048432827, -0.002025648718699813, -0.13632138073444366, 0.013025809079408646, -0.12354245781898499, 0.035641495138406754, 0.018216848373413086, 0.13091953098773956, 0.0019254491198807955, -0.025482865050435066, 0.049219388514757156], [0.03683312609791756, 0.06097651645541191, -0.01934267021715641, -0.05520879477262497, -0.05798787996172905, -0.09257103502750397, 0.12130671739578247, -0.002817542990669608, 0.0793619379401207, 0.02481985278427601, 0.01824152283370495, -0.058295682072639465, 0.15105850994586945, 0.12745726108551025, 0.08528812229633331, -0.021021462976932526, 0.053584177047014236, -0.030707083642482758, 0.11514095962047577, 0.08461242914199829, 0.01645439863204956, -0.14013348519802094, -0.017509056255221367, 0.02566712163388729, 0.0020876333583146334, -0.06461798399686813, 0.06342626363039017, 0.040057748556137085, 0.1295100450515747, -0.04738190025091171, 0.0783424898982048, -0.08546816557645798, -0.00513885822147131, 0.016849538311362267, -0.0011569769121706486, 0.1024535745382309, 0.018836194649338722, 0.04572300612926483, -0.01480107381939888, -0.058299098163843155, -0.017252609133720398, -0.0605585090816021, -0.021783320233225822, -0.06289564073085785, 0.0197027325630188, 0.04196145758032799, -0.04923764243721962, -0.09418962895870209, 0.11361002177000046, 0.0011182137532159686, -0.06725897639989853, -0.0895688384771347, 0.026613684371113777, 0.03982473164796829, -0.14429214596748352, 0.016789503395557404, -0.04813869297504425, -0.0014422147069126368, 0.13561730086803436, 0.025240814313292503, 0.05604632571339607, -0.03548107296228409, 0.02966747246682644, -0.08759015053510666], [-0.11383892595767975, 0.029245130717754364, 0.023870615288615227, -0.007616426795721054, 0.020196380093693733, -0.10906773060560226, 0.12083397805690765, 0.058482490479946136, -0.109534852206707, -0.009127595461905003, -0.04689456522464752, -0.1291826218366623, -0.04295657202601433, 0.02622588351368904, -0.030140239745378494, 0.10242003202438354, 0.13549451529979706, 0.01227132324129343, 0.025547126308083534, 0.041110359132289886, -0.02626105397939682, -0.054928213357925415, -0.01673652045428753, -0.07136564701795578, -0.05624772608280182, 0.08829744160175323, -0.014776182360947132, -0.05466148629784584, 0.05994442477822304, -0.08609651029109955, 0.029152927920222282, -0.09065316617488861, -0.025168880820274353, 0.010646364651620388, -0.09915394335985184, -0.07480036467313766, 0.06823650747537613, -0.01538485661149025, -0.0004605222202371806, -0.004716158378869295, 0.13145190477371216, -0.04623494669795036, 0.10330373048782349, 0.0046091764234006405, -0.012798605486750603, 0.004432268440723419, -0.055636461824178696, 0.04691542312502861, 0.040119633078575134, -0.1062421128153801, -0.058216262608766556, -0.018474331125617027, 0.057038355618715286, 0.022060226649045944, 0.0392414890229702, 0.02074984833598137, -0.08967483788728714, -0.011928720399737358, 0.06626072525978088, -0.0040772780776023865, -0.036088280379772186, 0.005073447711765766, 0.03027455322444439, 0.051824286580085754], [0.0012039246503263712, 0.10386999696493149, 0.01207136083394289, -0.006557689048349857, 0.04675938934087753, 0.12944355607032776, -0.03602638468146324, -0.028673645108938217, 0.007279842626303434, 0.12304272502660751, 0.05234088376164436, 0.04831656068563461, -0.0331420861184597, -0.2616986036300659, -0.11689804494380951, -0.01815292239189148, -0.007826839573681355, 0.2422260046005249, 0.011588174849748611, -0.2181330919265747, 0.10203992575407028, -0.08039495348930359, -0.13303987681865692, 0.03865157440304756, 0.061259571462869644, 0.019190896302461624, 0.24247102439403534, 0.09321194142103195, 0.12656965851783752, 0.05306897312402725, -0.18570344150066376, -0.09529013931751251, 0.10504896938800812, -0.006289762444794178, -0.32535597681999207, -0.29179856181144714, 0.1305369883775711, 0.3170147240161896, 0.04113251715898514, 0.01140262559056282, 0.010969655588269234, -0.12936535477638245, -0.10252261906862259, -0.35167601704597473, -0.0025611710734665394, -0.030823178589344025, -0.07146742194890976, 0.2753147482872009, -0.25308936834335327, -0.0058997925370931625, 0.2990432381629944, -0.08367839455604553, -0.05385083332657814, 0.0031299651600420475, 0.16556470096111298, 0.06653333455324173, 0.12724506855010986, -0.06891372054815292, -0.18753120303153992, 0.049793098121881485, -0.14592339098453522, -0.10907667130231857, -0.13358427584171295, 0.018006280064582825], [0.07036426663398743, 0.026136619970202446, -0.047791894525289536, 0.12111470848321915, 0.1061135083436966, 0.05857088416814804, -0.07093959301710129, 0.019438235089182854, 0.049555454403162, 0.0469483956694603, 0.06344804912805557, 0.04795728623867035, 0.12043867260217667, -0.027337322011590004, -0.06702874600887299, -0.10795005410909653, -0.13347096741199493, 0.07579256594181061, -0.028115980327129364, -0.07752829045057297, -0.023785609751939774, -0.08947403728961945, -0.038949668407440186, 0.035887766629457474, 0.0019570323638617992, -0.04113761708140373, 0.055395495146512985, 0.016945095732808113, 0.06136540323495865, -0.009207500144839287, 0.031421564519405365, 0.0866456925868988, 0.04107768461108208, 0.11101061850786209, -0.08308012038469315, 0.010955347679555416, 0.041776008903980255, -0.11185833066701889, 0.012059972621500492, -0.061870936304330826, -0.1203756108880043, -0.058675382286310196, -0.05279136449098587, -0.05177484080195427, -0.0032990628387778997, 0.06293556094169617, 0.057159509509801865, 0.009429331868886948, -0.03293657302856445, 0.07287252694368362, 0.04194355010986328, 0.007947626523673534, 0.050920289009809494, -0.005132989026606083, 0.0649821013212204, -0.06423050165176392, 0.08601853996515274, -0.03030737303197384, -0.009313835762441158, 0.026079319417476654, -0.050283242017030716, -0.004990058951079845, 0.10797044634819031, -0.10313200950622559], [-0.004828716162592173, -0.031304314732551575, 0.006142820231616497, 0.027784213423728943, -0.013997497037053108, 0.04637892171740532, 0.06530240923166275, 0.046270523220300674, -0.00041260282159782946, -0.05890080705285072, -0.009723015129566193, -0.01575639471411705, -0.08327675610780716, 0.11544770747423172, -0.03434302657842636, 0.022458188235759735, 0.04414103180170059, -0.05466567352414131, -0.10358645021915436, -0.002117024501785636, -0.05213601887226105, -0.015806391835212708, -0.030488308519124985, 0.14040757715702057, 0.014067284762859344, -0.010326146148145199, -0.031632158905267715, -0.10254725813865662, -0.14668188989162445, -0.05693088471889496, 0.005208010319620371, 0.1409979611635208, -0.11893948912620544, -0.03821249306201935, -0.012493192218244076, 0.009470220655202866, -0.04612303525209427, -0.09010855853557587, 0.061920925974845886, 0.13393107056617737, 0.055446598678827286, -0.07045499980449677, -0.015467396005988121, 0.012123540975153446, -0.03744284063577652, -0.0021321435924619436, 0.05148063227534294, 0.04917224496603012, -0.030536696314811707, -0.05250867083668709, 0.003055289387702942, 0.18404054641723633, 0.12651538848876953, 0.016118191182613373, 0.00404575327411294, -0.08528781682252884, 0.044831953942775726, -0.07454885542392731, -0.0003933292464353144, -0.14644142985343933, 0.014156999997794628, 0.12902583181858063, 0.008539331145584583, 0.10427292436361313], [0.07768668234348297, 0.07443016767501831, 0.025456182658672333, -0.04742699861526489, 0.025648508220911026, 0.06928300857543945, 0.016168126836419106, 0.015589195303618908, 0.007492298260331154, 0.03244532272219658, -0.07686733454465866, 0.01697855070233345, -0.09068962186574936, 0.02294423058629036, -0.07625874876976013, -0.03060894086956978, -0.023910509422421455, 0.10457725822925568, -0.09576360136270523, 0.025805117562413216, 0.06644727289676666, 0.09136859327554703, 0.0036258334293961525, 0.07705787569284439, 0.04409097135066986, 0.022263767197728157, 0.0632232055068016, -0.10286188870668411, -0.05230291560292244, -0.006170326378196478, -0.014034636318683624, -0.015332932583987713, -0.12172415107488632, -0.04622521251440048, 0.01289667934179306, 0.06322129815816879, -0.1155296042561531, 0.0781783014535904, -0.06614074110984802, -0.06866605579853058, -0.06673716008663177, -0.03473324701189995, 0.025928400456905365, -0.11111724376678467, 0.05924062058329582, 0.06839890778064728, 0.02911163866519928, 0.10709857195615768, -0.06616421788930893, -0.024191217496991158, 0.012849879451096058, 0.03522282466292381, -0.04108068719506264, -0.03756822273135185, 0.06469906866550446, 0.008595874533057213, 0.10854754596948624, -0.059916574507951736, 0.010786441154778004, -0.0649915561079979, 0.0685531422495842, 0.016763044521212578, 0.05052131041884422, 0.06763532757759094], [-0.028518756851553917, 0.044963669031858444, -0.00709144864231348, 0.054000820964574814, -0.07219382375478745, 0.01403432060033083, 0.12598618865013123, 0.067789226770401, -0.11261457949876785, -0.08974585682153702, -0.040018338710069656, -0.04135370999574661, 0.03263792395591736, 0.016056066378951073, 0.0368848592042923, 0.06044628471136093, 0.04579394683241844, 0.02638155035674572, 0.03275523707270622, -0.023541804403066635, 0.011790676042437553, -0.051056671887636185, -0.005210196599364281, -0.032704971730709076, -0.02614481747150421, 0.027941560372710228, -0.024494972079992294, -0.06617511063814163, 0.02328776754438877, -0.06652528047561646, 0.056050825864076614, -0.0649266466498375, -0.03524385392665863, -0.04075685888528824, -0.009940940886735916, 0.04707755893468857, 0.048519738018512726, 0.021119549870491028, -0.028643211349844933, -0.006416257470846176, 0.05873453617095947, -0.025951124727725983, 0.09851963818073273, 0.009835885837674141, 0.020800353959202766, 0.01128733716905117, -0.026525624096393585, 0.01343619730323553, 0.00881345197558403, -0.10943886637687683, 0.00931500643491745, -0.03685050457715988, -0.03087383322417736, 0.0350511409342289, 0.004823396448045969, -0.05926620215177536, 0.0012472467496991158, -0.049286868423223495, 0.00864389631897211, 0.047087300568819046, 0.031858209520578384, 0.023907486349344254, 0.01709909364581108, 0.09776757657527924], [-0.004301604349166155, -0.015695612877607346, -0.03645031154155731, 0.0335245281457901, -0.016144363209605217, 0.04995596781373024, -0.004140036646276712, 0.06007269024848938, -0.003571158740669489, 0.018972769379615784, -0.05822670832276344, -0.044088996946811676, -0.027741236612200737, 0.018757546320557594, 0.021808238700032234, 0.0008886632276698947, 0.04109225422143936, 0.043248627334833145, -0.09819654375314713, -0.06454610824584961, -0.02829894982278347, 0.03416963666677475, -0.03920135647058487, 0.009335748851299286, -0.013577781617641449, 0.017735954374074936, 0.040475476533174515, 0.04103292524814606, 0.03341731056571007, -0.044010017067193985, -0.01563091203570366, 0.052693456411361694, 0.0350366048514843, -0.04642871394753456, -0.04043401777744293, -0.0678987130522728, 0.02078988030552864, -0.00888017751276493, 0.0014558415859937668, 0.07509444653987885, 0.039473362267017365, -0.027918117120862007, -0.022707711905241013, 0.05277048423886299, -0.0547667071223259, -0.06050493195652962, -0.02235618606209755, -0.017537573352456093, -0.06619244068861008, -0.023568278178572655, -0.04773540049791336, 0.025453411042690277, 0.04876009002327919, -0.00820350181311369, 0.025524167343974113, -0.05697512999176979, 0.03540722280740738, 0.04297338426113129, -0.02934344671666622, -0.06454755365848541, -0.024746505543589592, -0.013978025875985622, -0.0008331631543114781, 0.030883925035595894], [0.0376460924744606, 0.01418501790612936, 0.025326216593384743, -0.11404399573802948, -0.009070713073015213, 0.09584283828735352, -0.07526323199272156, -0.02185947261750698, 0.020200958475470543, 0.013278992846608162, -0.050597239285707474, 0.01935935951769352, -0.018173398450016975, -0.022998640313744545, -0.051907118409872055, 0.03643142059445381, 0.06151809170842171, 0.04248468205332756, -0.021962637081742287, 0.01993795484304428, 0.0770065113902092, -0.013263480737805367, -0.02822386845946312, 0.0723295733332634, -0.03447066619992256, 0.0488428995013237, -0.04188793525099754, 0.014037607237696648, -0.09516752511262894, 0.001425315742380917, 0.03353564813733101, 0.04373171180486679, -0.04012430086731911, 0.027757855132222176, -0.09292828291654587, -0.09349799156188965, -0.1010989397764206, -0.03433733433485031, 0.03243378922343254, -0.00870933011174202, 0.0002055267250398174, -0.02461300417780876, 0.051204171031713486, -0.06999347358942032, -0.053640563040971756, 0.032296497374773026, 0.008750230073928833, 0.11500560492277145, -0.05989997833967209, 0.012845082208514214, 0.004997593350708485, 0.07893397659063339, 0.06019889563322067, -0.01110566034913063, 0.09185513108968735, -0.03394453227519989, 0.005197832360863686, -0.02827443741261959, 0.039495568722486496, 0.04946444183588028, 0.0633910670876503, 0.04287547618150711, 0.033541206270456314, -0.006060205399990082], [0.05513666570186615, -0.03503383323550224, -0.04323875531554222, 0.03764408454298973, 0.07560689002275467, 0.0405125766992569, -0.11910633742809296, 0.016978565603494644, 0.20256781578063965, 0.18117575347423553, -0.023915275931358337, 0.11872105300426483, 0.03697779402136803, 0.06274846196174622, 0.0013539294013753533, -0.08318468183279037, -0.0444793775677681, 0.10199795663356781, -0.14523576200008392, -0.07374684512615204, -0.04922519996762276, -0.04301437363028526, -0.007263774983584881, 0.08877815306186676, 0.037760358303785324, -0.03993278369307518, 0.04169861972332001, -0.088104747235775, -0.02019297331571579, 0.02371913380920887, -0.035476963967084885, 0.013557887636125088, -0.06528294831514359, -0.044798292219638824, -0.04193131998181343, 0.13053014874458313, -0.03071441687643528, -0.05411914736032486, -0.08329563587903976, 0.04510495439171791, -0.16927994787693024, -0.01608964242041111, -0.18096314370632172, -0.03198598697781563, 0.08987726271152496, -0.0559794045984745, 0.005573006812483072, -0.05598071590065956, 0.031369470059871674, 0.13803091645240784, -0.10603942722082138, 0.17244356870651245, -0.11386428773403168, -0.037399813532829285, -0.024617325514554977, -0.02295604906976223, 0.13831031322479248, 0.08132430911064148, 0.047421183437108994, -0.0272084791213274, 0.04422710835933685, 0.04276221618056297, 0.032428257167339325, -0.12534640729427338], [-0.11447682231664658, 0.07331826537847519, 0.021948736160993576, -0.002583953784778714, -0.11608356982469559, -0.1417730152606964, 0.18420131504535675, -0.03154318034648895, -0.12017853558063507, -0.07014597207307816, -0.12012432515621185, -0.1012529507279396, -0.007873911410570145, 0.0663827434182167, 0.07912479341030121, 0.16555732488632202, 0.14084064960479736, -0.12230172753334045, 0.019377727061510086, 0.07291851192712784, -0.09255924075841904, 0.007452806923538446, -0.013933968730270863, 0.009070068597793579, -0.027376893907785416, 0.03498086333274841, 0.099130779504776, 0.08483465015888214, -0.018291158601641655, 0.02832832932472229, -0.001581318792887032, -0.13550789654254913, -0.002131079090759158, -0.0020447855349630117, 0.008928691036999226, -0.054623715579509735, -0.07803158462047577, 0.012106955982744694, 0.07473766803741455, 0.06822159886360168, 0.16769155859947205, 0.020419977605342865, 0.1297462284564972, -0.11034151166677475, 0.047384604811668396, -0.07957324385643005, -0.05884058028459549, -0.03231124207377434, 0.10396894812583923, -0.12554986774921417, -0.05347580090165138, -0.06940944492816925, -0.04962965473532677, 0.007963438518345356, 0.019779300317168236, 0.010053095407783985, -0.09651759266853333, 0.07346068322658539, -0.07608240842819214, -0.031580980867147446, 0.12272970378398895, 0.021991219371557236, -0.0072062648832798, 0.11092457920312881], [0.10164101421833038, -0.018113218247890472, -0.03145314007997513, -0.008879491128027439, 0.055970415472984314, 0.05793818086385727, -0.06371428817510605, -0.061639003455638885, 0.06478040665388107, 0.12522348761558533, 0.054566577076911926, 0.07808259129524231, 0.026419389992952347, -0.025181718170642853, -0.017285827547311783, -0.06854114681482315, -0.06944266706705093, -0.0022574467584490776, 0.005243704654276371, -0.021408280357718468, -0.003614345332607627, -0.05424658954143524, -0.014860376715660095, -0.03859042748808861, 0.06067897006869316, -0.08356036245822906, 0.057228341698646545, 0.02501325123012066, -0.05327538400888443, 0.06891103088855743, -0.11600546538829803, 0.004900660831481218, -0.04394775256514549, -0.04346926510334015, 0.01215822622179985, -0.027130909264087677, 0.04839523136615753, -0.07271278649568558, 0.025552375242114067, 0.028614044189453125, -0.05491260066628456, -0.01494678296148777, -0.11206700652837753, -0.03881441801786423, 0.06652036309242249, -0.02885727770626545, -0.008706561289727688, -0.009576346725225449, -0.005313378293067217, 0.05664064735174179, 0.06057155132293701, -0.038848210126161575, 0.038771335035562515, -0.025886444374918938, -0.03384178876876831, -0.007204975001513958, 0.06625346094369888, -0.012029294855892658, -0.07397066056728363, 0.05253608152270317, 0.019146621227264404, 0.009561239741742611, 0.06803741306066513, -0.03996579349040985], [-0.13803528249263763, -0.05109252780675888, -0.08362013846635818, -0.0447806790471077, -0.11114656925201416, -0.04545987769961357, 0.09324169903993607, -0.04194509610533714, -0.14006932079792023, -0.18424515426158905, -0.09441319108009338, -0.022089093923568726, 0.08267994970083237, 0.08827099204063416, -0.014131751842796803, 0.12927699089050293, 0.15510815382003784, -0.07098440825939178, 0.006543305702507496, 0.15652355551719666, -0.005060052033513784, -0.06918574869632721, 0.09276460856199265, -0.03518839552998543, -0.06790989637374878, 0.040157534182071686, 0.06628291308879852, 0.1179613396525383, 0.010918141342699528, -0.13872531056404114, 0.1718669831752777, -0.03175133839249611, 0.059123583137989044, -0.00011716363223968074, -0.018469346687197685, 0.002529384335502982, -0.044895123690366745, -0.011057181283831596, 0.09305666387081146, 0.04084693267941475, 0.17340748012065887, -0.024922434240579605, 0.11932201683521271, -0.05888979882001877, -0.003324918681755662, -0.056074704974889755, -0.09752113372087479, 0.03985130041837692, -0.016847537830471992, -0.143569678068161, 0.026359206065535545, -0.08161791414022446, 0.09433569759130478, 0.04127021133899689, 0.04118909686803818, 0.004426404368132353, -0.08756483346223831, 0.027066100388765335, 0.04586489498615265, -0.0975707620382309, 0.03003007173538208, -0.0287940576672554, -0.04623504728078842, 0.16998529434204102], [-0.07700183987617493, -0.10132786631584167, 0.07166584581136703, 0.007982236333191395, 0.0935220718383789, 0.02044394612312317, 0.038019124418497086, -0.00016058501205407083, -0.06311392784118652, 0.03260213881731033, 0.06116221100091934, -0.03564654290676117, 0.05219455063343048, -0.05178943648934364, 0.004624916706234217, 0.0046719457022845745, -0.07254009693861008, 0.09001050889492035, 0.16594277322292328, -0.008892648853361607, -0.08071653544902802, -0.05206361040472984, 0.02732464298605919, -0.025111667811870575, 0.008198492228984833, 0.022447494789958, 0.050659988075494766, 0.039958830922842026, 0.04589925333857536, -0.018847186118364334, 0.01078569795936346, -0.07084926217794418, 0.06976111978292465, 0.11072161793708801, -0.057532716542482376, -0.10453975945711136, 0.10503820329904556, 0.02298671565949917, -0.06509467214345932, 0.012015290558338165, 0.01209300011396408, 0.09251216799020767, 0.010460211895406246, -0.09219472855329514, 0.07825972884893417, -0.00242044311016798, -0.06651755422353745, 0.04137206822633743, 0.03557205572724342, -0.08877574652433395, 0.028893858194351196, -0.1379871517419815, -0.004755201283842325, -0.0036991762463003397, 0.02804798074066639, 0.0949811041355133, -0.04468082636594772, 0.028237812221050262, 0.04823239892721176, 0.013689116574823856, -0.11749350279569626, -0.060828469693660736, -0.0303797610104084, -0.022487537935376167], [0.10400773584842682, -0.07484409958124161, -0.05069853365421295, 0.047347258776426315, 0.17875951528549194, 0.012614152394235134, -0.07397487014532089, -0.05477721616625786, 0.07554653286933899, -0.03929314389824867, 0.18537268042564392, 0.1438523828983307, 0.10235091298818588, 0.007045176811516285, 0.035240624099969864, -0.07020211219787598, -0.11592452228069305, 0.014563233591616154, 0.19539572298526764, -0.11598871648311615, -0.06964325904846191, -0.02737465687096119, 0.019871558994054794, -0.155765563249588, 0.043605562299489975, -0.037003397941589355, -0.0004941145307384431, 0.04239044710993767, 0.23282437026500702, 0.10709493607282639, -0.08370424062013626, -0.20153731107711792, 0.19360455870628357, 0.09214691072702408, -0.08509302884340286, 0.025310739874839783, 0.19448475539684296, 0.0366683192551136, -0.15737050771713257, -0.15878942608833313, -0.10285817086696625, 0.046756811439991, -0.1271604299545288, 0.05687559396028519, 0.027760829776525497, 0.03827150911092758, -0.08650415390729904, -0.055247899144887924, -0.06066187471151352, 0.08100210130214691, -0.04924740269780159, -0.13493672013282776, -0.09827160835266113, -0.055364277213811874, -0.09741399437189102, 0.10470212996006012, 0.04747433215379715, 0.02809537760913372, -0.09476474672555923, 0.10604611039161682, -0.17409628629684448, -0.15649107098579407, 0.02986595779657364, -0.10124335438013077], [-0.11307366192340851, 0.04597362503409386, 0.08185800164937973, 0.06602998822927475, 0.005470522213727236, -0.1105823814868927, 0.0952056497335434, -0.014157125726342201, -0.11299793422222137, -0.06436755508184433, -0.07431980222463608, -0.14678052067756653, -0.06497003138065338, 0.09043830633163452, -0.02077573351562023, 0.10752630978822708, 0.045204780995845795, -0.06825678050518036, 0.03231486678123474, 0.08341389894485474, -0.03056599386036396, -0.031293030828237534, 0.058181483298540115, -0.05124413222074509, -0.11179541796445847, 0.10007926821708679, 0.09166276454925537, 0.02848225086927414, 0.016978707164525986, -0.05315607041120529, 0.12124952673912048, -0.06008172407746315, 0.06170704960823059, 0.008960571140050888, 0.007809401024132967, 0.003240315243601799, -0.06164514645934105, 0.0743638202548027, 0.07006346434354782, -0.04433777928352356, 0.058445848524570465, -0.024343615397810936, 0.1683056801557541, -0.05517454445362091, 0.07604144513607025, -0.03753828629851341, -0.0737304612994194, 0.030214063823223114, -0.021415162831544876, -0.13699942827224731, -0.031577933579683304, -0.03681989014148712, -0.03732094541192055, 0.0001402649941155687, 0.0338742695748806, -0.0068288203328847885, -0.1105445846915245, -0.004130361136049032, -0.0780259221792221, 0.0054382686503231525, 0.0854128897190094, 0.08432116359472275, -0.06192415952682495, 0.07067506015300751], [-0.019930969923734665, 0.08365476876497269, -0.07353675365447998, 0.07717486470937729, 0.02868414856493473, 0.029354725033044815, 0.00681220693513751, 0.014672094024717808, -0.12449032068252563, -0.11965923011302948, 0.02435119077563286, 0.05259961262345314, -0.05076991021633148, -0.025670120492577553, -0.013550755567848682, 0.10712234675884247, 0.09655219316482544, 0.08450362086296082, 0.034337256103754044, -0.05141916126012802, 0.031231779605150223, -0.11530695855617523, 0.015261812135577202, -0.1302090287208557, -0.08582315593957901, 0.09995577484369278, -0.011863618157804012, 0.019085610285401344, 0.13648945093154907, -0.11954464763402939, 0.0864579826593399, -0.18409213423728943, 0.07070532441139221, 0.038856491446495056, -0.05510171130299568, -0.15996508300304413, 0.10182628780603409, 0.14622269570827484, 0.07139304280281067, -0.0953732505440712, 0.02308904193341732, 0.020876867696642876, 0.05957421660423279, -0.18308259546756744, -0.09873200953006744, -0.06994357705116272, -0.12951406836509705, 0.030919868499040604, -0.11420057713985443, -0.16861005127429962, 0.0901058092713356, -0.08671745657920837, -0.05108380317687988, 0.04551413655281067, 0.033757250756025314, 0.0795205682516098, -0.11369086056947708, 0.015055632218718529, 0.021466797217726707, 0.11816514283418655, -0.14182761311531067, -0.059885840862989426, -0.040087319910526276, 0.01709333248436451], [-0.045235294848680496, -0.03710204362869263, 0.0344926156103611, -0.06695776432752609, -0.03198670595884323, 0.05819449946284294, -0.05266529694199562, 0.03700589761137962, 0.010045947507023811, -0.02291431836783886, 0.007917455397546291, -0.02289527840912342, 0.02741723507642746, 0.012263013981282711, -0.0076944283209741116, 0.014110877178609371, -0.05376889556646347, 0.09319742769002914, 0.04883154109120369, -0.07946234941482544, -0.05878934636712074, 0.12144003063440323, -0.05071668699383736, 0.04465063661336899, -0.04841179773211479, 0.07214664667844772, 0.15800100564956665, 0.04523483291268349, -0.046971529722213745, 0.03440777212381363, 0.006643441040068865, 0.027972526848316193, -0.10627200454473495, -0.07491889595985413, -0.1617715209722519, 0.019249670207500458, 0.08197528123855591, 0.11974950134754181, 0.05910487845540047, 0.055951882153749466, 0.07839924842119217, -0.09101657569408417, -0.0032594131771475077, -0.15687023103237152, -0.051652900874614716, -0.026304373517632484, 0.054640550166368484, -0.020660629495978355, -0.057586420327425, -0.06551019102334976, -0.030753018334507942, 0.02508922480046749, -0.06270499527454376, 0.046637095510959625, -0.05539563670754433, -0.1046944409608841, 0.009435108862817287, -0.14028963446617126, 0.034200966358184814, 0.056441787630319595, -0.032214537262916565, 0.040825314819812775, 0.008359143510460854, 0.05701316520571709], [-0.022301841527223587, -0.13204261660575867, 0.11714623123407364, -0.06119551137089729, 0.003189252456650138, -0.04043324664235115, -0.004266870673745871, -0.06318199634552002, -0.044659364968538284, -0.03700074180960655, -0.002759592840448022, 0.07676789164543152, -0.0035821860656142235, 0.146001398563385, 0.04114285111427307, -0.024604717269539833, -0.029800215736031532, -0.07504479587078094, 0.009270165115594864, 0.04235668107867241, -0.015613693743944168, 0.0563056543469429, 0.04877326637506485, 0.017902467399835587, 0.06384087353944778, 0.00043661947711370885, -0.005962585099041462, 0.07335801422595978, 0.10216392576694489, -0.05317188426852226, 0.08404543995857239, -0.01694548688828945, 0.0012426153989508748, -0.00641964515671134, 0.1298563927412033, 0.15886417031288147, -0.07235214859247208, -0.006690546870231628, 0.04137975350022316, -0.014113045297563076, 0.019797760993242264, 0.11839273571968079, -0.004383298102766275, 0.04114914312958717, 0.03587945178151131, 0.06713853031396866, 0.0017817605985328555, -0.06678276509046555, 0.08573102205991745, 0.002001388929784298, -0.1471896767616272, 0.021391550078988075, 0.025246676057577133, -0.020315175876021385, -0.05712105706334114, 0.1102898046374321, -0.10707738250494003, -0.011904456652700901, 0.012368409894406796, 0.10694598406553268, -0.09048520028591156, -0.008560783229768276, -0.04833972826600075, -0.02412606216967106], [0.019948862493038177, -0.043539658188819885, 0.09097236394882202, 0.03780260682106018, 0.018078142777085304, 0.008312164805829525, 0.03416109085083008, -0.04470863565802574, 0.03904470428824425, -0.059083569794893265, 0.06232436001300812, 0.05394623056054115, 0.057912424206733704, -0.007787570357322693, 0.04182034730911255, -0.0423404797911644, -0.08535585552453995, -0.0012774255592375994, 0.0727924033999443, 0.0581967867910862, 0.024108221754431725, 0.021235935389995575, -0.003444124711677432, -0.11117535084486008, -0.01577482558786869, 0.00782905612140894, -0.066090889275074, -0.012245952151715755, 0.045282136648893356, -0.0033394163474440575, -0.02372838370501995, -0.11586011946201324, 0.025791922584176064, 0.08884283900260925, -0.028469519689679146, 0.05293631926178932, 0.07972399145364761, 0.006770764477550983, -0.05955051630735397, -0.08034971356391907, -0.05222247540950775, 0.06871093064546585, -0.026317022740840912, -0.10249645262956619, 0.08405673503875732, 0.03244074806571007, -0.09553026407957077, -0.056378401815891266, -0.05929674953222275, -0.05498208478093147, 0.07785002887248993, -0.03803994879126549, -0.03271450847387314, -0.016683954745531082, -0.029953300952911377, -0.02424842305481434, 0.005056795198470354, 0.001794499927200377, -0.021460631862282753, 0.03880717232823372, -0.03434373810887337, -0.03153198957443237, 0.02510782517492771, -0.03146829828619957], [0.062331754714250565, -0.00906757265329361, -0.06117069348692894, 0.0859125480055809, -0.00530512910336256, 0.09565331786870956, -0.12959475815296173, 0.021012580022215843, 0.1411357820034027, -0.042738720774650574, 0.07433605194091797, -0.02518611028790474, 0.014063123613595963, 0.02497350051999092, 0.053287211805582047, 0.012135116383433342, -0.032785020768642426, -0.03105607070028782, -0.10414087027311325, 0.03863626718521118, -0.047100573778152466, 0.04303872212767601, -0.03000451996922493, 0.09547329694032669, 0.1339331567287445, -0.018883677199482918, -0.04054437577724457, 0.010684018954634666, -0.13171030580997467, 0.10423373430967331, -0.04566991701722145, 0.08590228110551834, -0.04793059453368187, -0.029691938310861588, 0.005379269830882549, 0.11609330028295517, -0.08356501907110214, -0.07180535793304443, 0.03329145908355713, 0.008083613589406013, -0.16172173619270325, -0.07351603358983994, -0.12045444548130035, 0.15299344062805176, -0.05203864350914955, 0.0460701510310173, 0.08799143135547638, -0.07962201535701752, -0.022318152710795403, 0.0081637529656291, -0.028871966525912285, 0.05795956775546074, -0.006195707246661186, -0.008138807490468025, 0.01721314899623394, -0.038292575627565384, 0.041897498071193695, 0.02637340873479843, 0.04447983205318451, 0.007039593067020178, -0.048376552760601044, 0.08914060890674591, 0.013812124729156494, -0.07684946805238724], [-0.0654626414179802, -0.03526933491230011, -0.031023001298308372, -0.06051931902766228, -0.10439064353704453, 0.0744408592581749, -0.022734826430678368, 0.0841061919927597, 0.03863376006484032, -0.019868824630975723, -0.09627930074930191, -0.053166668862104416, -0.044747788459062576, -0.07836902886629105, -0.06554432213306427, 0.0072596389800310135, 0.09760138392448425, 0.12336301058530807, 0.010346023365855217, -0.011657297611236572, 0.029850494116544724, 0.06875376403331757, -0.037429045885801315, 0.03806120529770851, -0.00943061150610447, -0.038661789149045944, -0.06828224658966064, -0.05105261132121086, -0.09681528061628342, -0.0872444286942482, -0.11803451180458069, 0.12982214987277985, -0.05847933515906334, -0.10204316675662994, -0.0670868381857872, 0.006047163624316454, -0.1464749425649643, 0.029980400577187538, 0.05442129448056221, 0.08616442233324051, 0.04317644238471985, -0.11011555790901184, 0.06444130092859268, 0.06082174554467201, -0.027901260182261467, 0.011518226005136967, 0.012839140370488167, 0.04768515005707741, 0.00290169776417315, -0.048357412219047546, 0.09316021203994751, -0.040215734392404556, 0.01266481727361679, -0.012841354124248028, -0.030853955075144768, -0.109695203602314, -0.060478679835796356, -0.018128573894500732, -0.05016958341002464, -0.14510925114154816, 0.06867770850658417, 0.04581163451075554, 0.010888964869081974, -0.0244614165276289], [-0.02223147265613079, 0.04925434663891792, 0.0116054592654109, -0.016372468322515488, 0.005087770987302065, 0.11469125747680664, -0.027973106130957603, 0.08708738535642624, 0.03089558519423008, -0.052196353673934937, 0.01084285881370306, 0.028599992394447327, -0.04180436581373215, -0.0022164187394082546, -0.025603629648685455, 0.06112150102853775, 0.013585655950009823, -0.011509167030453682, 0.07114788144826889, -0.01493369322270155, 0.11147617548704147, 0.05083050951361656, 0.014149713329970837, 0.07487431913614273, -0.011380857788026333, 0.00977456383407116, 0.0713731199502945, -0.0817849412560463, 0.0005658820155076683, -0.044179439544677734, -0.029949167743325233, -0.074882373213768, 0.04702204838395119, -0.111362025141716, -0.015605814754962921, 0.015056370757520199, -0.07769224792718887, 0.15162235498428345, -0.04719875007867813, 0.006516019813716412, 0.04164590686559677, -0.06389295309782028, 0.08092215657234192, -0.10743355005979538, -0.0503174252808094, -0.0906195417046547, -0.028305862098932266, 0.14895398914813995, 0.02742953784763813, 0.004911006428301334, 0.06262121349573135, -0.08922390639781952, 0.09396935254335403, 0.013623563572764397, -0.002051039831712842, -0.1030697152018547, 0.08671639859676361, 0.018932480365037918, 0.009900018572807312, -0.007025331258773804, -0.05299007147550583, 0.04727644473314285, -0.032127127051353455, 0.046633556485176086], [-0.019621815532445908, -0.07911399006843567, 0.1086866483092308, 0.06630977243185043, 0.03479641303420067, 0.0005234174313955009, -0.01612982340157032, -0.03840012475848198, 0.07679878175258636, -0.09259989857673645, 0.13127155601978302, 0.08098437637090683, 0.017969179898500443, -0.030190598219633102, 0.04930147901177406, -0.05793645605444908, -0.020802078768610954, -0.07023691385984421, 0.07862282544374466, -0.09338212758302689, 0.023928407579660416, 0.049147289246320724, 0.09009764343500137, -0.02997681498527527, 0.0750153437256813, 0.009411022998392582, 0.0588960237801075, 0.09755895286798477, -0.020825562998652458, 0.04972634091973305, -0.025566618889570236, -0.09203711897134781, 0.11195329576730728, 0.0218958780169487, 0.029841190204024315, 0.08329684287309647, 0.14186416566371918, 0.045416269451379776, -0.07084622979164124, -0.12990447878837585, -0.0903826504945755, 0.06163904815912247, -0.020198343321681023, -0.05592256411910057, 0.06788447499275208, 0.1223134770989418, 0.017162330448627472, -0.02978421188890934, 0.02931191213428974, -0.05867286026477814, 0.03580502048134804, -0.12928856909275055, 0.020044531673192978, -0.05497915670275688, -0.0639161691069603, -0.05668593570590019, -0.038423240184783936, 0.01150514930486679, -0.033088184893131256, 0.12103301286697388, -0.039724987000226974, -0.13090455532073975, 0.01016706507652998, -0.029835408553481102], [0.0732637345790863, -0.056450653821229935, 0.08408370614051819, 0.030658703297376633, 0.01224316842854023, 0.03873607516288757, -0.05687768757343292, 0.04593753442168236, 0.08435504883527756, -0.0492749847471714, 0.06833746284246445, 0.10146704316139221, 0.0526440292596817, 0.048460740596055984, 0.06400221586227417, -0.033292800188064575, -0.019018203020095825, -0.06459779292345047, 0.1464509218931198, -0.027602719143033028, -0.004922823514789343, -0.05993587151169777, 0.061471763998270035, -0.04622265696525574, 0.05837126076221466, -0.03044038452208042, -0.072010837495327, 0.08859037607908249, 0.008752349764108658, -0.0315142422914505, 0.05372192710638046, -0.11672808229923248, 0.012511484324932098, 0.014206774532794952, 0.013207483105361462, -0.03028130903840065, 0.034894127398729324, -0.03105129301548004, 0.015890441834926605, -0.014596100896596909, -0.04023045301437378, -0.036454834043979645, -0.009960111230611801, 0.03813886269927025, 0.020251795649528503, 0.08945180475711823, 0.03501986339688301, 0.018150806427001953, 0.046856485307216644, 0.04857225716114044, -0.04534986987709999, -0.04699406027793884, 0.03077103942632675, -0.046193454414606094, -0.013020195998251438, -0.0021968355868011713, -0.08876641094684601, 0.07940395921468735, 0.09350372850894928, 0.0015443135052919388, -0.020566387102007866, -0.024294260889291763, 0.059055496007204056, 0.010466506704688072], [0.08665326237678528, 0.09380212426185608, -0.10960233211517334, -0.035396020859479904, 0.05665113776922226, 0.040198199450969696, -0.010243844240903854, -0.05781431868672371, 0.035153694450855255, 0.10471928864717484, 0.057298723608255386, 0.08417954295873642, -0.014261653646826744, -0.14550791680812836, -0.018680082634091377, -0.04103903844952583, -0.09578464925289154, 0.2425810992717743, 0.03586571291089058, -0.08508515357971191, 0.11236551403999329, 0.0005738550680689514, -0.1049787774682045, -0.02247282676398754, -0.0452389158308506, 0.013225940056145191, 0.0881122350692749, 0.1101590245962143, -0.024374058470129967, -0.028292423114180565, -0.09717871248722076, -0.040005579590797424, 0.10076886415481567, -0.036724790930747986, -0.24906779825687408, -0.09016569703817368, 0.08252714574337006, 0.22489850223064423, -0.060024622827768326, -0.04425989091396332, -0.055715907365083694, -0.04036657139658928, 0.008620779030025005, -0.23190949857234955, -0.06224571540951729, -0.0395679846405983, 0.062435492873191833, 0.1355663537979126, -0.082656130194664, -0.02988208271563053, 0.14662516117095947, -0.15038050711154938, 0.06863462924957275, -0.00033920706482604146, 0.12334112077951431, -0.036388516426086426, 0.1287216693162918, -0.010436946526169777, -0.22451551258563995, 0.03427915647625923, -0.03324073925614357, -0.10531385242938995, -0.08704323321580887, 0.074644073843956], [-0.029043789952993393, 0.09820504486560822, -0.13406050205230713, -0.09902221709489822, -0.12166354060173035, 0.06594397872686386, 0.096689373254776, 0.15753872692584991, -0.0668114498257637, -0.08139603585004807, -0.12324105948209763, -0.0018029087223112583, -0.1931529939174652, -0.12640973925590515, -0.09849109500646591, 0.06371006369590759, -0.0005364773096516728, -0.03403564915060997, -0.11208365857601166, -0.04130866378545761, 0.11556575447320938, 0.14721328020095825, -0.08338990062475204, 0.06241872161626816, -0.026859568431973457, 0.041256826370954514, 0.04019233211874962, -0.09748971462249756, -0.1263153851032257, -0.061928730458021164, 0.014679537154734135, 0.09080673009157181, -0.1732218861579895, -0.07947999984025955, -0.11095639318227768, -0.08028750866651535, -0.09948983788490295, 0.01923399791121483, 0.1371588408946991, 0.07178229093551636, 0.06639185547828674, -0.0956757441163063, 0.07798358052968979, -0.15133944153785706, -0.10240352153778076, -0.08048424124717712, 0.08034848421812057, 0.08180979639291763, -0.051078539341688156, 0.0158308744430542, 0.04078372195363045, 0.11205485463142395, 0.08218400180339813, 0.03470315411686897, 0.11154083907604218, -0.1828824281692505, 0.04895846173167229, -0.06911809742450714, -0.03921643644571304, -0.06755869835615158, 0.0704134926199913, 0.1327233910560608, -0.08379223942756653, 0.036403488367795944], [-0.0026337611488997936, -0.08477223664522171, 0.011940371245145798, -0.048023611307144165, -0.007752775680273771, -0.025920148938894272, -0.028186151757836342, -0.14921145141124725, 0.0501033179461956, 0.02850223146378994, 0.13518774509429932, 0.12099851667881012, -0.039200350642204285, -0.004922719672322273, -0.003266502870246768, -0.013641942292451859, -0.03667839989066124, -0.005028235260397196, 0.12893304228782654, 0.07248489558696747, -0.09482656419277191, 0.03110489435493946, 0.09607958793640137, -0.04091687127947807, -0.026100631803274155, -0.08341988176107407, -0.002360293176025152, 0.09356506913900375, 0.1630862057209015, 0.09469939768314362, 0.05552176013588905, -0.06307178735733032, 0.1294172704219818, 0.013055408373475075, 0.07131686061620712, -0.022090280428528786, 0.0754728838801384, 0.034857720136642456, -0.01169835776090622, -0.07748185098171234, -0.027884989976882935, -0.013187581673264503, -0.0021437753457576036, 0.10341993719339371, 0.07807786762714386, -0.05538639798760414, -0.13225944340229034, 0.04019085317850113, 0.01569175533950329, 0.07627145200967789, 0.047168370336294174, -0.09674466401338577, -0.1132558211684227, -0.09966704994440079, 0.002666024724021554, 0.10394154489040375, -0.04289831221103668, -0.06454075872898102, -0.03576749935746193, 0.05527650564908981, -0.029730547219514847, -0.0968882292509079, -0.030777445062994957, -0.11522281169891357], [0.050663262605667114, 0.05025298148393631, -0.09756293147802353, -0.06701382249593735, -0.08040475845336914, 0.023419152945280075, -0.017453154549002647, 0.002085609594359994, -0.04383256658911705, -0.06286396831274033, -0.08110681921243668, -0.0694521814584732, -0.05397096276283264, -0.04973588511347771, -0.05551367625594139, 0.013740571215748787, 0.004293834324926138, 0.1364634782075882, -0.015592358075082302, 0.03990376740694046, -0.026104284450411797, -0.059050895273685455, -0.0005121466238051653, -0.056380122900009155, 0.003941139206290245, -0.02046731300652027, 0.1231728121638298, 0.09516658633947372, 0.023291626945137978, -0.0038379188627004623, 0.050745636224746704, 0.03330986574292183, -0.0661596804857254, -0.016407346352934837, -0.14180929958820343, 0.014685893431305885, -0.000424292084062472, 0.06009763479232788, -0.03796864300966263, -0.029957076534628868, 0.026617374271154404, 0.039389826357364655, -0.024311697110533714, -0.054862938821315765, 0.04895634204149246, 0.054908327758312225, -0.01682046800851822, 0.1332329660654068, -0.014981032349169254, 0.058182064443826675, 0.06233759969472885, -0.10869520902633667, -0.00401480495929718, 0.029092246666550636, 0.08210177719593048, -0.09321636706590652, 0.06355056911706924, -0.10192842036485672, -0.003613918786868453, 0.0781121477484703, 0.020061902701854706, -0.015849564224481583, 0.006810134742408991, 0.0021367024164646864], [-0.14085109531879425, 0.06709639728069305, -0.002626590896397829, -0.09698162972927094, -0.192056342959404, -0.13544829189777374, 0.007338363211601973, 0.1498672217130661, -0.06584282219409943, -0.11241469532251358, -0.18243856728076935, -0.19307155907154083, 0.025883406400680542, 0.04911133274435997, -0.11125785857439041, 0.030588408932089806, 0.1240248829126358, -0.06353776901960373, -0.2639801800251007, 0.11112812161445618, -0.004898694343864918, 0.12294496595859528, -0.04131602495908737, 0.24764595925807953, -0.11805309355258942, 0.11409720033407211, -0.017977850511670113, -0.17921310663223267, -0.28506210446357727, -0.1384149193763733, 0.04600881040096283, 0.26190632581710815, -0.2504304349422455, -0.20279499888420105, 0.0014354282757267356, 0.016806859523057938, -0.3078184723854065, -0.06258497387170792, 0.18969611823558807, 0.14106012880802155, 0.09629390388727188, -0.11329347640275955, 0.1585036665201187, 0.009631379507482052, -0.0696529969573021, -0.159508615732193, 0.20386886596679688, -0.052260544151067734, 0.03904366120696068, -0.017021367326378822, -0.09683205932378769, 0.265570729970932, 0.17971953749656677, 0.06344497948884964, 0.06689044088125229, -0.13499359786510468, -0.05783575400710106, -0.054470695555210114, 0.10179201513528824, -0.22355493903160095, 0.27819904685020447, 0.28036007285118103, -0.04187680035829544, 0.14244450628757477], [-0.12611453235149384, -0.03639346733689308, 0.13095024228096008, 0.0013054499868303537, -0.006367632653564215, -0.22375696897506714, 0.08793336898088455, 0.07523750513792038, -0.04914310574531555, -0.2661287188529968, -0.11879262328147888, -0.1340627819299698, 0.034444477409124374, 0.3734453320503235, 0.06298881024122238, 0.1263415515422821, 0.033237479627132416, -0.2887438237667084, 0.04825911298394203, 0.3749755322933197, -0.12193586677312851, 0.07069750130176544, 0.1072649285197258, 0.04731868579983711, 0.04475678130984306, -0.017185231670737267, -0.27389365434646606, 0.014199167490005493, -0.07151913642883301, -0.03457678109407425, 0.28423163294792175, -0.04315745085477829, 0.07949309051036835, 0.02111278474330902, 0.2796088755130768, 0.30782637000083923, -0.029416393488645554, -0.23681248724460602, -0.038998402655124664, 0.06805864721536636, 0.048212625086307526, 0.1514405906200409, 0.04401685297489166, 0.33168041706085205, 0.15636487305164337, -0.017161237075924873, -0.06567243486642838, -0.35969021916389465, 0.3317873477935791, -0.004868736956268549, -0.3253832161426544, -0.0048219067975878716, -0.008464554324746132, -0.0171904768794775, -0.10999874025583267, 0.0069875954650342464, -0.21923960745334625, 0.13365702331066132, 0.1626746654510498, -0.10295411199331284, 0.01939796842634678, 0.0439731739461422, 0.19054381549358368, 0.04901095852255821], [-0.05215281620621681, 0.0015789036406204104, -0.072001151740551, -0.09648487716913223, -0.13696207106113434, 0.02913636714220047, -0.03498927876353264, -0.05071919038891792, -0.06627190858125687, -0.03953944519162178, -0.09881159663200378, -0.09206711500883102, -0.04570228233933449, 0.03753023222088814, -0.11450745910406113, 0.005736503284424543, 0.03783665597438812, -0.04894900694489479, -0.10645037144422531, -0.04374708607792854, 0.03190942108631134, -0.03811176121234894, -0.011298907920718193, 0.15604978799819946, 0.024371987208724022, -0.0082157664000988, 0.03729701787233353, -0.16266882419586182, 0.0002877682272810489, -0.12462086230516434, -0.0921245664358139, -0.022265270352363586, -0.15653009712696075, -0.03504711762070656, -0.020996276289224625, 0.029197754338383675, -0.10112442076206207, -0.008222111500799656, 0.028407346457242966, -0.003524553496390581, -0.0620618611574173, 0.014138083904981613, -0.01418331079185009, -0.013126985169947147, 0.026059580966830254, -0.06531248241662979, 0.03455634415149689, -0.0654219463467598, -0.0918818786740303, 0.03200381249189377, -0.021230563521385193, 0.148981973528862, 0.058773718774318695, 0.026024185121059418, -0.07361405342817307, -0.04278396815061569, -0.00038713638787157834, -0.09160227328538895, -0.030035777017474174, -0.06282995641231537, 0.01745552569627762, 0.08743180334568024, 0.052585672587156296, 0.06554029881954193], [0.07723435014486313, 0.08925717324018478, -0.11421994864940643, -0.08515194803476334, -0.09200362116098404, 0.041183240711688995, -0.008077855221927166, 0.13275571167469025, -0.025554625317454338, -0.04905187338590622, -0.10646644234657288, -0.12562979757785797, -0.05823763459920883, 0.04341920092701912, -0.03716585412621498, -0.06287014484405518, -0.006109087262302637, 0.050081994384527206, -0.17080006003379822, -0.09242462366819382, -0.030846742913126945, 0.1414496898651123, -0.0563400574028492, 0.009906744584441185, -0.09276598691940308, 0.08734194934368134, -0.004696840886026621, -0.03285503387451172, -0.05314231663942337, -0.024909215047955513, 0.05651979520916939, 0.06787081062793732, -0.04709092155098915, -0.05366258695721626, -0.09263473749160767, -0.033916037529706955, -0.00465653371065855, -0.07171012461185455, -0.00021997226576786488, -0.05052412673830986, 0.023662272840738297, -0.13682769238948822, -0.005678799003362656, 0.09642811119556427, 0.019595177844166756, 0.017270328477025032, 0.07467930018901825, -0.08019368350505829, -0.06516235321760178, -0.09326937794685364, -0.055039867758750916, 0.1093355342745781, 0.025831975042819977, 0.10205024480819702, -0.05571906641125679, -0.13461127877235413, 0.11642581969499588, -0.12669627368450165, 0.0783553496003151, -0.038894131779670715, 0.0069044227711856365, 0.15778766572475433, -0.053955912590026855, 0.01736416295170784], [-0.08764858543872833, -0.0643443912267685, 0.009024572558701038, -0.08832565695047379, 0.016809683293104172, -0.03432641178369522, 0.0655827671289444, -0.03326775133609772, -0.028545331209897995, -0.020073357969522476, 0.008181064389646053, -0.0512002557516098, -0.0703011006116867, -0.02657942846417427, -0.057992126792669296, -0.001116940868087113, -0.051100123673677444, -0.0006901007145643234, -0.021136028692126274, 0.05715502053499222, 0.06747930496931076, 0.023496218025684357, 0.04807658866047859, 0.024612924084067345, -0.07940825819969177, 0.03880465030670166, 0.022210100665688515, -0.03365039825439453, 0.05157199501991272, -0.033069636672735214, -0.040293462574481964, -0.03296264633536339, -0.03909901902079582, 0.06508166342973709, 0.014488148503005505, 0.047605063766241074, 0.010042586363852024, 0.07996263355016708, 0.00034107634564861655, -0.06385461986064911, 0.07610105723142624, -0.0712839663028717, 0.01653214544057846, -0.09760594367980957, -0.10758490115404129, -0.000749895116314292, 0.0025427702348679304, 0.027988305315375328, 0.0435648076236248, -0.03754875063896179, 0.02081519179046154, -0.09620926529169083, -0.036513134837150574, 0.00660713342949748, -0.03223352134227753, -0.05658135190606117, -0.021475277841091156, -0.02478473074734211, -0.09437904506921768, 0.05319518968462944, 0.06259436160326004, -0.058011945337057114, 0.015330650843679905, -0.007322958204895258], [-0.0329815074801445, 0.06365253776311874, 0.04319845139980316, -0.06976161152124405, 0.11939767003059387, -0.034349989145994186, -0.014757400378584862, -0.0887269377708435, 0.07707500457763672, -0.03164409473538399, 0.07045834511518478, 0.06279747188091278, -0.018292123451828957, 0.043174903839826584, -0.033720530569553375, 0.08547818660736084, -0.07639331370592117, 0.03608454391360283, 0.06351248174905777, 0.09287764132022858, -0.10236991196870804, -0.033377278596162796, 0.07190848886966705, -0.03745066002011299, 0.022773349657654762, 0.026289669796824455, -0.11771757900714874, 0.010989712551236153, 0.08310160785913467, 0.06935422122478485, 0.1240951418876648, -0.054827846586704254, 0.05886443704366684, -0.01646030880510807, 0.01719406247138977, -0.01884113810956478, 0.11110144853591919, -0.03600194677710533, 0.004310807213187218, 0.019607944414019585, 0.0458659902215004, 0.04490504413843155, -0.009883694350719452, -0.05298217386007309, 0.05020434036850929, 0.009991866536438465, -0.12291931360960007, 0.06501457095146179, 0.020014667883515358, -0.0730973556637764, -0.1378229558467865, -0.13384829461574554, 0.0006260863738134503, -0.05673811957240105, -0.080275759100914, -0.02756047435104847, 0.047117460519075394, 0.0040744598954916, 0.10454520583152771, 0.11726805567741394, -0.10358676314353943, 0.034254495054483414, 0.014418414793908596, 0.057616785168647766], [0.14230692386627197, -0.09006193280220032, 0.014030246064066887, 0.028932873159646988, 0.022824684157967567, 0.14066244661808014, -0.17643895745277405, -0.016333406791090965, 0.1757248193025589, 0.1673756241798401, 0.10004812479019165, 0.06532297283411026, -0.09679610282182693, -0.08091259002685547, -0.023838233202695847, -0.09628500789403915, -0.06297004222869873, 0.00856753159314394, 0.058263346552848816, 0.023769646883010864, -0.0330607146024704, -0.03457549586892128, -0.021765008568763733, 0.03769475221633911, 0.07303044945001602, -0.08961965143680573, 0.059676166623830795, -0.03793435916304588, 0.02989475056529045, 0.04746326804161072, -0.031907565891742706, 0.06789936125278473, -0.04114576056599617, -0.039041925221681595, 0.04609612748026848, -0.05009333789348602, 0.05388695001602173, -0.07756271958351135, 0.03301546350121498, 0.029548639431595802, -0.14873196184635162, 0.05313990265130997, -0.14222143590450287, 0.03957590460777283, 0.027463875710964203, 0.0038670848589390516, 0.028845932334661484, 0.00046047777868807316, -0.046551331877708435, 0.16953523457050323, 0.038528796285390854, 0.0754026398062706, 0.041052766144275665, -0.048737503588199615, -0.02173531800508499, -0.011812657117843628, 0.12385175377130508, -0.08432653546333313, -0.05237168073654175, -0.013370130211114883, -0.10999736189842224, -0.07363776862621307, 0.06348215043544769, -0.06520793586969376], [-0.15479280054569244, -0.03924756497144699, 0.023903025314211845, -0.013007941655814648, -0.09662528336048126, -0.023290446028113365, 0.09285253286361694, 0.07854239642620087, -0.12372684478759766, -0.13625864684581757, -0.09517992287874222, -0.15733997523784637, 0.10768097639083862, 0.12054318934679031, 0.10804582387208939, 0.06175291910767555, 0.12791162729263306, 0.02104964107275009, -0.027625197544693947, 0.06687031686306, 0.017310934141278267, 0.050084613263607025, -0.05056571587920189, 0.08052613586187363, -0.06864036619663239, 0.11904667317867279, -0.09540009498596191, -0.05482138693332672, -0.056853361427783966, 0.012789571657776833, 0.02196466736495495, 0.03583289310336113, 0.048522286117076874, 0.05408230423927307, 0.007819755002856255, -0.008094151504337788, -0.05898395925760269, -0.08703352510929108, 0.08493810892105103, -0.02075112797319889, 0.08141863346099854, -0.07047133147716522, 0.12274795025587082, -0.07963380217552185, 0.0264565609395504, 0.08494893461465836, -0.07793314754962921, 0.02394220046699047, 0.00955243781208992, -0.172450989484787, -0.1399369090795517, 0.024621322751045227, -0.08002261072397232, 0.025004396215081215, -0.014008012600243092, 0.07748253643512726, -0.12871171534061432, 0.12079710513353348, -0.0727730244398117, -0.06463152170181274, 0.10001182556152344, 0.02007644809782505, -0.027930812910199165, 0.025416221469640732], [-0.06765856593847275, -0.06255828589200974, -0.04600879177451134, 0.055541492998600006, -0.0016787220956757665, 0.0056545305997133255, 0.01709720492362976, 0.11669231951236725, -0.03555355221033096, 0.020544756203889847, -0.016965698450803757, -0.011862405575811863, 0.010760188102722168, 0.05280773341655731, 0.03375384584069252, 0.03801017999649048, 0.0626840889453888, -0.010834768414497375, 0.04851717874407768, 0.018209518864750862, 0.08595772087574005, 0.00656241225078702, -0.06980575621128082, 0.0419132336974144, -0.00019988586427643895, 0.0764765590429306, 0.06606185436248779, 0.015928246080875397, 0.058065567165613174, -0.049213703721761703, 0.06954814493656158, 0.07352681457996368, 0.046271178871393204, 0.04773688688874245, -0.09855574369430542, 0.03002447634935379, 0.06749461591243744, -0.04882913827896118, 0.017875082790851593, -0.03590017184615135, 0.019239336252212524, -0.007829125039279461, 0.07123847305774689, -0.05365052819252014, -0.121246337890625, 0.032476700842380524, 0.07827739417552948, 0.0018693309975787997, 0.06295959651470184, 0.014478452503681183, -0.00028793656383641064, 0.023639602586627007, 0.03948768228292465, 0.006994865369051695, -0.0012478315038606524, -0.06632756441831589, -0.037748999893665314, 0.029454415664076805, -0.05323568731546402, -0.0687139704823494, 0.0919354259967804, 0.030350813642144203, 0.04972674325108528, 0.10816536843776703], [0.09974360466003418, 0.0010879329638555646, 0.10627391189336777, -0.058979976922273636, 0.0285608172416687, 0.09338422119617462, -0.12897388637065887, 0.0191360916942358, 0.12914490699768066, 0.0499020591378212, 0.07251770794391632, 0.15358872711658478, -0.053942400962114334, -0.07962411642074585, -0.064008928835392, -0.07729235291481018, -0.15575304627418518, -0.021484924480319023, 0.08072631806135178, -0.10368549078702927, 0.0761716291308403, -0.05829692631959915, -0.0023704394698143005, 0.003521623322740197, 0.06317064166069031, -0.05455353483557701, 0.08066914975643158, -0.05637183412909508, 0.07313743233680725, 0.06258945167064667, -0.06862972676753998, -0.07935439050197601, 0.04136289283633232, 0.08670274168252945, -0.09094443917274475, -0.0886668711900711, -0.0511125773191452, 0.018382681533694267, -0.06337136775255203, -0.05131269991397858, -0.0677168220281601, -0.014785761013627052, -0.1465958058834076, 0.016880067065358162, -0.04962499067187309, -0.019772052764892578, 0.03954882547259331, 0.030260777100920677, -0.08610504865646362, 0.19045934081077576, 0.0743657797574997, -0.07419320940971375, 0.01500504557043314, 0.002440605079755187, -0.0809960812330246, -0.06206868961453438, -0.008722195401787758, 0.055600568652153015, 0.01965305581688881, 0.06738762557506561, -0.09348873049020767, 0.03717023506760597, 0.015898866578936577, -0.13099698722362518], [0.0956510603427887, -0.0626862496137619, 0.06588517129421234, 0.12415270507335663, 0.170927494764328, -0.007161763962358236, -0.001967606134712696, -0.20843183994293213, 0.17238165438175201, 0.02365954779088497, 0.24706009030342102, 0.11040261387825012, 0.00931484904140234, 0.02543429471552372, 0.02192121371626854, -0.06538636982440948, -0.2935299873352051, 0.07381784170866013, 0.2023426741361618, -0.13833364844322205, -0.12973558902740479, -0.1349184364080429, 0.05304825305938721, -0.26280149817466736, 0.14980755746364594, -0.0755358412861824, 0.11989534646272659, 0.286580890417099, 0.33276665210723877, 0.1685691475868225, -0.06828569620847702, -0.14170797169208527, 0.24868786334991455, 0.13336141407489777, 0.01806318759918213, -0.1442631483078003, 0.38988471031188965, 0.11556988209486008, -0.27519452571868896, -0.24392136931419373, -0.04020095616579056, 0.18464989960193634, -0.13590441644191742, -0.10521917045116425, 0.10113517194986343, 0.15575340390205383, -0.199809268116951, 0.12441694736480713, 0.029505033046007156, 0.1299191117286682, 0.1026422455906868, -0.36012640595436096, -0.2162371426820755, -0.07152654230594635, 0.012380088679492474, 0.12176322191953659, 0.06063225120306015, 0.10709065943956375, -0.12668943405151367, 0.2563959062099457, -0.2908531129360199, -0.3248697817325592, 0.012761811725795269, -0.20033496618270874], [-0.14511072635650635, -0.0967247262597084, 0.09867102652788162, -0.05272059515118599, -0.010130212642252445, 0.004018927924335003, 0.10513893514871597, -0.08203113079071045, -0.14469732344150543, -0.07365187257528305, -0.09233938157558441, -0.07509645074605942, 0.04810943454504013, -0.018717782571911812, 0.0662044957280159, 0.08614689111709595, 0.009270216338336468, -0.08894667774438858, 0.04238743707537651, -0.021723462268710136, 0.012237485498189926, -0.02546560950577259, 0.06273854523897171, -0.06536877900362015, -0.07703256607055664, 0.06645195186138153, -0.06784747540950775, 0.05870000645518303, -0.026445217430591583, 0.0033350230660289526, 0.10978257656097412, 0.04167932644486427, -0.007225057575851679, 0.053742095828056335, -0.05765284225344658, -0.1067928746342659, -0.009581390768289566, -0.06960298120975494, -0.06831955909729004, 0.02106402814388275, 0.17784366011619568, -0.0331396646797657, 0.08302406221628189, -0.08166182786226273, 0.026841241866350174, 0.033492859452962875, -0.026575693860650063, 0.07269874960184097, -0.059613361954689026, -0.11891791224479675, -0.06063814088702202, 0.06730268895626068, 0.0821569412946701, 0.06833121925592422, 0.08603235334157944, 0.047956548631191254, -0.11808091402053833, -0.061375997960567474, 0.029472697526216507, -0.08306477963924408, 0.07978885620832443, 0.04913386330008507, 0.032355956733226776, -0.04249457269906998], [0.19797441363334656, -0.2231307029724121, 0.05292501300573349, 0.33020275831222534, 0.33412668108940125, 0.052545953541994095, -0.09739802032709122, -0.3552131652832031, 0.21121357381343842, 0.1777133196592331, 0.35393211245536804, 0.28340616822242737, -0.002532255370169878, -0.17552943527698517, 0.13375049829483032, -0.1706879734992981, -0.3543303310871124, 0.1864471435546875, 0.49748289585113525, -0.05538007244467735, -0.12785570323467255, -0.153346985578537, 0.053299497812986374, -0.3817501664161682, 0.19719095528125763, -0.10296992212533951, 0.035549964755773544, 0.45878541469573975, 0.4369357228279114, 0.29059937596321106, -0.1963421106338501, -0.40180516242980957, 0.3314870595932007, 0.270298570394516, -0.16542549431324005, -0.13314218819141388, 0.4385654330253601, 0.07801839709281921, -0.33321836590766907, -0.3170623481273651, -0.21709024906158447, 0.19430972635746002, -0.15655776858329773, -0.14611871540546417, 0.10535955429077148, 0.21627798676490784, -0.3220675587654114, 0.03967897221446037, -0.11599630862474442, 0.19734200835227966, 0.058695901185274124, -0.41308584809303284, -0.28826168179512024, -0.12003689259290695, -0.05387743562459946, 0.32336294651031494, 0.05736032500863075, 0.17592518031597137, -0.0761711448431015, 0.42742371559143066, -0.4213619828224182, -0.40622860193252563, 0.06082954630255699, -0.2639147937297821], [-0.017867950722575188, 0.04389305040240288, -0.03730786591768265, -0.03462473303079605, 0.016269706189632416, 0.028550071641802788, -0.044650010764598846, -0.024367984384298325, -0.002141287550330162, 0.004829593934118748, -0.012916321866214275, -0.025227408856153488, 0.05372646078467369, 0.025091547518968582, 0.0007135352934710681, 0.002919611521065235, 0.014653647318482399, 0.07759717106819153, -0.0033524639438837767, -0.005336696747690439, -0.025516346096992493, 0.045367006212472916, -0.06137857958674431, 0.04506722465157509, -0.026423202827572823, -0.013312922790646553, 0.06436614692211151, -0.07188981771469116, 0.03835374116897583, -0.03113258071243763, 0.049215592443943024, 0.04609273001551628, -0.05264699086546898, 0.031731199473142624, -0.09017308056354523, -0.07298526912927628, -0.05715599283576012, 0.02667682245373726, 0.022549649700522423, -0.04748242348432541, 0.037651970982551575, -0.015855370089411736, -0.02457064762711525, -0.013992450200021267, -0.05347663536667824, 0.0070470343343913555, 0.04784785211086273, -0.00792525801807642, -0.011303381063044071, 0.03766544908285141, -0.03724779561161995, 0.00333915906958282, 0.005663810297846794, -0.014949153177440166, 0.02392200008034706, -0.012593965977430344, -0.030307132750749588, 0.004161158576607704, 0.06640318036079407, 0.019855458289384842, -0.014968104660511017, 0.0666441097855568, -0.07563067972660065, -0.017789527773857117]], "b": [0.05029236525297165, 0.10185498744249344, 0.14859473705291748, 0.0328204371035099, -0.1726490557193756, 0.08584995567798615, 0.016177866607904434, 0.1344180703163147, 0.03588414564728737, -0.0885375514626503, -0.13294720649719238, -0.009568296372890472, -0.06617283821105957, -0.053590450435876846, -0.017348039895296097, -0.04856234788894653, -0.1666780263185501, -0.01173466257750988, -0.14067497849464417, 0.2181551456451416, 0.03601784259080887, -0.024954482913017273, -0.1366502344608307, 0.07358097285032272, 0.1259157955646515, 0.057477034628391266, 0.05340317264199257, -0.14181604981422424, -0.05028147995471954, -0.054292745888233185, 0.08391384035348892, -0.12391145527362823, 0.17788445949554443, -0.15721189975738525, 0.014668457210063934, 0.09614403545856476, -0.2154792696237564, -0.17896099388599396, 0.03683870658278465, 0.017973780632019043, -0.0398656390607357, 0.10682293027639389, -0.08521994948387146, 0.00192177330609411, 0.022970082238316536, -0.005044560879468918, 0.013762020505964756, -0.012374436482787132, -0.004717121832072735, 0.048384156078100204, -0.1695983111858368, -0.1568228006362915, -0.08559583127498627, -0.08989240974187851, 0.015853403136134148, -0.05657191947102547, 0.08626047521829605, -0.10455029457807541, -0.10265173017978668, 0.16415177285671234, 0.14819926023483276, -0.15193194150924683, 0.1794293075799942, 0.03482523560523987], "act": "tanh"}, {"W": [[-0.0600597970187664, 0.05333425849676132, 0.0858602300286293, -0.0683906078338623, 0.07331997156143188, 0.18087904155254364, 0.04933859035372734, 0.02994377166032791, -0.07778368145227432, 0.057414710521698, 0.035961221903562546, 0.001524987630546093, 0.004877137485891581, -0.1351231336593628, 0.0022689879406243563, -0.01143975555896759, 0.0679607093334198, -0.030445950105786324, 0.07319383323192596, -0.08479851484298706, 0.09119412302970886, -0.05510079488158226, 0.02137169800698757, 0.1769033968448639, -0.041174475103616714, -0.010304935276508331, 0.06494065374135971, 0.016540290787816048, -0.0012655032332986593, 0.0176926851272583, -0.051749713718891144, 0.09453405439853668, -0.010461465455591679, 0.06520161777734756, 0.05054336041212082, 0.04025814309716225, 0.04455101117491722, 0.11264162510633469, 0.07485120743513107, -0.10000699758529663, 0.004912857431918383, -0.04703107476234436, 0.04188014194369316, 0.0707758292555809, -0.05035998672246933, -0.03299803286790848, 0.1323964148759842, 0.13035401701927185, 0.009297008626163006, 0.04938666522502899, -0.051784735172986984, -0.226862370967865, -0.014816980808973312, 0.029292378574609756, 0.028679030016064644, -0.07081928104162216, -0.060853589326143265, 0.023311534896492958, 0.017457015812397003, -0.06811277568340302, 0.046779777854681015, 0.0033054121304303408, 0.03514011949300766, 0.011668850667774677], [-0.1518399715423584, 0.053858593106269836, 0.10144936293363571, 0.03313996270298958, -0.17716340720653534, 0.04028403386473656, -0.2589987814426422, -0.4001283645629883, -0.023159706965088844, -0.27249234914779663, 0.16940036416053772, -0.0057632471434772015, 0.0014700894244015217, -0.059368446469306946, -0.0037765917368233204, -0.010466423816978931, -0.18671125173568726, -0.008431931957602501, -0.1984081119298935, 0.23398274183273315, 0.10765919834375381, -0.05992485582828522, -0.1313445270061493, -0.17344748973846436, 0.10151724517345428, 0.1413716822862625, 0.0729714035987854, -0.08739441633224487, -0.008719419129192829, 0.029248127713799477, 0.16966265439987183, -0.23836085200309753, 0.12306179851293564, -0.36417388916015625, -0.06532720476388931, -0.1776861548423767, -0.19186702370643616, -0.16861853003501892, -0.0184846930205822, 0.013591019436717033, -0.06435583531856537, 0.10416219383478165, 0.10362819582223892, -0.010898852720856667, -0.14631745219230652, -0.06650934368371964, -0.10550511628389359, -0.021286947652697563, -0.11211290210485458, -0.03894411399960518, 0.27664366364479065, 0.029954450204968452, 0.10876145958900452, 0.1623791754245758, -0.029564090073108673, -0.06043098121881485, 0.24533767998218536, -0.173191636800766, -0.04857507348060608, 0.19229185581207275, -0.3702472448348999, -0.15266937017440796, -0.464809775352478, 0.004391781985759735]], "b": [0.002113240072503686, 0.2855955958366394], "act": "linear"}]}, "model2d": {"inputs": ["alpha_deg", "log10_Re"], "alpha_range": [-6.0, 16.0], "re_range": [100000.0, 1500000.0], "x_mean": [4.796380090497737, 5.585822911209615], "x_std": [6.59711204609592, 0.3939779994549572], "y_mean": [0.43115036199095025, 0.024670479638009054], "y_std": [0.632995063688626, 0.03505478197052032], "layers": [{"W": [[-0.0038117258809506893, 0.49995458126068115], [-0.3823210299015045, -0.5341991186141968], [-0.3869331181049347, 0.05364932492375374], [-0.3091074228286743, 0.8048295974731445], [-0.1320093423128128, 0.1294352114200592], [-0.3270632028579712, -0.08695673197507858], [-0.8640444874763489, 0.15951679646968842], [-0.3350376784801483, -0.00159322505351156], [0.303536981344223, 0.3094145953655243], [-0.5173047780990601, -0.16854536533355713], [0.059933070093393326, 1.2995257377624512], [-0.5492250323295593, 0.7095489501953125], [-0.7287250757217407, 0.3593010902404785], [0.7290888428688049, -0.3179117441177368], [-0.8424578309059143, 0.21615247428417206], [-0.25142672657966614, 0.38699305057525635], [-0.4042055010795593, -0.40377914905548096], [-0.4654015600681305, -0.47968238592147827], [-0.5640885829925537, 0.43984749913215637], [0.34666430950164795, 0.302632212638855], [0.33686763048171997, -0.7191737294197083], [0.5573061108589172, -0.7804877161979675], [-0.5228337645530701, -0.3885740339756012], [0.7233221530914307, 0.05245402082800865], [-0.34026435017585754, -0.034713227301836014], [0.16159772872924805, 0.7893128395080566], [0.4458513557910919, 0.05653524398803711], [0.7530000805854797, -0.40907344222068787], [0.18267230689525604, -0.40901175141334534], [-0.5603635311126709, -0.18609508872032166], [0.5587008595466614, -0.0032261498272418976], [-0.5458852052688599, 0.05373232439160347], [0.5001465082168579, -0.13766050338745117], [0.09612470120191574, 0.13348186016082764], [0.4647066593170166, 0.6359633803367615], [-0.691939115524292, -0.08418802171945572], [0.19505411386489868, 0.7554015517234802], [0.6033792495727539, 0.38195499777793884], [0.36296164989471436, -0.7498189210891724], [0.018040882423520088, -0.5088481307029724], [-0.7947768568992615, 0.11511831730604172], [0.430486798286438, -0.6971433758735657], [0.1048508882522583, -0.21052244305610657], [0.3773914873600006, -0.6407307386398315], [0.4412621855735779, -0.2506825625896454], [0.2003173679113388, 0.40024489164352417], [0.8647163510322571, -0.1986103504896164], [-0.8005337715148926, -0.04668648913502693], [0.5710164904594421, -0.1715715080499649], [-0.5715190768241882, -0.1799236536026001], [0.5661048889160156, 0.400615394115448], [-0.5210889577865601, -0.21218760311603546], [-0.5897191762924194, -0.026315385475754738], [-0.5356132388114929, -0.27545058727264404], [-0.3902299702167511, 0.24172857403755188], [-0.4224209487438202, 0.32540076971054077], [-0.5161217451095581, 0.4983436167240143], [0.6269150972366333, -0.32831281423568726], [-0.3237040042877197, 0.07560861110687256], [0.3541622459888458, 0.07229897379875183], [0.5905088782310486, -0.23499742150306702], [-0.6053569912910461, 0.36659231781959534], [-0.8444826602935791, -0.011065518483519554], [-0.4908735752105713, -0.11230562627315521]], "b": [-0.29968690872192383, -0.5520695447921753, -0.1730540245771408, 0.8657775521278381, -0.674321174621582, 0.24046491086483002, 1.2885369062423706, 0.16165032982826233, -0.372027188539505, 0.3308934271335602, 0.6001368761062622, 1.2050899267196655, 1.343591570854187, 