{"inputs": ["alpha_deg", "log10_Re"], "alpha_range": [-4.0, 16.0], "re_range": [103000.0, 719000.0], "v_range": [5.0, 35.0], "physics": {"chord": 0.3, "span": 1.2, "rho": 1.225, "mu": 1.789e-05}, "x_mean": [5.686567306518555, 5.548879623413086], "x_std": [5.758297443389893, 0.27313587069511414], "y_mean": [0.9545581340789795, 0.020668046548962593], "y_std": [0.4597334563732147, 0.017757723107933998], "layers": [{"W": [[0.027727819979190826, 0.3137280344963074], [-0.47259142994880676, -0.16867941617965698], [-0.2859109044075012, 0.011178070679306984], [-0.0019322991138324142, 0.42313140630722046], [-0.07359836995601654, 0.20797696709632874], [-0.2516268789768219, -0.005127980373799801], [-0.8372781872749329, -0.15936268866062164], [-0.3173835575580597, 0.02334192395210266], [0.3247055113315582, 0.1261281967163086], [-0.501519501209259, -0.12966103851795197], [0.169552743434906, 0.5057318210601807], [-0.10964202880859375, 0.4003368020057678], [-0.3073654770851135, 0.06566662341356277], [0.5614435076713562, -0.09373528510332108], [-0.6254386305809021, 0.054011378437280655], [-0.21671098470687866, 0.20610125362873077], [-0.4978039264678955, -0.10399030148983002], [-0.4918130040168762, -0.2578032612800598], [-0.4691297709941864, 0.09108389168977737], [0.3049628734588623, 0.11010497063398361], [0.11832614243030548, -0.35001447796821594], [0.16389024257659912, -0.4167930483818054], [-0.5843745470046997, -0.054249536246061325], [0.5673840641975403, -0.02207043580710888], [-0.3102096617221832, -0.0018816967494785786], [0.32458943128585815, 0.9242727756500244], [0.3602943420410156, 0.05950571224093437], [0.5833541750907898, -0.07794798910617828], [0.07901207357645035, -0.39883458614349365], [-0.545344889163971, -0.0549367219209671], [0.4588882029056549, -0.003022783901542425], [-0.41578409075737, 0.012014849111437798], [0.4639182984828949, -0.03868957981467247], [-0.03630601987242699, 0.34316226840019226], [0.20802366733551025, 0.7028612494468689], [-0.6085310578346252, -0.0583280473947525], [0.2233467847108841, 1.4184234142303467], [0.6064423322677612, 0.2818385064601898], [0.18118040263652802, -0.259673148393631], [0.042069900780916214, -0.47118720412254333], [-0.6626697182655334, 0.019885579124093056], [0.40294378995895386, -0.6593926548957825], [0.05463463440537453, -0.1624140590429306], [0.1464543342590332, -0.19936248660087585], [0.2520732581615448, -0.09261161834001541], [0.3297135829925537, 0.11625457555055618], [0.6809409260749817, -0.03324904665350914], [-0.8553786873817444, -0.27884379029273987], [0.41248902678489685, -0.02138998918235302], [-0.554225504398346, -0.008180246688425541], [0.6184231042861938, 0.06757478415966034], [-0.3709716200828552, -0.061908476054668427], [-0.5742558836936951, 0.07778298109769821], [-0.5434922575950623, -0.20325441658496857], [-0.276025652885437, 0.12511979043483734], [-0.3708776831626892, 0.04726056382060051], [-0.45405349135398865, 0.14271217584609985], [0.4822787642478943, -0.1269371509552002], [-0.28276538848876953, 0.058694686740636826], [0.30143508315086365, -0.038435257971286774], [0.47738316655158997, -0.09274078160524368], [-0.4371381103992462, 0.09111679345369339], [-0.7698470950126648, -0.12136799842119217], [-0.18628613650798798, -0.19805693626403809]], "b": [-0.14457176625728607, -0.4490164518356323, -0.27033111453056335, 0.506188154220581, -0.5069760084152222, 0.049585677683353424, 0.8418224453926086, 0.18112437427043915, -0.12946589291095734, 0.18119987845420837, 0.35950493812561035, 0.7069011330604553, 0.7593642473220825, 0.35310104489326477, 0.9504530429840088, 0.09185478091239929, -0.6755226850509644, -0.16835683584213257, 0.6739004850387573, -0.1066540777683258, -0.5825821757316589, -0.8568429946899414, -0.7394940853118896, -0.7756367921829224, -0.12594954669475555, 0.6505039930343628, 0.3970097303390503, -0.9247958064079285, 0.4390413761138916, -0.6333645582199097, -0.5306143164634705, -0.1778019219636917, -0.4920237362384796, -0.25409650802612305, -0.6256702542304993, -0.760516345500946, 0.05202900990843773, 0.06445945799350739, -0.5315411686897278, 0.2942317724227905, -0.5951166749000549, -0.21897223591804504, 0.6748123168945312, -0.4118375778198242, 0.519891619682312, 0.18248791992664337, -0.9707903265953064, 0.5966293811798096, -0.46546751260757446, -0.50858473777771, 0.7693470120429993, -0.48745274543762207, 0.003234110539779067, 0.16031377017498016, 0.6820399165153503, 0.4151449501514435, 0.5244698524475098, 0.1044691652059555, 0.19743527472019196, -0.4352220594882965, -0.7516458034515381, 0.6527588963508606, 0.8005688786506653, 0.5677785873413086], "act": "tanh"}, {"W": [[-0.2289532572031021, 0.19378937780857086, 0.01171103585511446, -0.2928674519062042, -0.17053137719631195, 0.02441931515932083, -0.360332727432251, -0.004206456243991852, -0.060543958097696304, 0.001671471050940454, -0.3227585554122925, -0.26833710074424744, -0.027700718492269516, -0.1766945868730545, -0.31075435876846313, -0.038095276802778244, 0.25444772839546204, 0.08958388864994049, -0.12445253878831863, -0.06302307546138763, 0.2277425080537796, 0.23919177055358887, 0.29397693276405334, 0.2197403758764267, 0.04297231510281563, -0.4147111177444458, -0.09311500191688538, 0.2066638469696045, 0.14015071094036102, 0.30540359020233154, 0.10762208700180054, 0.12344786524772644, 0.07681356370449066, -0.181415393948555, -0.07076450437307358, 0.30538275837898254, -0.08955993503332138, -0.021981198340654373, 0.15652936697006226, 0.2200990915298462, 0.29475006461143494, 0.0537610724568367, 0.17242449522018433, 0.1171422153711319, 0.06458260864019394, -0.11301986128091812, 0.3079138994216919, -0.26784560084342957, 0.08548223972320557, 0.2838269770145416, -0.3347185552120209, 0.13333278894424438, 0.15214203298091888, -0.040905214846134186, -0.04342271015048027, -0.07997530698776245, -0.03115963004529476, -0.1307561993598938, -0.0250320453196764, 0.02908427082002163, 0.1999022215604782, -0.13719192147254944, -0.3339315950870514, 0.1009330227971077], [-0.04780634865164757, 0.002736296970397234, -0.056642014533281326, -0.017311591655015945, -0.11707980185747147, 0.018987007439136505, 0.031267497688531876, 0.045114729553461075, -0.008348613977432251, -0.011416418477892876, 0.03563098609447479, 0.03494546189904213, 0.18805666267871857, 0.022755736485123634, 0.0020507555454969406, -0.032866112887859344, -0.08757899701595306, -0.013737041503190994, -0.017222275957465172, -0.037214964628219604, 0.00436349818482995, -0.06014418974518776, -0.026583746075630188, -0.020177876576781273, -0.005122675560414791, 0.034837156534194946, -0.0069913011975586414, 0.03614459186792374, 0.06189241632819176, 0.0383024588227272, -0.0510803684592247, 0.01821649633347988, -0.03613793104887009, -0.05719499662518501, -0.030698945745825768, 0.002864003647118807, 0.18245692551136017, 0.023865649476647377, -0.028345538303256035, 0.016440141946077347, 0.05405697226524353, -0.042183034121990204, 0.132249653339386, -0.07785657048225403, 0.023350732401013374, 0.02221016213297844, -0.05176585540175438, -0.004490513354539871, -0.016505859792232513, -0.05918589606881142, 0.03384074941277504, -0.016617201268672943, 0.0406784862279892, -0.013183612376451492, 0.10572827607393265, 0.011576741933822632, 0.0385318323969841, -0.024687951430678368, 0.028012128546833992, -0.04988836497068405, -0.07781122624874115, 0.02622070536017418, 0.027187136933207512, 0.11385013908147812], [0.0011218467261642218, 0.006582953501492739, -0.05714869126677513, -0.00389293790794909, 0.03903280198574066, 0.023847809061408043, 0.0681883841753006, -0.011875530704855919, 0.02343636564910412, -0.03740653023123741, -0.07529032975435257, -0.059352535754442215, 0.0342484712600708, 0.0844196006655693, -0.03962913900613785, 0.009494010359048843, 0.02362685650587082, 0.0879010483622551, 0.053630415350198746, 0.04437777027487755, -0.005267558619379997, -0.021761054173111916, 0.01931566558778286, 0.032737210392951965, -0.054329097270965576, 0.024037307128310204, 0.04618914797902107, 0.03428177163004875, -0.030486498028039932, -0.01172100193798542, -0.013594458810985088, 0.01492973044514656, 0.002075563184916973, 0.0130185941234231, 0.012312591075897217, -0.017515068873763084, -0.05245642364025116, 0.012617949396371841, -0.03263901546597481, 0.0006508383085019886, -0.10544685274362564, -0.06911439448595047, -0.04737827554345131, 0.04298635572195053, 0.05205481871962547, 0.05037079006433487, 0.045714154839515686, -0.041793033480644226, -0.03117954544723034, -0.039236314594745636, -0.01716664433479309, 0.02107839845120907, -0.08788547664880753, -0.0217214934527874, -0.059055037796497345, -0.049198415130376816, 0.04061732441186905, 0.07976286113262177, 0.008617139421403408, 0.0495184063911438, 0.05886377394199371, -0.02792966179549694, 0.054635513573884964, 0.040011271834373474], [-0.030145777389407158, -0.013839038088917732, 0.011929322965443134, 0.17853157222270966, -0.12531034648418427, 0.08730386942625046, 0.4008607566356659, 0.11503606289625168, -0.12101288139820099, 0.12204297631978989, 0.10284198820590973, 0.2768154740333557, 0.31094425916671753, 0.07996074855327606, 0.3950613737106323, 0.06593923270702362, -0.07389144599437714, 0.04246868938207626, 0.2514370083808899, -0.08562883734703064, -0.20228150486946106, -0.3225650489330292, -0.07740682363510132, -0.32883313298225403, 0.01854882761836052, 0.30575031042099, 0.02226804569363594, -0.38991522789001465, 0.15136614441871643, -0.10466743260622025, -0.26601797342300415, -0.026195742189884186, -0.23422007262706757, -0.07862601429224014, -0.23067744076251984, -0.08187755942344666, -0.5648228526115417, -0.1304124891757965, -0.1936568021774292, 0.11661183089017868, -0.08477596193552017, 0.0025593494065105915, 0.1363518238067627, -0.16741563379764557, 0.08240734785795212, 0.003444474656134844, -0.4479314982891083, 0.34250280261039734, -0.19996245205402374, -0.0777113139629364, 0.09132719039916992, -0.10212414711713791, 0.024252653121948242, 0.11695046722888947, 0.2850795090198517, 0.16151092946529388, 0.10919498652219772, -0.024933936074376106, 0.10672277212142944, -0.17647171020507812, -0.34148555994033813, 0.30251431465148926, 0.35466593503952026, 0.16679610311985016], [-0.011696173809468746, -0.05525307357311249, 0.06742408126592636, 0.07581671327352524, 0.0005849417066201568, 0.06425386667251587, 0.09286082535982132, 0.1006244495511055, -0.04832395538687706, 0.09889049828052521, -0.0007695983513258398, 0.08291260153055191, 0.057295624166727066, -0.016553005203604698, 0.16487355530261993, -0.027695653960108757, 0.017589090391993523, 0.06214963272213936, 0.11015847325325012, -0.08315856009721756, -0.09780476987361908, -0.12066434323787689, 0.020776372402906418, -0.07368802279233932, 0.06948737055063248, 0.06539013981819153, 0.0036142088938504457, -0.20423874258995056, 0.020449617877602577, 0.02992844022810459, -0.1277078241109848, 0.056516990065574646, -0.13271522521972656, -0.0312933549284935, -0.1343614161014557, 0.03129824623465538, 0.014915750361979008, 0.0065936129540205, -0.050209928303956985, 0.05311160534620285, -0.014362438581883907, -0.026510635390877724, 0.02969706431031227, -0.043569210916757584, 0.05788586661219597, -0.05989271402359009, -0.10444943606853485, 0.1088719367980957, -0.13314761221408844, -0.03568818047642708, 0.07514036446809769, 0.056532829999923706, -0.04858599603176117, 0.10530464351177216, 0.11012691259384155, 0.10538624227046967, 0.1211189553141594, -0.03909650444984436, 0.06193302199244499, -0.07073171436786652, -0.13947942852973938, 0.12032753974199295, 0.11419129371643066, 0.09960861504077911], [-0.03488479554653168, -0.06805331259965897, 0.01140693761408329, 0.18035876750946045, -0.11920246481895447, 0.08566994965076447, 0.40356871485710144, 0.11681216210126877, -0.0990823432803154, 0.12244008481502533, 0.10918992012739182, 0.24846450984477997, 0.2734849154949188, 0.030005257576704025, 0.44790175557136536, 0.026978112757205963, -0.08549247682094574, 0.015373100526630878, 0.31526046991348267, -0.06771747022867203, -0.22642406821250916, -0.3399842381477356, -0.15570838749408722, -0.34668299555778503, 0.025270801037549973, 0.2126055806875229, 0.013229252770543098, -0.3732161819934845, 0.07602100819349289, -0.0676499605178833, -0.2594994008541107, -0.030808649957180023, -0.2068043202161789, -0.06673508137464523, -0.26260504126548767, -0.10294652730226517, -0.5823190808296204, -0.034863170236349106, -0.2232288122177124, 0.07132541388273239, -0.02092588134109974, -0.010544990189373493, 0.13099659979343414, -0.16004569828510284, 0.07274890691041946, -0.0252817552536726, -0.3887593746185303, 0.29989907145500183, -0.2559160590171814, -0.09909679740667343, 0.07396630942821503, -0.036036163568496704, -0.029818981885910034, 0.18757131695747375, 0.2727579176425934, 0.1853930652141571, 0.19309186935424805, 0.05775918811559677, 0.14051617681980133, -0.1838272362947464, -0.3444823920726776, 0.24473609030246735, 0.3439784348011017, 0.18806611001491547], [-0.032385461032390594, -0.05848836526274681, 0.015017092227935791, 0.05622071400284767, -0.11037970334291458, -0.0059280660934746265, -0.04958118870854378, 0.0434279702603817, -0.02514524571597576, -0.009628226049244404, 0.01706932857632637, 0.0662703737616539, 0.17620304226875305, 0.04055620729923248, 0.04206180199980736, -0.03796706721186638, -0.06041806563735008, 0.040014076977968216, 0.08025720715522766, -0.003690124489367008, -0.07156965136528015, 0.010332007892429829, 0.0678165927529335, 0.00669275363907218, -0.034225139766931534, 0.0075447275303304195, -0.021192802116274834, 0.006721625570207834, 0.03070691227912903, -0.026378974318504333, -0.023438479751348495, -0.009606149047613144, -0.07830170542001724, -0.04757576063275337, -0.041302070021629333, -0.04316085949540138, 0.11976946145296097, -0.024323053658008575, -0.020964305847883224, 0.05932975932955742, 0.057752031832933426, -0.004270833916962147, 0.15692923963069916, -0.031913112848997116, 0.020643899217247963, 0.041058558970689774, -0.023796934634447098, -0.07024477422237396, -0.06398403644561768, -0.038713209331035614, 0.05681031569838524, -0.030411142855882645, -0.034757521003484726, 0.0066652377136051655, 0.1387125700712204, 0.05799953639507294, 0.06371093541383743, -0.01179730985313654, 0.034805603325366974, -0.06634246557950974, -0.08262024819850922, -0.005786320194602013, -0.03166599199175835, 0.11215003579854965], [0.010029693134129047, 0.027459856122732162, 0.07505488395690918, 0.05164644494652748, 0.011471277102828026, 0.07840002328157425, -0.009553801268339157, 0.10344588756561279, -0.0545094795525074, 0.00955320242792368, 0.040821515023708344, 0.03401907533407211, 0.05819687992334366, -0.10794961452484131, -0.023398349061608315, 0.005453603342175484, 0.05625828728079796, 0.06503599882125854, 0.011867321096360683, 0.008776419796049595, -0.06912360340356827, -0.08518475294113159, 0.11381547898054123, -0.10524776577949524, 0.053445879369974136, 0.05352315679192543, -0.06152142584323883, 0.015507207252085209, -0.04450538754463196, 0.11764229834079742, -0.10612717270851135, 0.03976665809750557, -0.06409210711717606, 0.04186610132455826, 0.01404972467571497, 0.1256248950958252, 0.08137115836143494, -0.007669599261134863, -0.005284784361720085, -0.04301294684410095, 0.12910300493240356, -0.08486825227737427, -0.06006588041782379, -0.007638336159288883, -0.0049537429586052895, 0.021199101582169533, -0.06092054769396782, -0.037951353937387466, 0.0003134178987238556, 0.08196661621332169, -0.016331367194652557, -0.002705163322389126, 0.12625259160995483, 0.08564787358045578, 0.012764708139002323, -0.031329117715358734, 0.1310117393732071, -0.11628090590238571, 0.050837136805057526, -0.006530881859362125, -0.083360455930233, 0.08023680001497269, -0.03755154833197594, 0.02021007426083088], [0.0501265749335289, -0.013157302513718605, 0.023255378007888794, 0.07926591485738754, 0.050522662699222565, -0.06487996876239777, -0.4311806559562683, -0.1102241575717926, 0.13539686799049377, -0.21438482403755188, 0.23341098427772522, -0.03946623578667641, -0.18774934113025665, -0.06446526199579239, -0.33789771795272827, 0.006453942973166704, 0.14381754398345947, -0.19992926716804504, -0.2163810282945633, 0.13684982061386108, 0.011932271532714367, 0.05581928417086601, 0.18947449326515198, 0.2919542193412781, 0.0072668143548071384, 0.2849064767360687, -0.041219014674425125, 0.3374178111553192, -0.020317746326327324, 0.10787370055913925, 0.21395368874073029, 0.07524856179952621, 0.18278752267360687, 0.029592188075184822, -0.12371138483285904, 0.08367935568094254, 0.1702260673046112, 0.2260381430387497, 0.08761947602033615, 0.0062584360130131245, 0.1592060774564743, 0.21056027710437775, -0.057836342602968216, 0.05223342031240463, -0.08038085699081421, 0.03883267939090729, 0.3562758266925812, -0.40773922204971313, 0.19792167842388153, 0.13602860271930695, -0.1109076738357544, 0.07394188642501831, -0.021412570029497147, -0.1923263669013977, -0.1877577304840088, -0.1680639088153839, -0.11086001247167587, 0.013753373175859451, -0.09199204295873642, 0.15021266043186188, 0.2519146800041199, -0.22526223957538605, -0.4018845558166504, -0.12332911044359207], [0.042278435081243515, -0.02420908585190773, 0.0635262131690979, -0.007183573208749294, 0.10412056744098663, 0.044059284031391144, 0.08619752526283264, -0.024696964770555496, 0.05935562402009964, -0.033666811883449554, 0.09691513329744339, -0.03351038694381714, -0.10303695499897003, 0.036402616649866104, 0.028674937784671783, 0.038142070174217224, -0.03318209573626518, -0.030584845691919327, -0.007468971889466047, -0.06980764120817184, -0.022239169105887413, -0.019101984798908234, 0.020583217963576317, 0.0075545720756053925, 0.09988674521446228, 0.05014051869511604, -0.062227215617895126, -0.06414113938808441, -0.10248535871505737, -0.03916160389780998, -0.023238185793161392, 0.009382378309965134, 0.019345847889780998, 0.07535490393638611, 0.05545426532626152, -0.03642873466014862, 0.19333890080451965, 0.05905845761299133, 0.04006202146410942, -0.10726749151945114, 0.035728879272937775, -0.037191085517406464, -0.10685116797685623, -0.007608948741108179, -0.025441544130444527, -0.051885221153497696, -0.009813043288886547, 0.07278238981962204, -0.04749079421162605, 0.10094115883111954, -0.02850310131907463, 0.0623437836766243, 0.12579432129859924, -0.008221452124416828, -0.02458956651389599, -0.008654010482132435, 0.010954231023788452, -0.041685886681079865, 0.016572250053286552, -0.004010684788227081, 0.009666664525866508, 0.020689524710178375, 0.0872199758887291, -0.037880055606365204], [0.0427030511200428, -0.2580854296684265, -0.17719729244709015, 0.01747354120016098, 0.01868264377117157, -0.12463578581809998, -0.16756556928157806, -0.14700236916542053, 0.12648330628871918, -0.18186724185943604, 0.05792884901165962, -0.0377139076590538, -0.06491328775882721, 0.11422141641378403, -0.14920467138290405, -0.052042294293642044, -0.22222082316875458, -0.20966854691505432, -0.2068856656551361, 0.16082380712032318, 0.03772611543536186, 0.046646103262901306, -0.17636463046073914, 0.09000638872385025, -0.16396424174308777, -0.07995498925447464, 0.21602880954742432, 0.13577768206596375, -0.01031579915434122, -0.14849767088890076, 0.17041753232479095, -0.20933467149734497, 0.27039921283721924, 0.03230234608054161, 0.110466368496418, -0.23259487748146057, 0.11930082738399506, 0.2394990772008896, 0.07673811167478561, -0.07326805591583252, -0.24175824224948883, 0.06311604380607605, -0.009263107553124428, 0.02332218363881111, 0.12640871107578278, 0.2090170979499817, 0.1389203667640686, -0.14940649271011353, 0.15166699886322021, -0.24283981323242188, 0.13525140285491943, -0.14028415083885193, -0.18759579956531525, -0.15688586235046387, -0.0686720460653305, -0.2104806900024414, -0.22666175663471222, 0.17111006379127502, -0.13769963383674622, 0.14645034074783325, 0.2047261893749237, -0.1629955917596817, -0.17322462797164917, -0.03030000627040863], [-0.026635995134711266, -0.00841199979186058, -0.0029704126063734293, -0.007132533006370068, -0.0026579052209854126, 0.01853966899216175, 0.02576105296611786, 0.02110825479030609, 0.011825915426015854, -0.016389958560466766, -0.024509668350219727, -0.043148234486579895, 0.07545837014913559, -0.031032226979732513, 0.010664749890565872, -0.0012268422869965434, 0.008241505362093449, -0.002538642380386591, 0.04970758035778999, 0.012640556320548058, -0.03557663783431053, -0.028342410922050476, 0.025842303410172462, 0.021446922793984413, 0.01412036083638668, -0.04921968653798103, -0.029301777482032776, 0.06032664328813553, 0.06330446898937225, -0.0652594044804573, 0.02225602976977825, -0.05578724667429924, 0.05494120344519615, -0.03533417731523514, 0.07241468876600266, -0.07671995460987091, -0.0350119024515152, 0.059073518961668015, 0.060541924089193344, 0.04937667399644852, 0.049341727048158646, -0.022023819386959076, 0.09890307486057281, -0.06205345690250397, 0.04500674828886986, -0.018895862624049187, 0.0009730058955028653, -0.02505188249051571, -0.014425971545279026, -0.02264804020524025, -0.05719452351331711, -0.06973619759082794, 0.013851837255060673, -0.03529195860028267, 0.07749532163143158, -0.02537209540605545, -0.06351196765899658, -0.038881126791238785, 0.016292303800582886, -0.005782896187156439, 0.007561164908111095, -0.040963444858789444, -0.010408604517579079, 0.03527391329407692], [0.05787409842014313, 0.0628805011510849, 0.08569736033678055, -0.0653838962316513, 0.10630974918603897, -0.01133114006370306, -0.03242673724889755, -0.031419798731803894, 0.036954376846551895, -0.003818801837041974, 0.004711460322141647, -0.03417331352829933, -0.11222823709249496, 0.050155602395534515, -0.10108169168233871, 0.0223185233771801, 0.08975344151258469, 0.07777048647403717, -0.06965890526771545, 0.04459013417363167, 0.025242770090699196, -0.024464426562190056, 0.05655788630247116, 0.06323493272066116, 0.015035313554108143, -0.07013671100139618, -0.11245470494031906, 0.036856044083833694, -0.10839688032865524, 0.07026859372854233, 0.07125917822122574, 0.026182051748037338, 0.05370999872684479, 0.07047924399375916, 0.14215373992919922, 0.045053280889987946, 0.05586777999997139, -0.02678496390581131, 0.02559816464781761, -0.08942128717899323, -0.032457832247018814, -0.11671076714992523, -0.17990316450595856, 0.014746577478945255, -0.1136595606803894, -0.005699650384485722, 0.04054441675543785, -0.06118413805961609, 0.051876433193683624, -0.007335870061069727, -0.020580124109983444, 0.09826663136482239, -0.01556958258152008, -0.051514290273189545, -0.1318453848361969, -0.012509693391621113, 0.03523213043808937, -0.0018106820061802864, -0.022411175072193146, 0.07500877231359482, 0.10967732965946198, -0.06512223929166794, -0.08099059760570526, -0.1321047991514206], [-0.04136721417307854, -0.06591249257326126, -0.05071815475821495, 0.02233809418976307, -0.10508732497692108, 0.00828765518963337, 0.050660669803619385, 0.020336652174592018, -0.02166658453643322, 0.010550362057983875, 0.008546381257474422, 0.0437220074236393, 0.10197994112968445, 0.0051556723192334175, 0.045749738812446594, -0.0010016461601480842, -0.06999265402555466, -0.006649011746048927, 0.027749456465244293, -0.022561078891158104, -0.024686619639396667, -0.034595005214214325, -0.020339246839284897, -0.0525243878364563, -0.028766481205821037, 0.030760088935494423, 0.04608956351876259, -0.05619559809565544, 0.0844670981168747, -0.014757530763745308, -0.05806025117635727, -0.01234989333897829, -0.01996784284710884, -0.05097801983356476, -0.05177084356546402, -0.05284138396382332, 0.00040459082811139524, 0.03381851315498352, -0.022034378722310066, 0.058404773473739624, -0.03561379387974739, 0.027471749112010002, 0.12418898940086365, -0.048627786338329315, 0.08997978270053864, 0.029623715206980705, -0.0465615838766098, 0.010982324369251728, -0.03829289972782135, -0.04214118421077728, 0.07166477292776108, -0.08530127257108688, -0.02173846960067749, 0.005327729508280754, 0.10473329573869705, 0.03307798132300377, 0.030312443152070045, -0.011677982285618782, 0.019683435559272766, -0.05380132049322128, -0.05558561533689499, 0.05790231004357338, 0.04663953557610512, 0.10486455261707306], [0.0035374085418879986, -0.16709986329078674, -0.07577890902757645, 0.021696560084819794, -0.04380270466208458, -0.09704568237066269, -0.2135729044675827, -0.11510182917118073, 0.12127846479415894, -0.1921636164188385, 0.04631277546286583, -0.04070046544075012, 0.03669930621981621, 0.012046735733747482, -0.11847217381000519, -0.006170501932501793, -0.11227761209011078, -0.19050613045692444, -0.15440598130226135, 0.09332345426082611, 0.040298305451869965, 0.040396396070718765, -0.08686695992946625, 0.09231153130531311, -0.10217129439115524, 0.05399448797106743, 0.06287083029747009, 0.06314069032669067, 0.0015444341115653515, -0.11059606820344925, 0.0967227891087532, -0.09506601095199585, 0.11595739424228668, -0.031201351433992386, 0.013847706839442253, -0.056497301906347275, 0.03361449018120766, 0.2041020542383194, 0.008134577423334122, -0.026004139333963394, 0.013885323889553547, -0.04022927209734917, -0.010249762795865536, 0.021876981481909752, 0.028181208297610283, 0.13574247062206268, 0.16919204592704773, -0.2100793570280075, 0.12240051478147507, -0.08690215647220612, 0.11688975244760513, -0.12281437963247299, -0.10481813549995422, -0.15067929029464722, -0.013307124376296997, -0.11513260006904602, -0.06968674063682556, -0.0030013832729309797, -0.09335941821336746, 0.056027963757514954, 0.1544990837574005, -0.15850336849689484, -0.1384660005569458, -0.03369233384728432], [-0.02513514831662178, 0.025250455364584923, 0.05347716435790062, -0.10371731966733932, -0.02065218612551689, 0.0238657146692276, -0.1020703837275505, -0.0031249169260263443, -0.03015422262251377, -0.049255695194005966, -0.04745502769947052, -0.014568405225872993, -0.05368947610259056, -0.0990055501461029, -0.09184437990188599, -0.01982983946800232, -0.004791143350303173, -0.03001566417515278, -0.09322743862867355, 0.057090017944574356, 0.017129989340901375, 0.023411042988300323, 0.006046650465577841, 0.07010968774557114, 0.008642956614494324, -0.015118306502699852, -0.02212602086365223, 0.053801391273736954, -0.02834288403391838, -0.008994239382445812, 0.08857293426990509, -0.0833057388663292, 0.0006581397028639913, -0.02879258431494236, 0.04117356240749359, 0.09629098325967789, 0.2209182232618332, -0.05878852680325508, 0.05313572660088539, 0.03262466937303543, 0.08256994187831879, 0.12578484416007996, -0.016561690717935562, 0.01519823633134365, 0.036181993782520294, -0.03551805764436722, 0.14421038329601288, -0.09099304676055908, 0.07246674597263336, 0.09210079163312912, 0.05833843722939491, -0.05131005495786667, -0.07530463486909866, -0.04451644793152809, -0.10659191757440567, 0.03054134175181389, -0.057634156197309494, -0.06821642071008682, -0.04672360420227051, 0.017733057960867882, 0.10698580741882324, -0.13518790900707245, -0.15394070744514465, -0.10572358220815659], [-0.08538327366113663, 0.05116874352097511, -0.07438341528177261, -0.05311967805027962, -0.0904417484998703, 0.004658733028918505, -0.11849751323461533, -0.00699181342497468, -0.02205468900501728, -0.005329684354364872, -0.04288230836391449, -0.013654539361596107, 0.12792669236660004, -0.020753586664795876, -0.016786430031061172, -0.06024133786559105, 0.0357229970395565, -0.03682948276400566, -0.02288779616355896, -0.029198434203863144, 0.07000724226236343, 0.06226416677236557, 0.11590363830327988, -0.02498704195022583, -0.03813910484313965, 0.09015723317861557, 0.039855264127254486, -0.0007933761808089912, 0.10246428102254868, -0.012214704416692257, -0.0316760316491127, -0.032088324427604675, 0.07096685469150543, -0.1210213378071785, -0.05477537587285042, 0.15355715155601501, -0.10020563006401062, 0.029681986197829247, 0.07865148782730103, 0.15653735399246216, 0.0864967405796051, 0.17736098170280457, 0.19069600105285645, 0.059030335396528244, 0.027538586407899857, -0.009721033275127411, 0.14619281888008118, -0.1527412384748459, 0.031794264912605286, 0.04129180684685707, -0.03729677200317383, 0.07010610401630402, -0.019148463383316994, -0.012037098407745361, 0.05283880606293678, 0.007588968146592379, -0.11628731340169907, 0.03331723064184189, -0.017745979130268097, -0.04761311411857605, 0.08453197032213211, -0.013414165005087852, -0.06041394919157028, 0.1360780894756317], [-0.007499756757169962, 0.033626656979322433, 0.04684622213244438, 0.0105622299015522, 0.051085930317640305, 0.011611122637987137, -0.01854567788541317, 0.0622643381357193, -0.02676209807395935, -0.020320747047662735, 0.011081119067966938, 0.04661744832992554, -0.04125857725739479, -0.057718656957149506, -0.04401460662484169, -0.019827337935566902, 0.08127164840698242, 0.009860503487288952, 0.06551963090896606, -0.05243387073278427, -0.010814177803695202, -0.014889677055180073, 0.10000049322843552, 0.045688778162002563, 0.06666726619005203, 0.015741633251309395, -0.07123544067144394, -0.05748731642961502, -0.03647889941930771, 0.06921204179525375, 0.04359687492251396, 0.035573989152908325, -0.02261418290436268, -0.004763126838952303, -0.014988659881055355, 0.11479651182889938, -0.03290423005819321, -0.06769774854183197, 0.020184872671961784, 0.005027649458497763, 0.05823424085974693, 0.002463653916493058, -0.054524220526218414, -0.007233246695250273, -0.0794316753745079, -0.013089897111058235, -0.012579963542521, -0.022079668939113617, -0.030833154916763306, 0.030185891315340996, -0.08821071684360504, 0.017375947907567024, 0.10332164168357849, 0.040163666009902954, -0.04316391795873642, -0.0015238015912473202, 0.05718829855322838, -0.0606798455119133, 0.028264449909329414, 0.009244576096534729, -0.04398927465081215, 0.03052663989365101, 0.009532967582345009, 0.04133600369095802], [0.0731935054063797, 0.14744004607200623, 0.2186577320098877, -0.05673028528690338, 0.15919969975948334, 0.11478295177221298, -0.09565495699644089, 0.15589842200279236, 0.0498245470225811, 0.09993811696767807, -0.002294886391609907, 0.043321069329977036, -0.09491738677024841, -0.3207229673862457, -0.017586901783943176, 0.14451564848423004, 0.3147384822368622, 0.08279433846473694, -0.032638922333717346, 0.017700430005788803, 0.025048473849892616, 0.06953072547912598, 0.35054826736450195, 0.022195564582943916, 0.12641337513923645, 0.05918719246983528, -0.24087835848331451, 0.06761138886213303, -0.2141234576702118, 0.27397456765174866, 0.004936348646879196, 0.22533325850963593, -0.05152227729558945, 0.1102747693657875, 0.11264509707689285, 0.35069918632507324, -0.09765172749757767, -0.020159343257546425, -0.0065175388008356094, -0.14584563672542572, 0.40320059657096863, -0.17985332012176514, -0.1847849190235138, 0.010604229755699635, -0.2681157886981964, -0.08156564086675644, 0.04426932334899902, 0.022598285228013992, 0.011468346230685711, 0.2989291250705719, -0.24280187487602234, 0.2141425907611847, 0.18188513815402985, -0.05694236233830452, -0.012182135134935379, 0.06165801361203194, 0.08742685616016388, -0.28854092955589294, 0.08075594156980515, 0.016320057213306427, 0.027723001316189766, 0.04469439759850502, 0.0007497395272366703, -0.11488274484872818], [-0.011829284951090813, -0.12098190933465958, -0.060297008603811264, 0.04445056989789009, -0.053171467036008835, -0.004126549232751131, 0.08839278668165207, -0.0418538972735405, 0.05146913230419159, -0.10490581393241882, 0.0075636934489011765, 0.06027870625257492, 0.04098398983478546, 0.030830878764390945, -0.00704979570582509, -0.04338063672184944, -0.18015947937965393, -0.034365106374025345, 0.024540293961763382, 0.047884877771139145, -0.07065818458795547, -0.11367913335561752, -0.17837883532047272, -0.025097552686929703, -0.03193172439932823, 0.01836436428129673, 0.0640568658709526, -0.03813862428069115, 0.08456769585609436, -0.16953620314598083, -0.05638149008154869, -0.027017798274755478, -0.004615339916199446, -0.020929327234625816, -0.07812080532312393, -0.19018131494522095, 0.11726859211921692, 0.04220939800143242, -0.036193009465932846, 0.050741422921419144, -0.1160556823015213, -0.08477387577295303, 0.12260038405656815, -0.006679799407720566, 0.12059878557920456, 0.04493940249085426, 0.016305455937981606, -0.05997275933623314, 0.002555829705670476, -0.10140959173440933, 0.10048621147871017, -0.08364267647266388, -0.08676532655954361, -0.021980764344334602, 0.030687695369124413, -0.09568794816732407, -0.03828921914100647, 0.008962156251072884, -0.015919137746095657, 0.02120428904891014, 0.051038969308137894, -0.042680833488702774, 0.024258960038423538, 0.04849924519658089], [-0.007355802226811647, 0.017944885417819023, -0.06509749591350555, -0.03433495759963989, -0.10908456891775131, -0.05069916695356369, 0.05705677717924118, -0.036253634840250015, 0.07272601127624512, 0.009810083545744419, -0.0010896222665905952, -0.027362490072846413, 0.0712924599647522, 0.13559935986995697, 0.020832156762480736, -0.07273154705762863, -0.026336006820201874, -0.007748446427285671, -0.005001117009669542, 0.046813253313302994, 0.025557102635502815, -0.07570278644561768, -0.12154251337051392, 0.05614108219742775, -0.0644625797867775, -0.05177608132362366, 0.0936926081776619, 0.03155026212334633, 0.11321233212947845, -0.12392766773700714, 0.05750254914164543, -0.09649226814508438, 0.027566803619265556, -0.02569330483675003, -0.062289830297231674, -0.05424283444881439, 0.040182121098041534, 0.06375409662723541, 0.01773468777537346, 0.04597289115190506, -0.13053670525550842, 0.0022104689851403236, 0.05170807987451553, -0.06496410071849823, 0.06266525387763977, 0.03207860514521599, 0.008476653136312962, -0.05202484875917435, 0.09383057057857513, -0.02915852889418602, 0.05839909240603447, -0.08571542799472809, -0.027139481157064438, 0.03993381932377815, -0.04425389692187309, -0.07422138750553131, -0.07565384358167648, 0.061909373849630356, -0.021388864144682884, 0.020702769979834557, 0.08958528190851212, -0.052085548639297485, -0.01970343478024006, -0.029649045318365097], [-0.00039172417018562555, 0.16348910331726074, 0.11815758049488068, -0.03275409713387489, 0.1320716291666031, 0.04408983513712883, 0.06953128427267075, 0.14649897813796997, -0.07872088253498077, 0.15896569192409515, -0.08030441403388977, -0.05533425509929657, -0.07082119584083557, -0.07142290472984314, 0.008351748809218407, 0.06667689979076385, 0.2217114418745041, 0.14060698449611664, 0.09048162400722504, -0.05659046769142151, -0.029695535078644753, -0.06634905189275742, 0.08901960402727127, -0.10651477426290512, 0.11442670971155167, -0.12147732824087143, -0.15091313421726227, -0.15642422437667847, -0.03326926380395889, 0.10149496048688889, -0.08002244681119919, 0.07380800694227219, -0.14346089959144592, 0.017495013773441315, -0.03613083064556122, 0.1053556427359581, -0.018732193857431412, -0.13956601917743683, -0.050569914281368256, -0.04484851285815239, 0.16394783556461334, -0.02007785253226757, -0.07633604854345322, 0.04303951561450958, -0.09130819141864777, -0.09660960733890533, -0.11008890718221664, 0.07688174396753311, -0.054218363016843796, 0.11598099023103714, -0.19851721823215485, 0.15999802947044373, 0.17438048124313354, 0.0706416442990303, 0.014512109570205212, 0.12225199490785599, 0.08550915867090225, -0.10256810486316681, 0.14035524427890778, -0.051777057349681854, -0.11980383098125458, 0.08502836525440216, 0.07978595793247223, -0.03283205255866051], [-0.03601009026169777, 0.005214153788983822, -0.019970301538705826, 0.002073111943900585, -0.1089911162853241, 0.006831776816397905, 0.023976735770702362, 0.018337272107601166, -0.021882271394133568, 0.0162969883531332, 0.012436993420124054, 0.027745256200432777, 0.13658516108989716, 0.005328292492777109, 0.021802693605422974, -0.00481417728587985, -0.015052077360451221, -0.025740833953022957, -0.005137232597917318, -0.015207061544060707, -0.023292183876037598, -0.05005127191543579, -0.06080767884850502, -0.020387228578329086, 0.004053186625242233, 0.045212291181087494, 0.06244288757443428, -0.028290854766964912, 0.0851728618144989, -0.0006198746268637478, -0.05089976638555527, -0.005845642648637295, -0.014429393224418163, -0.04186312481760979, -0.0481753945350647, -0.060793228447437286, 0.0686468705534935, 0.042461272329092026, 0.004102491773664951, 0.04888954013586044, 0.03350776433944702, -0.0060243867337703705, 0.10858701914548874, -0.05304674804210663, 0.0976736918091774, 0.017994556576013565, -0.05188972130417824, 0.0065778461284935474, -0.04722153767943382, -0.04235655814409256, 0.043458737432956696, -0.048306286334991455, -0.011675937101244926, -0.010809211991727352, 0.11608046293258667, 0.04512718692421913, 0.018713627010583878, -0.01949283853173256, 0.019488248974084854, -0.05197096988558769, -0.08057954907417297, 0.023479724302887917, 0.02780107408761978, 0.10945456475019455], [-0.06489808112382889, -0.019481638446450233, -0.07599865645170212, 0.052254561334848404, -0.11512024700641632, 0.006844779476523399, 0.0527343712747097, 0.02066241018474102, -0.042200878262519836, 0.014919083565473557, 0.02409309893846512, 0.04155587777495384, 0.18207864463329315, 0.011946428567171097, 0.02893960289657116, -0.03487096726894379, -0.10915366560220718, 0.021895870566368103, 0.015452915802598, -0.04500358924269676, -0.04592594504356384, -0.07618506252765656, -0.0784442275762558, -0.036002017557621, -0.045381635427474976, 0.04938257485628128, 0.0970635935664177, -0.049259211868047714, 0.11394019424915314, -0.0723949670791626, -0.02430739253759384, 0.015926318243145943, -0.028425296768546104, -0.061843596398830414, -0.12152255326509476, -0.05587796866893768, 0.010472523048520088, -0.039658527821302414, -0.017417466267943382, 0.0692804828286171, -0.0411420576274395, 0.031691085547208786, 0.18207061290740967, -0.0677679106593132, 0.11075922101736069, 0.049395523965358734, -0.017509939149022102, 0.024833152070641518, -0.054865557700395584, -0.046441227197647095, 0.07355368882417679, -0.07535198330879211, 0.05975860729813576, 0.028259502723813057, 0.1331017017364502, 0.009587070904672146, 0.03688247501850128, 0.010743963532149792, 0.008881727233529091, -0.05859695374965668, -0.07649572938680649, 0.04700179398059845, 0.07745936512947083, 0.10374166816473007], [0.0017565414309501648, 0.02012879028916359, 0.0263166893273592, 0.017420927062630653, 0.02320631593465805, 0.02204684540629387, -0.0009796071099117398, 0.021941417828202248, -0.006419253535568714, 0.0053305234760046005, 0.024539846926927567, 0.007591586094349623, -0.04331115260720253, -0.021327868103981018, -0.023311085999011993, 0.004001817665994167, 0.06363024562597275, 0.011814023368060589, -0.004546558950096369, -0.024397127330303192, -0.024169214069843292, -0.011449080891907215, 0.07527638971805573, 0.05507355183362961, 0.03672972321510315, -0.008188133127987385, -0.038001079112291336, 0.00922057218849659, -0.015635041519999504, 0.06490480154752731, -0.020194701850414276, 0.05604882165789604, -0.03726905584335327, 0.002163199707865715, -0.02202778123319149, 0.07823684811592102, 0.006024579517543316, -0.02710316888988018, 0.002726220292970538, 0.013762027025222778, 0.07963969558477402, -0.00018881521828006953, -0.034469421952962875, -0.005779349710792303, -0.03492243215441704, -0.018738720566034317, 0.014286864548921585, 0.016858752816915512, -0.034487590193748474, 0.04989352077245712, -0.06489364802837372, 0.06613339483737946, 0.08747636526823044, 0.015498197637498379, -0.005901962053030729, -0.010128393769264221, 0.027439890429377556, -0.04674364626407623, 0.01944112405180931, -0.03190213441848755, -0.04080234840512276, 0.02097589708864689, -0.0276243407279253, 0.027769744396209717], [-0.002414307091385126, 0.009160402230918407, -0.012191138230264187, -0.02869884856045246, -0.005986982025206089, -0.0002173893735744059, 0.013159059919416904, -0.03637643903493881, 0.021278003230690956, -0.025889752432703972, -0.03926046937704086, -0.022560028359293938, -0.030490469187498093, 0.08542431145906448, -0.05970405787229538, -0.051100440323352814, -0.07896320521831512, 0.042726121842861176, -0.08435539156198502, 0.04908382520079613, 0.0361630842089653, 0.06547520309686661, -0.03305850178003311, 0.05261202156543732, 0.016112137585878372, 0.012979039922356606, 0.060145556926727295, -0.02350153587758541, 0.009493013843894005, -0.04096553102135658, 0.030541999265551567, -0.07253672182559967, -0.03955262899398804, -0.006174047011882067, 0.03475457802414894, 0.010253644548356533, -0.06028052419424057, 0.04928593337535858, -0.01044243574142456, -0.006013752892613411, -0.10345996171236038, 0.023258710280060768, 0.04279952496290207, -0.03053627349436283, 0.08130224049091339, 0.06908750534057617, 0.023952500894665718, 0.05717905983328819, -0.0022348184138536453, -0.07727432996034622, 0.03970210999250412, -0.032301273196935654, -0.11144489794969559, -0.07577784359455109, 0.018661540001630783, -0.015255986712872982, 0.025212107226252556, 0.012105127796530724, -0.012984730303287506, -0.000823685375507921, 0.048711102455854416, -0.03817269951105118, 0.04490390792489052, 0.019501693546772003], [5.73981596971862e-05, -0.0012930679367855191, -0.023812655359506607, -0.0005988891934975982, -0.020941564813256264, 0.002305353293195367, 0.035554271191358566, 0.004928852431476116, -0.00026274274569004774, -0.04902741685509682, -0.0005637849099002779, -0.01418586540967226, 0.008205808699131012, 0.06364547461271286, 0.010846312157809734, -0.02360949106514454, -0.053636569529771805, -0.001532971509732306, -0.021424975246191025, -0.0024726022966206074, 0.011829597875475883, 0.0008811463485471904, -0.059458695352077484, 0.001450127805583179, 0.0009410222992300987, -0.03244256600737572, 0.007329430431127548, -0.008793169632554054, 0.013176650740206242, -0.07974494248628616, 0.03151528164744377, -0.06884557753801346, 0.004610901698470116, -0.0010758830467239022, 0.01718982495367527, -0.0002655255957506597, 0.017046688124537468, 0.012504239566624165, 0.0037837091367691755, 0.00023068880545906723, -0.070755235850811, 0.017186157405376434, 0.025670727714896202, 0.009794497862458229, 0.03874760493636131, 0.02379978820681572, 0.0015652939910069108, -0.010803654789924622, 0.03025723248720169, -0.06949200481176376, 0.04103655740618706, -0.0332106351852417, -0.10365933924913406, 0.013922065496444702, -0.005511325318366289, -0.046680647879838943, -0.013013589195907116, 0.017628207802772522, -0.011997983790934086, 0.02104712463915348, 0.022473124787211418, -0.019483104348182678, 0.0054244245402514935, 0.0043843574821949005], [-0.03575211390852928, -0.05172276869416237, -0.03905473276972771, 0.025177286937832832, -0.08840319514274597, 0.006093030795454979, 0.027833396568894386, 0.018563155084848404, -0.017828939482569695, 0.010819184593856335, 0.00011565233580768108, 0.02845926582813263, 0.11532432585954666, 0.03408394381403923, 0.0694742500782013, -0.006331129465252161, -0.04840216785669327, -0.01949673891067505, 0.021472929045557976, -0.018695399165153503, -0.043516550213098526, -0.04459305480122566, -0.06964316219091415, -0.056441739201545715, -0.018256420269608498, 0.012155582197010517, 0.05146672949194908, -0.027958091348409653, 0.07638286054134369, -0.06234045326709747, -0.04497150331735611, -0.013545705936849117, -0.018944723531603813, -0.045356206595897675, -0.04185875132679939, -0.06833892315626144, 0.016129715368151665, 0.015484560281038284, -0.04128464311361313, 0.04605567827820778, -0.002315973164513707, 0.028239041566848755, 0.10153748095035553, -0.03511051833629608, 0.07218523323535919, 0.0185251384973526, -0.06361536681652069, -0.0026373816654086113, -0.04805373772978783, -0.046923477202653885, 0.02481754496693611, -0.06586650013923645, 0.014985917136073112, -0.0025606658309698105, 0.08411094546318054, 0.0285352673381567, 0.03863579034805298, 0.028227148577570915, 0.017149535939097404, -0.050298742949962616, -0.06877559423446655, 0.03340359032154083, 0.0382523313164711, 0.09253615885972977], [0.03143021836876869, -0.04708275571465492, 0.00558785255998373, 0.014836018905043602, 0.007518093567341566, 0.009556579403579235, -0.11040874570608139, -0.04343558847904205, 0.04896241053938866, -0.046645138412714005, 0.04310304671525955, 0.025974610820412636, -0.001083302078768611, 0.015927663072943687, -0.043463680893182755, 0.03349867835640907, 0.00259089726023376, -0.03933939337730408, -0.0103167574852705, 0.05061287060379982, -0.009554682299494743, -0.020929226651787758, -0.03149401769042015, 0.04807020723819733, -0.04368278756737709, 0.11385255306959152, -0.0034370776265859604, 0.053265392780303955, -0.03877978399395943, -0.00795174390077591, 0.053887300193309784, -0.013420216739177704, 0.018336080014705658, 0.029114393517374992, 0.028253568336367607, -0.06844101846218109, 0.04970874637365341, 0.016124097630381584, -0.0071623800322413445, -0.03639519214630127, 0.0005219440208747983, 0.00486908620223403, 0.04024680703878403, -0.031415753066539764, -0.004046666901558638, 0.051002200692892075, 0.019391752779483795, 0.0077504045329988, 0.00425872253254056, -0.026350539177656174, 0.013910019770264626, -0.004839408211410046, 0.0023795529268682003, -0.07476109266281128, 0.02832747809588909, -0.01659504882991314, -0.02503688633441925, 0.010397094301879406, 0.012039202265441418, 0.015652544796466827, 0.0319187305867672, -0.009654575027525425, -0.00390315568074584, -0.031790733337402344], [-0.003845137543976307, -0.03250688686966896, -0.05804446339607239, -0.005654311738908291, -0.055288542062044144, -0.010167351923882961, -0.012731766328215599, -0.010442733764648438, 0.02385539375245571, 0.03414110839366913, -0.05382312834262848, 0.009467163123190403, 0.0671268105506897, 0.051079414784908295, -0.0014939119573682547, -0.006971175782382488, -0.01913112960755825, 0.02412831224501133, -0.058400820940732956, -0.009638717398047447, -0.02438957430422306, -0.021974824368953705, -0.028698157519102097, 0.030342193320393562, -0.052218757569789886, -0.018303293734788895, 0.07185705006122589, -0.0294757429510355, 0.03845767676830292, -0.06534998118877411, 0.00696885259822011, -0.051124606281518936, -0.017472608014941216, -0.018271388486027718, -0.010069302283227444, 0.0011290496913716197, -0.16146981716156006, 0.02102728933095932, -0.015656152740120888, 0.025149153545498848, -0.06923090666532516, 0.012710756622254848, 0.037257153540849686, -0.04285135865211487, 0.09203999489545822, -0.007469250354915857, -0.011256290599703789, -0.0321497805416584, 0.02064266987144947, -0.017712879925966263, -0.011111247353255749, 0.0020938245579600334, -0.09270069748163223, -0.010013657622039318, 0.04488701373338699, -0.01394744124263525, 0.034577906131744385, 0.07101697474718094, -0.0012518848525360227, -0.02710561268031597, 0.02890782617032528, 0.0372028686106205, 0.006868524942547083, 0.012529171071946621], [0.06346963346004486, 0.08951657265424728, 0.05053989961743355, -0.009545678272843361, 0.09766435623168945, -0.007922486402094364, 0.010402397252619267, -0.016028864309191704, 0.02465370111167431, -0.007894568145275116, -0.028676873072981834, -0.025577489286661148, -0.19158992171287537, 0.04694805666804314, -0.0200029369443655, 0.04772445932030678, 0.0828586220741272, -0.001532175694592297, -0.03786702826619148, 0.023168276995420456, -0.007427254691720009, 0.03200523182749748, -0.01741597056388855, 0.07761799544095993, 0.03567076846957207, -0.06988824158906937, -0.03876269608736038, 0.04274175688624382, -0.12141966074705124, 0.06779206544160843, 0.047567736357450485, -0.03315196931362152, 0.018823696300387383, 0.07676665484905243, 0.10246831178665161, 0.008721941150724888, -0.061380188912153244, -0.02943895384669304, 0.04648981988430023, -0.05278690531849861, 0.015114535577595234, -0.032583851367235184, -0.1525166779756546, 0.01905759982764721, -0.059563737362623215, -0.049643583595752716, 0.008392834104597569, 0.005046886391937733, 0.05731774494051933, 0.006799023132771254, -0.04732447862625122, 0.08788131177425385, -0.060383398085832596, -0.009782779961824417, -0.12969185411930084, -0.027261611074209213, -0.01277521438896656, 0.0360310897231102, -0.019861135631799698, 0.0692405104637146, 0.10275972634553909, -0.02402612753212452, -0.022874783724546432, -0.1383703351020813], [0.02373489737510681, 0.05298038199543953, 0.043733399361371994, -0.017014598473906517, 0.07307103276252747, 0.026821529492735863, 0.03419031575322151, 0.0023574535734951496, -0.04610210657119751, 0.09148404002189636, -0.003686029464006424, 0.0018203136278316379, -0.04051043093204498, -0.0975843220949173, -0.040258459746837616, 0.04922311753034592, 0.07714421302080154, 0.00977262482047081, 0.04035964980721474, -0.009211389347910881, 0.0033676964230835438, -0.030777590349316597, 0.09533888846635818, -0.03220571205019951, 0.0879785493016243, -0.06515668332576752, -0.03664234280586243, 0.01277218572795391, -0.08443567156791687, 0.14834733307361603, -0.08178701251745224, 0.07746942341327667, -0.08212882280349731, 0.007261904422193766, 0.02678673528134823, 0.07836098223924637, 0.03130927309393883, -0.08202185481786728, 0.04204929247498512, -0.015397300943732262, 0.16692288219928741, -0.04435262829065323, -0.09949292242527008, -0.01672186329960823, -0.02371855452656746, -0.07031392306089401, 0.0011120926355943084, -0.023496028035879135, -0.0174711961299181, 0.027741942554712296, -0.03576875850558281, 0.04000953584909439, 0.15288618206977844, -0.005858609918504953, -0.06734949350357056, 0.030382897704839706, 0.06996291875839233, -0.08154074847698212, 0.0030244230292737484, 0.021029502153396606, 0.057376548647880554, 0.06440120935440063, 0.06489554047584534, -0.00766079081222415], [0.0027226568199694157, -0.030017662793397903, -0.005523982457816601, -0.006705331616103649, 0.01684778742492199, -0.0028626301791518927, 0.00481526181101799, -0.003441212233155966, 0.0025753341615200043, -0.0058736614882946014, 0.0004250296042300761, 0.02703174389898777, -0.020213533192873, 0.02640026994049549, 0.009736483916640282, 0.003311464097350836, -0.0003068573132622987, -0.0030936894472688437, -0.005265063606202602, 0.0042528314515948296, 0.00032581257983110845, -0.024119583889842033, 0.007070915773510933, 0.007092208601534367, 0.001199287478812039, -0.014300423674285412, -0.0029517931398004293, 0.005166581831872463, -0.01731407642364502, -0.025486240163445473, 0.01330326497554779, 0.0034607048146426678, 0.004302408080548048, 0.006668840069323778, 0.005239169578999281, -0.0010902239009737968, 0.0028940995689481497, -0.01015257928520441, 0.004786345642060041, -0.0058663287200033665, -0.002844681730493903, -0.014455359429121017, -0.03324403241276741, 0.000734117638785392, -0.007567054592072964, -0.003091916674748063, -0.03394920751452446, 0.01685420423746109, -0.000287690112600103, -0.009611758403480053, 0.024995066225528717, 0.0008680355967953801, 0.00716499425470829, 0.0014835104811936617, -0.020184680819511414, -0.0020589486230164766, 0.006231887266039848, 0.008255529217422009, -0.002983647398650646, 0.004343555774539709, -0.003345867618918419, -0.015101199969649315, 0.00586635060608387, -0.010436330921947956], [-0.06620622426271439, -0.008690976537764072, 0.09274355322122574, -0.029863497242331505, 0.04257357493042946, 0.09253907948732376, 0.18969227373600006, 0.13529826700687408, -0.15591956675052643, 0.1701994091272354, -0.04829292744398117, 0.024551523849368095, 0.09481917321681976, -0.038744933903217316, 0.15425074100494385, -0.0011300023179501295, 0.006605078931897879, 0.18192297220230103, 0.17911361157894135, -0.09716475009918213, -0.07192539423704147, -0.08252031356096268, 0.043675974011421204, -0.10615598410367966, 0.06405992060899734, -0.04977543652057648, -0.03702114149928093, -0.2125043123960495, -0.009704453870654106, -0.03883550316095352, -0.11730740964412689, 0.07789390534162521, -0.10540548712015152, -0.03499343991279602, -0.08799321949481964, -0.02280345745384693, -0.01610184833407402, -0.14872042834758759, -0.062322139739990234, 0.08946891129016876, 0.016629979014396667, 0.08235666155815125, 0.009582546539604664, -0.022762058302760124, 0.05733714625239372, -0.12061331421136856, -0.17695222795009613, 0.1854529231786728, -0.06457935273647308, -0.0449516624212265, -0.032109152525663376, 0.029402771964669228, 0.10668505728244781, 0.1420162171125412, 0.08851008117198944, 0.1296239197254181, 0.051419030874967575, -0.01913974992930889, 0.1101204976439476, -0.11641363799571991, -0.1924915760755539, 0.12032681703567505, 0.1274588704109192, 0.09386049956083298], [-0.08427015691995621, -0.0017271211836487055, -0.09274309128522873, -0.1152397021651268, -0.11262425780296326, -0.053946640342473984, -0.24173754453659058, -0.08609282970428467, 0.04951360449194908, -0.15975315868854523, 0.038086988031864166, -0.039920005947351456, 0.15458089113235474, -0.02758391946554184, -0.1925036758184433, -0.14733782410621643, 0.0909426137804985, -0.1046256422996521, -0.16944773495197296, 0.012561406008899212, 0.06623721867799759, 0.11885174363851547, 0.06464601308107376, 0.09736116230487823, -0.0781831219792366, 0.13148969411849976, -0.004089202266186476, 0.11438705772161484, 0.2372993677854538, 0.08600602298974991, 0.06065118685364723, -0.06033174321055412, 0.18613946437835693, -0.11158464103937149, -0.16861441731452942, 0.1276921182870865, -0.05439062789082527, 0.16379696130752563, 0.07402821630239487, 0.12184984982013702, 0.07668598741292953, 0.25830432772636414, 0.07955513894557953, 0.12188532948493958, 0.06936529278755188, 0.0006044019828550518, 0.22224053740501404, -0.2945266664028168, 0.07164796441793442, 0.054204534739255905, -0.1377028524875641, 0.04861752316355705, -0.06566829979419708, -0.17651619017124176, -0.054530370980501175, -0.10863959789276123, -0.19567835330963135, 0.040410030633211136, -0.10897231847047806, 0.011080807074904442, 0.13417190313339233, -0.14168229699134827, -0.18731887638568878, 0.08761093020439148], [-0.029068224132061005, -0.014617707580327988, -0.014421098865568638, 0.027867356315255165, -0.0800781175494194, 0.005372467916458845, 0.007632066495716572, 0.015633268281817436, -0.011494840495288372, 0.019440634176135063, 0.00584252318367362, 0.01922675408422947, 0.11149171739816666, 0.03608570247888565, 0.0472501702606678, -0.010128656402230263, -0.06558744609355927, -0.03911445662379265, 0.042256180197000504, -0.008210448548197746, -0.037928011268377304, -0.04375612735748291, -0.010472445748746395, -0.06366652250289917, -0.0246136337518692, 0.0015160160837695003, 0.06469645351171494, -0.04306798055768013, 0.06361192464828491, -0.039791662245988846, -0.0327744260430336, -0.019400756806135178, -0.015110664069652557, -0.036847859621047974, -0.021032951772212982, -0.03224297985434532, -0.009146572090685368, 0.04042534902691841, -0.014916256070137024, 0.03425345569849014, -0.03935571387410164, 0.02160411700606346, 0.13679929077625275, -0.045109640806913376, 0.09190333634614944, 0.012980449944734573, -0.06919679045677185, 0.017186760902404785, -0.05048330873250961, -0.028533458709716797, 0.020991498604416847, -0.057229723781347275, -0.02277660183608532, -0.018455184996128082, 0.10649734735488892, 0.03258773311972618, 0.004958330653607845, 0.00045757461339235306, 0.009667273610830307, -0.048897501081228256, -0.0489521324634552, 0.07462083548307419, -0.0021527251228690147, 0.08692008256912231], [-0.0010807274375110865, 0.03202806040644646, -0.009672182612121105, -0.00015905144391581416, -0.009962444193661213, 0.0031210496090352535, -0.023064885288476944, 0.006324381101876497, -0.0037010516971349716, -0.005801051389425993, 4.945412729284726e-05, 0.015378492884337902, 0.030695157125592232, 0.007569498382508755, -0.005491118412464857, -0.0012534199049696326, 0.033882323652505875, 0.003797002602368593, -0.0285754706710577, -0.004164061509072781, 0.005933450069278479, -0.014670888893306255, 0.017853230237960815, -0.018846428021788597, -9.8514930868987e-05, 0.008819850161671638, -0.009829574264585972, -0.0031874363776296377, 0.015078175812959671, -0.016071151942014694, -0.0001859125477494672, -0.00951909739524126, -0.00012287563004065305, -0.0033179239835590124, -0.001374166226014495, -0.010835042223334312, -0.0064883725717663765, 0.008086659014225006, 0.021726388484239578, 0.001924789510667324, -0.0011565685272216797, 0.03345572575926781, 0.023156747221946716, -0.009123933501541615, -0.013235388323664665, -0.010348908603191376, -0.00874105654656887, -0.018716784194111824, -0.013008113950490952, -0.010656973347067833, -0.01110619492828846, 0.01212303526699543, -0.008490312844514847, 0.0012077025603502989, 0.03439219295978546, 0.0064756618812680244, -0.024404503405094147, 0.0003843311860691756, 0.006373561918735504, -0.006456663832068443, -0.02136048674583435, -0.007531953509896994, -0.005282913334667683, 0.023716425523161888], [-0.0046358369290828705, -0.02679821103811264, 0.08471663296222687, 0.010315136052668095, 0.018737010657787323, 0.043101172894239426, -0.03951222449541092, 0.0421200767159462, 0.020507294684648514, -0.02184291183948517, 0.021299714222550392, 0.03267975151538849, 0.03470109775662422, 0.013271622359752655, 0.03937142714858055, 0.02616383321583271, -0.019625822082161903, 0.03867665305733681, 0.07784557342529297, -0.045219648629426956, -0.056890521198511124, 0.008468532003462315, 0.0367618203163147, -0.003823020262643695, 0.01897015981376171, 0.05204256251454353, 0.02389129064977169, 0.015883291140198708, -0.028034236282110214, 0.1083068996667862, 0.009731835685670376, 0.054828062653541565, -0.10005751252174377, -0.0051199146546423435, -0.09198667109012604, 0.1165492907166481, 0.07522838562726974, 0.040813326835632324, -0.011113449931144714, -0.0005499635590240359, 0.13776110112667084, -0.058713074773550034, -0.04815783351659775, -0.02786664105951786, -0.03862294182181358, -0.018845150247216225, 0.0022981229703873396, -0.05261526256799698, -0.04024944826960564, -0.020346831530332565, -0.12447018921375275, 0.05087670683860779, -0.0390414297580719, 0.03584903106093407, -0.03953311964869499, -0.01639736071228981, 0.024454355239868164, -0.11919129639863968, 0.07342714071273804, 0.017063695937395096, -0.05535515025258064, 0.048508357256650925, 0.05972969904541969, 0.03068900667130947], [-0.12208402901887894, -0.15024684369564056, 0.002763965167105198, -0.29200607538223267, 0.022334804758429527, -0.0791095495223999, -0.2757945656776428, -0.16246479749679565, 0.018121685832738876, -0.1529325395822525, -0.1370779573917389, -0.29507920145988464, -0.29408738017082214, 0.05109725147485733, -0.3880438804626465, -0.18151812255382538, -0.017177775502204895, -0.13228604197502136, -0.3380567729473114, 0.044394947588443756, 0.3547029197216034, 0.40561261773109436, 0.03919393941760063, 0.31536558270454407, -0.042453013360500336, -0.08248747140169144, 0.04907514899969101, 0.40958553552627563, 0.09176349639892578, -0.06713918596506119, 0.2433672547340393, -0.07362481206655502, 0.2555849254131317, -0.08350913971662521, -0.2273419350385666, 0.09966845065355301, -0.0716329887509346, 0.21086089313030243, 0.326046347618103, 0.12035810202360153, 0.03717219829559326, 0.24016261100769043, -0.06946856528520584, 0.22319836914539337, -0.038571424782276154, 0.05385739356279373, 0.39118534326553345, -0.22323405742645264, 0.23343008756637573, -0.004654301330447197, -0.0800570547580719, 0.02635316550731659, -0.06830568611621857, -0.11012478172779083, -0.33828258514404297, -0.20761603116989136, -0.3512361943721771, 0.027959709987044334, -0.16746819019317627, 0.19965693354606628, 0.3489941954612732, -0.3191503584384918, -0.30859124660491943, -0.025429926812648773], [-0.003364952513948083, -0.025016766041517258, 0.03691547363996506, -0.022556593641638756, -0.06980427354574203, -0.0013278702972456813, 0.016068607568740845, -0.015513607300817966, 0.017679255455732346, -0.05115920305252075, 0.009655113331973553, 0.012006448581814766, 0.06101314350962639, 0.0028270131442695856, 0.005633831024169922, -0.06912379711866379, -0.07486609369516373, -0.01227284874767065, -0.025118863210082054, 0.029977496713399887, 0.06272108852863312, 0.08113168925046921, -0.06180225685238838, -0.05222149193286896, -0.07545442879199982, 0.005927973426878452, -0.013850420713424683, -0.05745687335729599, -0.02275613695383072, -0.086116261780262, -0.02288495935499668, -0.06187639757990837, -0.025657691061496735, -0.008939155377447605, 0.01747448556125164, 0.02260187454521656, -0.028646348044276237, 0.0055557731539011, 0.0001381758920615539, -0.01836957037448883, -0.0725594237446785, 0.07062277942895889, 0.031977634876966476, -0.05953703448176384, 0.08582643419504166, 0.010974324308335781, -0.029659844934940338, -0.08401437848806381, -0.04624835401773453, -0.0932171419262886, 0.10210974514484406, 0.01298532448709011, -0.01773686334490776, -0.05086275190114975, 0.0063570961356163025, -0.08102672547101974, 0.010131515562534332, -0.012689187191426754, -0.019046131521463394, -0.030312614515423775, 0.040838733315467834, 0.027947794646024704, -0.0033621604088693857, 0.014576626941561699], [-0.00024750136071816087, 0.00445414986461401, -0.003960954956710339, 0.002305002184584737, 7.802245090715587e-05, 0.005717380437999964, -0.019098494201898575, 0.0032367252279073, 0.002504733856767416, -0.02219374291598797, 0.006166004575788975, -0.0006723632686771452, 0.0022130468860268593, -0.007948976010084152, 0.010744147934019566, 0.003322119126096368, 0.010515832342207432, -0.00044869614066556096, -0.0037891005631536245, 0.003541145473718643, -0.0012448412599042058, 0.001139358850196004, -0.0018268829444423318, 0.01119716465473175, 0.013738964684307575, 0.01428306009620428, -0.002361494116485119, 0.0035081396345049143, 0.0005691348924301565, 0.026130041107535362, -0.008608431555330753, 0.011072926223278046, -0.006734095048159361, -0.00043739829561673105, -0.013861630111932755, 0.026075206696987152, -0.008025677874684334, -0.005602883640676737, 0.0006754865171387792, 0.001000037882477045, -0.012598025612533092, -0.01062809955328703, -0.0001063793824869208, 0.0025355680845677853, -0.0025483903009444475, 0.00446984451264143, 0.01369023323059082, -0.017206935212016106, -0.012607158161699772, -0.014897055923938751, -0.004587006755173206, 0.001143378671258688, 0.008944504894316196, 0.015250707976520061, 0.0012835584348067641, -0.0007871953421272337, 0.0013028101529926062, 0.002393582835793495, 0.0015191929414868355, -0.0010434114374220371, -0.005070098675787449, 0.010005487129092216, -0.003669633064419031, 0.0020477427169680595], [-0.0015532122924923897, -0.04432568699121475, -0.010953327640891075, -0.005351561587303877, -0.01309153251349926, 0.0027720280922949314, -0.028110632672905922, 0.0015712978783994913, 0.024250080808997154, -0.03459235280752182, -0.006931309588253498, -0.013936606235802174, -0.009113777428865433, -0.02325497753918171, -0.026362480595707893, -0.007740367203950882, 0.012152737937867641, 0.03149028867483139, 0.021849144250154495, 0.011606462299823761, 0.0028625756967812777, 0.013029918074607849, -0.012146960943937302, 0.010253138840198517, 0.0037434559781104326, -0.026362387463450432, -0.019262542948126793, 0.018703605979681015, -0.0032601046841591597, -0.034650448709726334, -0.020274139940738678, 0.025941671803593636, 0.010873446241021156, -0.0005610772641375661, 0.0006393493385985494, 0.0008473051711916924, -0.005744690075516701, 0.014918441884219646, 0.0057041156105697155, 0.006916191428899765, 0.017928356304764748, -0.028112851083278656, 0.020526811480522156, 0.005377619061619043, 0.011447612196207047, 0.018418464809656143, 0.0034848975483328104, -0.009325442835688591, 0.024688169360160828, -0.03820269927382469, 0.04949406161904335, -0.04461544752120972, -0.04076387733221054, -0.03851144015789032, -0.008461141027510166, -0.03130592778325081, -0.055616941303014755, 0.01899428851902485, -0.009482220746576786, -0.0010746748885139823, 0.008977454155683517, -0.01849033683538437, -0.0007629557512700558, -0.01589057222008705], [0.07218354940414429, 0.07552844285964966, 0.08187524974346161, -0.010981077328324318, 0.17272178828716278, 0.002741433447226882, -0.07210706919431686, -0.016932444646954536, 0.0577889047563076, -0.06212746351957321, -0.002266564639285207, -0.018161969259381294, -0.19431008398532867, 0.05055995285511017, -0.08677267283201218, 0.05085030943155289, 0.07507117837667465, -0.0020941277034580708, 0.011905612424015999, 0.037413764744997025, 0.08537191897630692, 0.053742535412311554, 0.08934460580348969, 0.10241247713565826, 0.022662045434117317, -0.05244548246264458, -0.08743453025817871, 0.01308357436209917, -0.10664419084787369, 0.026561271399259567, 0.07147154211997986, -0.027054423466324806, 0.06195588409900665, 0.07270411401987076, 0.1518934816122055, 0.09674158692359924, -0.026587193831801414, 0.03404325246810913, -0.013276469893753529, -0.10168531537055969, 0.013547885231673717, -0.08779791742563248, -0.14890486001968384, 0.035142168402671814, -0.12363629788160324, -0.07152236998081207, 0.053193967789411545, 0.006916309241205454, 0.0701545774936676, 0.020665712654590607, -0.03684158995747566, 0.062260016798973083, -0.008069864474236965, -0.020874207839369774, -0.16059905290603638, -0.05829717218875885, 0.032983340322971344, 0.024577349424362183, -0.011797807179391384, 0.07327505201101303, 0.07419233024120331, -0.029412850737571716, -0.05813319981098175, -0.14696627855300903], [0.02431769296526909, 0.09129787236452103, 0.06734730303287506, -0.316616952419281, 0.14909736812114716, -0.11318749934434891, -0.6204955577850342, -0.18636704981327057, 0.15571850538253784, -0.2467055767774582, -0.2637740969657898, -0.4290422797203064, -0.4415140450000763, -0.16818776726722717, -0.6423982381820679, -0.09512115269899368, 0.20795971155166626, -0.04496314376592636, -0.4026601016521454, 0.1295929253101349, 0.38831016421318054, 0.5332457423210144, 0.24868406355381012, 0.5530790090560913, -0.01313826348632574, -0.5592042803764343, -0.05715043842792511, 0.6030816435813904, -0.21119408309459686, 0.1802241951227188, 0.39873889088630676, -0.008537829853594303, 0.36939284205436707, 0.11197574436664581, 0.3215169310569763, 0.24738512933254242, 0.4795806407928467, 0.1487337350845337, 0.3380019962787628, -0.1718399077653885, 0.11399251967668533, -0.08350783586502075, -0.2090880423784256, 0.28344595432281494, -0.13279719650745392, 0.011377500370144844, 0.677374005317688, -0.49990081787109375, 0.3535856604576111, 0.11460601538419724, -0.18516764044761658, 0.09533877670764923, 0.051934219896793365, -0.22475621104240417, -0.4509131610393524, -0.3329094648361206, -0.24744658172130585, -0.07008817046880722, -0.18677300214767456, 0.30125775933265686, 0.5371788740158081, -0.4620552062988281, -0.5843530297279358, -0.22197216749191284], [-0.005058565642684698, -0.004743964411318302, 0.011872367933392525, -0.024098193272948265, -0.12226743251085281, 0.014652258716523647, -0.08985733985900879, 0.02337213046848774, 0.022728241980075836, -0.01345969457179308, 0.015883736312389374, 0.04930876940488815, 0.10187121480703354, 0.004492000211030245, 0.008825231343507767, -0.028377311304211617, 0.03784175217151642, -0.03923047333955765, 0.02289726212620735, -0.01810704544186592, 0.023322444409132004, -0.0007384400232695043, 0.05847006291151047, 0.004321787040680647, 0.01806463859975338, -0.005313108209520578, -0.02368123270571232, 0.04262135550379753, 0.03730157017707825, -0.030835190787911415, 0.00956728681921959, -0.008531525731086731, -0.018660470843315125, -0.03139835596084595, -0.005884150508791208, 0.010925347916781902, -0.04250609874725342, 0.010039540007710457, 0.05179436504840851, 0.04788949713110924, 0.01073585543781519, 0.03533421829342842, 0.10373746603727341, 0.013133915141224861, 0.03303787484765053, 0.018277840688824654, 0.07994023710489273, -0.022370509803295135, 0.008256744593381882, 0.04195267707109451, -0.045029159635305405, 0.013322463259100914, 0.043140657246112823, -0.032085616141557693, 0.053967367857694626, -0.02555086649954319, -0.06573428958654404, 0.01681707054376602, 0.015859603881835938, -0.04270058125257492, 0.01962936297059059, 0.01164418924599886, -0.004034812096506357, 0.06709205359220505], [-0.040954262018203735, 0.01807672716677189, -0.07559363543987274, -0.0036612492986023426, -0.12892800569534302, -0.00228051352314651, 0.024764953181147575, 0.009202240966260433, -0.010781633667647839, 0.03924793750047684, 0.026629401370882988, 0.0869613066315651, 0.17821697890758514, 0.017939869314432144, 0.07868179678916931, -0.01841094344854355, -0.08169969916343689, 0.025223230943083763, 0.030185062438249588, 0.011866498738527298, -0.015249762684106827, -0.037775274366140366, -0.07856813818216324, -0.053652238100767136, -0.029575487598776817, 0.037663139402866364, 0.039593134075403214, -0.021491270512342453, 0.066266268491745, -0.04094482585787773, -0.051524825394153595, 0.004322287626564503, -0.009532134979963303, -0.06284444779157639, -0.09401866048574448, 0.020055625587701797, 0.03803030773997307, 0.05862605944275856, -0.05357171595096588, 0.058020953088998795, -0.008909894153475761, 0.034168791025877, 0.1843513697385788, -0.06619619578123093, 0.0937260240316391, 0.018206851556897163, 0.00455369520932436, -0.02721460536122322, -0.009425975382328033, -0.049700189381837845, -0.007655743509531021, -0.10809753090143204, 0.06823170930147171, -0.03367803618311882, 0.15512922406196594, 0.028107209131121635, 0.06378115713596344, 0.004651300609111786, 0.0008505791192874312, -0.06599858403205872, -0.07613993436098099, 0.018182359635829926, 0.030604684725403786, 0.1659485101699829], [-0.007282978855073452, -0.008273383602499962, -0.00874070543795824, 0.00898011401295662, -0.09510201960802078, 0.03342089056968689, 0.04196930304169655, 0.032024580985307693, -0.021764429286122322, -0.05074749514460564, -0.003986717667430639, 0.05957084149122238, 0.023300504311919212, -0.08531612157821655, -0.009291542693972588, -0.006038076709955931, -0.05404209718108177, -0.08289068937301636, -0.025684399530291557, -0.02107315883040428, 0.04227375611662865, 0.03271852061152458, -0.03668539598584175, -0.0697847530245781, 0.03940049186348915, 0.04402406886219978, -0.02268695831298828, 0.04046040028333664, 0.04245339334011078, 0.05025516450405121, -0.008243885822594166, 0.0018818601965904236, -0.05736824497580528, -0.009231493808329105, -0.061337634921073914, 0.02406889945268631, 0.02665296196937561, -0.00293926615267992, 0.04162069410085678, 0.013899060897529125, 0.06406784802675247, 0.06467776745557785, 0.0994509607553482, -0.05966319516301155, 0.01547536812722683, 0.024301359429955482, -0.031050529330968857, -0.017118899151682854, -0.019451139494776726, 0.07178738713264465, -0.0336872860789299, 0.001842214842326939, -0.009568538516759872, -0.026928147301077843, 0.06836196035146713, -0.054423458874225616, 0.018243810161948204, 0.0208299420773983, 0.026856832206249237, -0.001398467575199902, -0.02655600756406784, 0.013295396231114864, -0.011361565440893173, 0.010383223183453083], [-3.1571667932439595e-05, -0.0014916252112016082, 0.004083101637661457, -0.00035201048012822866, -0.0060416171327233315, 0.007729026488959789, -0.001968798926100135, -0.02270263247191906, 0.00021395296789705753, 0.04733513668179512, 0.020968196913599968, 0.025017011910676956, 0.0023526367731392384, -0.04447651654481888, -0.011723408475518227, 0.016861721873283386, 0.034381721168756485, 0.01775980181992054, 0.04027504473924637, 0.011778210289776325, -0.007145369425415993, 0.0026449125725775957, 0.059992846101522446, -0.0012244124663993716, -0.023519372567534447, -0.032242551445961, -0.0035545562859624624, 0.0005752025172114372, 0.01427109818905592, 0.04940877854824066, 0.002653989242389798, 0.02033526636660099, 0.01913146674633026, -0.0004357591096777469, 0.007284047082066536, 0.001017759321257472, -0.0025319030974060297, 0.027105985209345818, -0.0007670712075196207, -0.002018918050453067, 0.02668994665145874, -0.04694375395774841, 0.006532458588480949, 0.009644253179430962, 0.0021756442729383707, -0.03956776484847069, -0.04366060718894005, 0.049885183572769165, -0.02320527285337448, 0.059209927916526794, 0.019040970131754875, 0.0029463607352226973, -0.015913590788841248, -0.0421908013522625, 0.005903083365410566, 0.03340733423829079, 0.008005049079656601, -0.07396340370178223, -0.006461277138441801, -0.003993244841694832, 0.005382384639233351, 0.0006203489610925317, -0.03185919299721718, -0.005038112867623568], [0.04184259846806526, 0.11061341315507889, 0.03437317535281181, -0.03169817104935646, 0.04560234770178795, 0.04968281090259552, -0.029254009947180748, 0.05629521980881691, -0.03923070430755615, -0.013778993859887123, -0.06149640306830406, -0.03349677100777626, -0.04024139419198036, -0.07915250211954117, -0.029415134340524673, 0.04713694006204605, 0.107980877161026, 0.10904492437839508, 0.008935886435210705, 0.018620850518345833, -0.049495358020067215, -0.07593070715665817, 0.14487136900424957, -0.050835274159908295, 0.10210850834846497, -0.08008389919996262, -0.05830289423465729, 0.046654343605041504, -0.06277874112129211, 0.12850835919380188, 0.03978286683559418, 0.1310664713382721, -0.11858198791742325, 0.029480019584298134, -0.04766000062227249, 0.17904919385910034, -0.06424456089735031, -0.044250305742025375, -0.06661546975374222, -0.06499691307544708, 0.12273159623146057, 0.02257024683058262, -0.11161056160926819, 0.01776392199099064, -0.03631719946861267, -0.02859128639101982, -0.024889562278985977, 0.08897431939840317, -0.013586955145001411, 0.16299724578857422, -0.1096000075340271, 0.059657081961631775, 0.061521656811237335, 0.05834588780999184, 0.02806437946856022, -0.020467927679419518, 0.11894433200359344, -0.1453230381011963, 0.08486904948949814, 0.033364228904247284, -0.0035411410499364138, 0.02880661003291607, 0.05239659547805786, -0.03488181158900261], [-0.07718034088611603, -0.0910479947924614, -0.01734684780240059, 0.05401257798075676, -0.12944787740707397, -0.0013380973832681775, -0.032134391367435455, 0.0055471560917794704, -0.021601397544145584, -0.012625975534319878, 0.023620955646038055, 0.0044046202674508095, 0.2094278335571289, -0.029472123831510544, 0.04705306515097618, -0.0690310150384903, -0.10204041004180908, -0.024015946313738823, 0.033684805035591125, -0.01373482309281826, -0.07861213386058807, -0.02155364863574505, -0.04846525564789772, -0.04417889937758446, -0.03513920679688454, 0.05051272362470627, 0.09042590856552124, 0.005999773275107145, 0.060460034757852554, -0.017897048965096474, -0.0686778873205185, 0.01678636483848095, -0.0648249089717865, -0.07977788150310516, -0.11467386037111282, -0.07668188214302063, -0.011946100741624832, 0.02556711807847023, -0.0358382984995842, 0.051255401223897934, 0.012324562296271324, 0.011534832417964935, 0.1936284601688385, -0.07933927327394485, 0.05447704344987869, 0.012180641293525696, -0.030424825847148895, 0.0006079767481423914, -0.04810350388288498, 0.03417437896132469, 0.016910409554839134, -0.0902896448969841, 0.03355290740728378, 0.032422058284282684, 0.1676885336637497, 0.031491778790950775, -0.017416968941688538, 0.023636028170585632, 0.02763972617685795, -0.08236357569694519, -0.045372746884822845, 0.08445142954587936, -0.003189481096342206, 0.1457240730524063], [0.007025320082902908, 0.019732926040887833, 0.03054494969546795, -0.05206464231014252, 0.03917667642235756, -0.03212161362171173, -0.1501883864402771, -0.00947633571922779, 0.06279333680868149, -0.14288820326328278, -0.037055276334285736, -0.1371811181306839, -0.1413884460926056, 0.047404397279024124, -0.1906396895647049, 0.02688922919332981, -0.0020295525901019573, -0.008154427632689476, -0.06007370352745056, 0.08794437348842621, 0.07612745463848114, 0.14673064649105072, -0.0316312238574028, 0.17692893743515015, 0.013181107118725777, -0.051144685596227646, -0.060128092765808105, 0.18681186437606812, -0.05378599464893341, -0.032289762049913406, 0.12106107920408249, -0.08406361192464828, 0.1626451462507248, 0.025864074006676674, 0.07488677650690079, 0.08987900614738464, 0.13381057977676392, 0.06435995548963547, 0.05730164796113968, 0.009698889218270779, -0.013479500077664852, 0.12752465903759003, -0.03642914444208145, 0.05739801749587059, 0.03970520198345184, -0.029261790215969086, 0.1356217861175537, -0.20433686673641205, 0.14250966906547546, 0.0759596899151802, -0.0486271046102047, -0.032747045159339905, -0.02005605958402157, -0.012209474109113216, -0.10848470032215118, -0.09597912430763245, -0.1303190439939499, 0.09176620841026306, -0.08691506087779999, 0.06677814573049545, 0.13666215538978577, -0.10250846296548843, -0.1145024299621582, -0.08740498125553131], [-0.0696922168135643, 0.08427580446004868, 0.032597776502370834, -0.08938688039779663, -0.05101533606648445, 0.11164979636669159, 0.24148976802825928, 0.11909077316522598, -0.16410574316978455, 0.2094988077878952, -0.19009464979171753, -0.07099762558937073, 0.020450135692954063, -0.062235184013843536, 0.10367154330015182, 0.06128596514463425, 0.011175251565873623, 0.11574885249137878, 0.09291809052228928, -0.15555717051029205, 0.031564000993967056, -0.03230194374918938, 0.04157025367021561, -0.13555297255516052, 0.12710754573345184, -0.345436692237854, -0.05486571416258812, -0.20126107335090637, 0.048114754259586334, -0.029977556318044662, -0.21003210544586182, 0.04163253307342529, -0.18884815275669098, -0.026560572907328606, -0.09609891474246979, 0.041340626776218414, 0.038111284375190735, -0.19694320857524872, -0.02666429802775383, -0.013514223508536816, -0.04444897174835205, -0.11991852521896362, -0.04119397699832916, 0.009792632423341274, 0.023397471755743027, -0.12724842131137848, -0.19447052478790283, 0.3132580816745758, -0.17824122309684753, 0.1320382058620453, -0.06415485590696335, 0.10007890313863754, 0.23264241218566895, 0.24682818353176117, -0.043265920132398605, 0.10495772212743759, 0.1181911751627922, -0.17411799728870392, 0.10395031422376633, -0.09156503528356552, -0.2031099647283554, 0.11537565290927887, 0.27320724725723267, 0.11197631061077118], [0.10089972615242004, 0.0053830561228096485, -0.09157688170671463, 0.020804978907108307, -0.010098550468683243, -0.012147936038672924, -0.06971809267997742, 0.03517886996269226, 0.058571234345436096, -0.10211650282144547, 0.06837911158800125, -0.05457234010100365, -0.04649589583277702, 0.06074395030736923, -0.03994012251496315, -0.05851537361741066, -0.10966958850622177, -0.02196105197072029, -0.09234606474637985, -0.010111799463629723, -0.06047520786523819, 0.06782922148704529, -0.05510317534208298, 0.011687804944813251, -0.08632656186819077, 0.15362386405467987, 0.024787800386548042, 0.059394996613264084, -0.02075420506298542, -0.0034728869795799255, 0.08172450214624405, -0.019637297838926315, 0.036543965339660645, 0.07527794688940048, 0.050936780869960785, -0.05464650318026543, 0.17995628714561462, -0.007165287621319294, -0.049450673162937164, -0.11637181788682938, -0.013490062206983566, -0.0980783998966217, -0.0262276791036129, -6.0089758335379884e-05, 0.04439820349216461, 0.08080935478210449, 0.06016126647591591, -0.15393270552158356, -0.007133827079087496, -0.10200553387403488, -0.02856515906751156, -0.006852638907730579, -0.050168804824352264, 0.029197946190834045, -0.022378379479050636, -0.08478416502475739, 0.08311700075864792, -0.07239479571580887, 0.04567155987024307, 0.017829935997724533, -0.04109831154346466, 0.04905811324715614, -0.08825837820768356, -0.09446834772825241], [0.0016537782503291965, -0.054977692663669586, 0.0007295829127542675, -0.16748085618019104, 0.06947019696235657, -0.05216372758150101, -0.07645729184150696, -0.07550098747015, 0.04506707563996315, -0.04033850133419037, -0.05215475708246231, -0.20198383927345276, -0.16753365099430084, 0.01079572644084692, -0.2220274657011032, -0.07469242811203003, -0.07434521615505219, 0.0034513555001467466, -0.1719379723072052, 0.088950976729393, 0.16340592503547668, 0.20617662370204926, 0.09563504904508591, 0.1663442999124527, -0.11528997868299484, -0.13954707980155945, -0.01706629805266857, 0.12874220311641693, -0.02227325551211834, -0.019916806370019913, 0.05625714734196663, -0.0228668712079525, 0.03140031546354294, 0.09908825159072876, 0.2589714229106903, 0.10613086819648743, 0.3186931014060974, 0.020783402025699615, 0.10772577673196793, -0.11106278002262115, 0.05937979742884636, -0.03866695612668991, -0.0695650726556778, 0.026565968990325928, -0.11026394367218018, -0.010096120648086071, 0.18375177681446075, -0.07238736003637314, 0.1408769190311432, 0.001761595718562603, -0.02963622659444809, -0.03221968561410904, -0.10310787707567215, -0.019604356959462166, -0.1426640897989273, -0.13565391302108765, -0.0904311090707779, -0.0021539991721510887, -0.08786864578723907, 0.087215855717659, 0.20698167383670807, -0.17350570857524872, -0.06753569096326828, -0.18815304338932037], [-0.002419176511466503, 0.035156939178705215, 0.006354534067213535, -0.007115498185157776, 0.002170585561543703, 0.005046312231570482, -0.030219117179512978, 0.00032151699997484684, 0.017284438014030457, 0.0033184851054102182, 0.028025249019265175, 0.020870989188551903, 0.009845609776675701, -0.006199244875460863, -0.01872449368238449, 0.011835571378469467, -0.006176435854285955, 0.011694920249283314, 0.01476107444614172, 0.013184995390474796, -0.015276133082807064, -0.007621739059686661, 0.03786099702119827, -0.003358282381668687, 0.007771296426653862, 0.04535365104675293, -0.020806066691875458, -0.01585226133465767, 0.014762140810489655, 0.03294609114527702, 0.01787075586616993, 0.006736426148563623, -0.0024641004856675863, -0.005062262527644634, -0.006870894692838192, 0.0029812264256179333, 0.025372875854372978, 0.01517042052000761, 0.00127853499725461, 0.007781926076859236, 0.024200886487960815, 0.02306513488292694, 0.007943934760987759, -0.017402200028300285, 0.0046623446978628635, -0.004574765916913748, -0.031396642327308655, 0.029818270355463028, -0.013035286217927933, -0.008669473230838776, -0.059746503829956055, -0.016428550705313683, 0.032397717237472534, -0.02402416616678238, 0.004192059859633446, -0.0033512343652546406, 0.02781408652663231, -0.013714206404983997, 0.014139525592327118, -0.0013540126383304596, -0.027017252519726753, 0.03031683899462223, -0.014877468347549438, 0.030786069110035896], [0.09208900481462479, -0.17642930150032043, 0.009959516115486622, 0.16672825813293457, 0.003559884149581194, 0.010376893915235996, -0.036886781454086304, -0.026108304038643837, 0.10580248385667801, 0.033114321529865265, 0.17233659327030182, 0.11611094325780869, 0.014390220865607262, -0.05706336349248886, 0.022252190858125687, 0.07306002080440521, -0.05009057745337486, -0.1176026463508606, 0.07742837816476822, 0.0930887758731842, -0.13615290820598602, -0.1612919270992279, -0.06821397691965103, -0.010613851249217987, -0.017793389037251472, 0.19703954458236694, 0.08745581656694412, -0.049194078892469406, 0.006705317180603743, -0.05332138016819954, 0.028848158195614815, 0.010093927383422852, -0.023444581776857376, 0.04622592404484749, -0.026475725695490837, -0.11292186379432678, -0.07260885834693909, 0.024659669026732445, -0.05426785722374916, -0.025958096608519554, -0.05402103811502457, 0.004541029687970877, -0.04396956041455269, -0.049085188657045364, 0.01573728583753109, 0.07881813496351242, -0.025962498039007187, 0.007075636647641659, -0.016295112669467926, 0.0006657628109678626, 0.09556972235441208, -0.028431352227926254, 0.052201297134160995, -0.09191995859146118, 0.02712242491543293, 0.0011465458665043116, 0.08029769361019135, -0.06634743511676788, -0.031143097206950188, 0.008418451063334942, -0.06796619296073914, -0.034252967685461044, 0.08135680854320526, 0.006989512592554092], [-0.15897220373153687, 0.052115608006715775, -0.06636720150709152, -0.22219383716583252, -0.15297934412956238, -0.027043605223298073, -0.14733824133872986, -0.062135037034749985, -0.01813695952296257, -0.06311380118131638, -0.09853213280439377, -0.22964516282081604, 0.013890080153942108, 0.10610702633857727, -0.1574801206588745, -0.19666773080825806, 0.09075871855020523, 0.03650815412402153, -0.17910072207450867, -0.00735901016741991, 0.23921367526054382, 0.24307973682880402, -0.009907754138112068, 0.1639573872089386, -0.05489950254559517, 0.07099698483943939, -0.017809854820370674, 0.15020109713077545, 0.1525382399559021, 0.07037296146154404, 0.09242038428783417, -0.03165136277675629, 0.13394321501255035, -0.1904580444097519, -0.21206647157669067, 0.025037217885255814, -0.040479838848114014, 0.02090410701930523, 0.2216469943523407, 0.20759272575378418, -0.033438198268413544, 0.31538712978363037, 0.09811792522668839, 0.10837710648775101, 0.0964566171169281, -0.0025180629454553127, 0.17336025834083557, -0.1238628625869751, 0.09182880073785782, -0.036729712039232254, -0.11551463603973389, 0.0398210845887661, -0.13834698498249054, -0.03164844587445259, -0.04685446247458458, -0.10756395012140274, -0.23055724799633026, 0.1679537147283554, -0.09771108627319336, 0.06427405774593353, 0.1761224865913391, -0.15093673765659332, -0.1539406180381775, 0.07603176683187485], [-0.0028727282769978046, -0.03928247094154358, 0.01613280177116394, 0.03139882534742355, 0.016515983268618584, 0.025576112791895866, -0.01581576094031334, 0.07797075808048248, -0.008200526237487793, 0.043609801679849625, 0.010768240317702293, 0.03457871451973915, 0.030570808798074722, 0.01636510342359543, 0.046766314655542374, 0.024279627948999405, 0.06484004110097885, -0.01671726442873478, 0.06508252024650574, 0.003511979943141341, 0.007397881709039211, -0.033276256173849106, -0.010146880522370338, 0.003812385955825448, 0.05343170464038849, 0.059359561651945114, -0.008361116982996464, 0.0009741010144352913, 0.019841719418764114, 0.017694571986794472, 0.03433212637901306, 0.07339071482419968, 0.0178537555038929, 0.0009976220317184925, -0.06027218699455261, 0.08807309716939926, 0.05723683536052704, -0.0544184148311615, -0.025048816576600075, -0.010364587418735027, 0.031021034345030785, -0.004832545295357704, 0.00840496551245451, -0.00629999116063118, -0.07163390517234802, 0.012921263463795185, 0.028672339394688606, -0.014232884161174297, 0.03079533949494362, 0.09607631713151932, -0.06169302761554718, 0.03191763907670975, 0.05685191974043846, -0.005827396176755428, -0.0015690968139097095, 0.0008966786554083228, -0.003097596112638712, -0.0013494332088157535, 0.010004742071032524, -0.024462465196847916, 0.028939293697476387, 0.03496867045760155, 0.06059686094522476, 0.045842550694942474], [-0.0187534149736166, -2.0298689378250856e-06, 0.03434091433882713, -0.0527002327144146, -0.04980587214231491, -0.006072898395359516, -0.026842933148145676, -0.0038170963525772095, 0.02763311378657818, -0.0463077537715435, -0.012272278778254986, 0.018648941069841385, 0.006903845351189375, -0.038218773901462555, -0.06264045834541321, 0.014679760672152042, -0.08579578250646591, -0.03718212991952896, 0.0342090018093586, -0.026219498366117477, 0.04468894377350807, -0.0018010006751865149, -0.013984739780426025, 0.017005925998091698, -0.022103993222117424, 0.02619454264640808, 0.0801471397280693, -0.025920310989022255, 0.0557812862098217, -0.004647460766136646, 0.009600946679711342, -0.07518338412046432, 0.040852975100278854, -0.0176105760037899, -0.03322139382362366, -0.10098133236169815, -0.08728548139333725, 0.029705625027418137, 0.0067731901071965694, 0.018361516296863556, 0.06060009449720383, 0.01130469050258398, 0.009698908776044846, -0.007323989178985357, -0.00301629351451993, -0.005990249570459127, 0.053370021283626556, -0.0027801254764199257, -0.0301679540425539, 0.04789057746529579, 0.08147778362035751, -0.06726018339395523, 0.011265459470450878, 0.014787792228162289, 0.012423495762050152, -0.05976782739162445, -0.08234666287899017, 0.05742049962282181, -0.008032802492380142, 0.005258459597826004, -0.021118398755788803, 0.03735026344656944, -0.010536152869462967, -0.013939383439719677], [0.02968870848417282, 0.07551459968090057, 0.0509672686457634, -0.008652828633785248, 0.07430008053779602, -0.02125246822834015, 0.08521725237369537, -0.035917993634939194, 0.028680283576250076, -0.020155422389507294, -0.05301463603973389, -0.07854218780994415, -0.15207362174987793, 0.061590973287820816, -0.08120013773441315, 0.04582016170024872, -0.031218713149428368, 0.048041731119155884, -0.08073130995035172, -0.02016136609017849, -0.02772754430770874, -0.018820250406861305, 0.033093344420194626, -0.03328506276011467, 0.025171438232064247, -0.024431858211755753, -0.0006014377577230334, 0.07517404854297638, -0.020851513370871544, 0.0027565653435885906, 0.024991674348711967, 0.0640166774392128, 0.04987368732690811, 0.07023727148771286, 0.02685246244072914, -0.04147060588002205, -0.050948794931173325, -0.008908079005777836, -0.04381495341658592, -0.087126225233078, 0.05948188900947571, 0.04092121496796608, -0.13457168638706207, 0.06989803165197372, -0.02605091780424118, -0.006624689791351557, -0.008697066456079483, 0.09161821752786636, 0.062087561935186386, 0.03544813394546509, 0.010832451283931732, -0.008767371065914631, -0.03771549463272095, 0.020146526396274567, -0.11098209023475647, -0.024223290383815765, 0.024537166580557823, 0.015225091949105263, -0.05019070580601692, 0.09154432266950607, 0.03262121602892876, -0.06778283417224884, 0.01807950809597969, -0.1099495142698288], [0.05414526164531708, 0.21287347376346588, 0.22966909408569336, -0.19164562225341797, 0.1946822553873062, 0.12595272064208984, -0.0975051000714302, 0.062204159796237946, -0.10053332149982452, 0.07145128399133682, -0.10706444829702377, -0.18720172345638275, -0.11619419604539871, -0.23519845306873322, -0.056570280343294144, 0.03166114538908005, 0.34082913398742676, 0.08842653036117554, -0.012631509453058243, -0.09224151819944382, 0.1634325087070465, 0.18221290409564972, 0.436023473739624, 0.06135595217347145, 0.1582356095314026, -0.09682510048151016, -0.2900477945804596, 0.09709479659795761, -0.25275421142578125, 0.3804227113723755, 0.06058848649263382, 0.23904749751091003, -0.024061251431703568, 0.11201588064432144, 0.17297391593456268, 0.3630824387073517, 0.15429110825061798, -0.10362953692674637, 0.06739963591098785, -0.1682647168636322, 0.3737100064754486, 0.1269168108701706, -0.20572234690189362, 0.06920427083969116, -0.2520710229873657, -0.1742243617773056, 0.08905699104070663, -0.01598871871829033, -0.05694509297609329, 0.28514769673347473, -0.4232383966445923, 0.3310648798942566, 0.15498971939086914, 0.08855010569095612, -0.07109585404396057, 0.04422936588525772, -0.06616012752056122, -0.1785777509212494, 0.09653056412935257, -0.020594662055373192, 0.11206166446208954, 0.001311760162934661, -0.07169109582901001, -0.15662966668605804], [0.04083413630723953, 0.09339074790477753, 0.05793845281004906, 0.009581327438354492, 0.09151886403560638, 0.029677918180823326, 0.02807292714715004, 0.01787039265036583, 0.01471444871276617, 0.1239255741238594, -0.015418569557368755, 0.03938262537121773, -0.08882039040327072, -0.1331203281879425, -0.07185409218072891, 0.01277691125869751, 0.07196780294179916, 0.11172176897525787, 0.08804929256439209, -0.006132763344794512, -0.01722874492406845, 0.054273951798677444, 0.12282801419496536, -0.028299923986196518, 0.10789419710636139, -0.02624417468905449, -0.13605523109436035, 0.04845384880900383, -0.0737953707575798, 0.14080341160297394, -0.10425888001918793, 0.10378863662481308, -0.09184423834085464, 0.014845303259789944, -0.011656948365271091, 0.13553957641124725, -0.0777377262711525, -0.10010886192321777, 0.03171796351671219, -0.04396011307835579, 0.05254366993904114, -0.012286978773772717, -0.07315845787525177, 0.02920915186405182, -0.07251680642366409, -0.07664530724287033, 0.027758946642279625, -0.050140347331762314, -0.07441668212413788, 0.158980593085289, -0.16472037136554718, 0.14175625145435333, 0.1658678650856018, -0.023359540849924088, -0.05202215164899826, 0.11223365366458893, 0.05110834166407585, -0.0675448328256607, 0.0661088079214096, 0.005190925672650337, -0.05337882041931152, 0.053131114691495895, 0.06722769141197205, -0.019705869257450104], [0.0069860112853348255, 0.059405822306871414, 0.021852117031812668, -0.012932109646499157, 0.035071082413196564, 0.026896970346570015, -0.048467088490724564, 0.014528383500874043, -0.01938459649682045, 0.011810431256890297, -0.008031192235648632, -0.025942549109458923, 0.05818771943449974, -0.036899931728839874, 0.014771923422813416, 0.029103241860866547, 0.06331945210695267, 0.04878461733460426, 0.041988592594861984, -0.008738313801586628, -0.018704677000641823, 0.02645297721028328, 0.0097424928098917, 0.015800049528479576, 0.0021259875502437353, -0.03221745043992996, -0.015551775693893433, -0.0499124675989151, -0.016664644703269005, 0.024979207664728165, 0.029387706890702248, 0.0658072754740715, -0.059275124222040176, 0.017903106287121773, -0.019617827609181404, 0.031152650713920593, -0.03967798873782158, 0.00289970263838768, -0.0037323343567550182, -0.03817340359091759, 0.12584950029850006, -0.01615236885845661, -0.04424450546503067, 0.005402302369475365, -0.05304437503218651, -0.011526145040988922, 0.025111297145485878, -0.027886662632226944, -0.02671218104660511, 0.08515883982181549, -0.1022891029715538, 0.03213123977184296, 0.04218282923102379, -0.027592498809099197, 0.010159192606806755, 0.037437792867422104, -0.0024085871409624815, -0.04215959459543228, 0.05721462890505791, -0.004116975702345371, -0.04434474557638168, 0.0794893279671669, -0.051889874041080475, -0.023160850629210472], [0.020265260711312294, 0.06872047483921051, 0.0453932099044323, -0.025591064244508743, 0.0013333840761333704, -0.031992726027965546, -0.18892045319080353, -0.05737223103642464, 0.08245953917503357, -0.020016232505440712, -0.03983892872929573, -0.11931774765253067, -0.1908446103334427, 0.037092387676239014, -0.1824246346950531, -0.08226330578327179, -0.0071938359178602695, 0.010449113324284554, -0.11149830371141434, 0.09660133719444275, 0.08352344483137131, 0.1251605749130249, -0.003340913914144039, 0.14920899271965027, -0.03079172596335411, 0.04404082149267197, 0.031996145844459534, 0.13123157620429993, -0.07235156744718552, -0.06504805386066437, 0.08293724060058594, -0.011576620861887932, 0.16188739240169525, 0.021488158032298088, 0.09788458794355392, 0.060801148414611816, 0.12136117368936539, -0.02773207053542137, 0.08789033442735672, 0.004478593822568655, -0.019419550895690918, 0.10443846136331558, -0.10176659375429153, 0.04626539722084999, 0.0007151628378778696, 0.011081081815063953, 0.17083187401294708, -0.07708264887332916, 0.07212314009666443, 0.05542869493365288, -0.0850982666015625, -0.02604716829955578, -0.11985505372285843, -0.1075930967926979, -0.10106667131185532, -0.09701920300722122, -0.148215189576149, 0.03936798498034477, -0.08192482590675354, 0.0712236687541008, 0.16383416950702667, -0.12857656180858612, -0.09958690404891968, -0.09591800719499588]], "b": [0.08384224772453308, 0.22708719968795776, 0.02653898298740387, 0.2226661592721939, 0.09356570988893509, 0.20890569686889648, 0.24417808651924133, -0.04114643111824989, -0.196287602186203, -0.04093414172530174, 0.007774575147777796, 0.11819672584533691, -0.22916871309280396, 0.17614413797855377, 0.05908425524830818, -0.042295463383197784, 0.1592787653207779, -0.1110042929649353, -0.12221261113882065, 0.07463447749614716, 0.10565683990716934, -0.17463459074497223, 0.22639676928520203, 0.2816435992717743, -0.06614916026592255, 0.04147593677043915, 0.03246768191456795, 0.20699824392795563, 0.03790188580751419, 0.14485034346580505, -0.30064231157302856, -0.03262004628777504, -0.06617128103971481, 0.056213319301605225, 0.1591370701789856, 0.19698373973369598, 0.08668239414691925, 0.02543293498456478, -0.10550650209188461, 0.0286799855530262, 0.0037553587462753057, -0.011942455545067787, -0.2129507213830948, -0.2827417850494385, 0.05601214990019798, 0.2378876954317093, 0.17648769915103912, 0.019833294674754143, -0.13665704429149628, 0.3119535446166992, -0.08432450890541077, -0.10399041324853897, 0.04890943691134453, -0.027130158618092537, 0.04261062666773796, -0.04339776188135147, 0.034005552530288696, -0.043780650943517685, 0.11481247842311859, -0.3304652273654938, -0.20440521836280823, -0.106340691447258, 0.026966266334056854, -0.07786426693201065], "act": "tanh"}, {"W": [[-0.19291698932647705, -0.05750523880124092, 0.051501426845788956, 0.07072238624095917, -0.14283840358257294, 0.07687532901763916, -0.07249963283538818, -0.14745180308818817, -0.15937814116477966, -0.03343416377902031, 0.22058738768100739, 0.006791070103645325, 0.13637733459472656, -0.05245455354452133, -0.17008675634860992, 0.06343808025121689, -0.07613051682710648, -0.07230233401060104, -0.1375519037246704, 0.16901470720767975, 0.11815235018730164, -0.22730356454849243, -0.05317622050642967, -0.09086118638515472, -0.06766024231910706, 0.05859500542283058, 0.044463321566581726, -0.024761084467172623, -0.031548622995615005, 0.03610871359705925, 0.11430960893630981, -0.1059723049402237, 0.010171961970627308, -0.1636403352022171, -0.1988770067691803, -0.028012773022055626, -0.007579087279736996, -0.08079203963279724, -0.1468733251094818, 0.041456952691078186, -0.005535297095775604, 0.011928641237318516, 0.1658506989479065, -0.18141019344329834, -0.025398649275302887, -0.08122304081916809, -0.058525584638118744, -0.010952183976769447, -0.13918231427669525, -0.11404801160097122, 0.14289984107017517, 0.03501718491315842, 0.02105085924267769, 0.19664175808429718, -0.023252464830875397, -0.04642830789089203, -0.01566140539944172, -0.04898488149046898, 0.02201397903263569, 0.05649223551154137, -0.30686256289482117, -0.16228866577148438, -0.060125596821308136, 0.13312819600105286], [0.3771578371524811, 0.1593194305896759, 0.0011689187958836555, -0.3462521433830261, -0.03682120144367218, -0.35794317722320557, 0.16182048618793488, -0.08490537106990814, 0.27060067653656006, -0.09704314917325974, -0.20008239150047302, 0.03997761383652687, -0.33147329092025757, 0.18827851116657257, -0.007478017359972, 0.1423729509115219, 0.083560049533844, -0.05934125557541847, 0.22044700384140015, -0.037188366055488586, -0.033396486192941666, 0.03418874368071556, 0.16271035373210907, 0.3749507963657379, -0.03281402587890625, 0.024819662794470787, 0.019714804366230965, 0.18200966715812683, 0.023149928078055382, 0.08772613108158112, -0.2682264447212219, -0.03782416507601738, -0.008760039694607258, -0.0969669446349144, 0.06665487587451935, 0.15574300289154053, 0.013357148505747318, -0.01943071186542511, 0.3122980296611786, 0.06959246098995209, -0.0024810770992189646, -0.007334487047046423, -0.37450045347213745, 0.5377691984176636, 0.028451230376958847, 0.2655770182609558, 0.039987530559301376, -0.0036288269329816103, -0.0502823069691658, 0.3280964195728302, 0.11641990393400192, -0.3264796733856201, 0.11348888278007507, 0.24529573321342468, 0.009998846799135208, -0.1352987438440323, 0.2269451767206192, -0.014490475878119469, 0.03905864804983139, -0.15141761302947998, 0.10017111152410507, -0.04792901873588562, 0.014567258767783642, 0.1367938369512558]], "b": [-0.09372516721487045, 0.2862764596939087], "act": "linear"}]}